#include "quantized_weights_int16.h"

__attribute__((section(".rodata"))) const int16_t _Conv1_weight[72] = {
  -625, 7077, -18079, 24913, 8608, -31170, 10274, -13013, -8595, 8244, -5800, 15564,
  -16268, 21801, -6010, 13562, -7908, 4671, 1209, 17418, -9933, 10246, -3776, 6880,
  -1145, 12654, 13728, 6347, 15476, -2123, 5338, -8145, 18025, -27635, -24844, 12357,
  14403, -12858, -32409, -28025, -12834, 16721, 3469, -9210, 18822, -1497, -3154, 8018,
  3647, -847, -2891, 4125, 9241, 982, -17285, -32767, 11150, 13176, 18437, 9406,
  18352, -23569, 413, -4421, 19624, -16206, 23973, 12374, 12686, -4699, -14157, -10161,
};

__attribute__((section(".rodata"))) const int16_t _Conv1_bias[8] = {
  -7673, -32767, -11990, -25174, -526, -16467, -8718, -9604,
};

__attribute__((section(".rodata"))) const int16_t _Conv2_weight[1152] = {
  -32376, -17907, -7712, -10115, -9371, -6018, -20049, -27333, -7808, -6051, -8105, 232,
  -4827, -2093, 6332, -991, 5469, -13506, -2148, -262, 6815, -9708, 7795, 8002,
  -17387, -2157, -16094, -12391, -8671, -14949, 6748, 741, 5165, -6695, 5679, 303,
  20040, 13763, 19363, 1562, -157, 3878, -20949, 11741, 24644, -844, 4503, 8907,
  -13786, 832, -1263, -11042, -12249, -18804, -1392, -3021, 1430, 64, 8725, -689,
  59, -15675, -25530, -7015, -14744, 4499, -5977, 3587, 4453, -9201, 6321, -2148,
  -1435, 7759, -10855, -1488, -6924, -15140, -1744, -8421, -17123, 9210, -9916, -9413,
  -10859, -306, -3200, -13271, -860, 8009, 1666, 7155, -8647, 3488, -10701, 4255,
  -7389, -4167, 10371, -3855, 6624, -5078, -2320, 15, -3379, -9406, -617, 4790,
  1612, 7478, 1367, 6880, 11887, 501, -441, -4233, -12284, 1027, -8150, 2599,
  -7084, -2448, -3457, -6182, 3833, 6271, -8011, -6220, -2296, 10334, 6894, 6468,
  -16170, 5166, -10711, 2345, 3093, -14428, 4623, -19327, 2187, -8324, -11725, 4936,
  -5644, 10153, 2695, -12201, 6142, 7011, 1248, 3206, -481, -9211, -6810, -8965,
  5665, -2831, -8217, -4186, -4485, 1665, 9061, -1883, -8688, 2759, 6775, -8012,
  -11684, 2560, -7135, -910, -14060, 5883, 22551, -6452, -13756, 1478, 9271, 1892,
  -15006, 5411, 5389, -14162, -15444, 5174, 9581, 13412, -10541, 3317, 6779, -18313,
  -13257, 6084, -9468, 8750, 3619, 4994, -4547, 9013, 138, 274, -1382, 3056,
  8509, -4273, -3568, 5725, -12527, -7825, 3051, -9792, -5181, -10737, -1510, 68,
  3790, -10174, 17002, 12754, -7831, 3561, 13129, -5591, 25296, -11663, -3535, 877,
  -15790, 7076, 5128, -10759, 2494, -10208, -1100, -10624, 3228, -2002, -4521, -9737,
  -8976, 8178, 8118, 3593, -4778, -1657, -1315, 1339, 744, 6974, 3156, -6899,
  -2136, 6447, -4280, 7109, -363, -1985, -9341, 10718, -31634, -6992, -4328, 3836,
  -9519, 1078, 6533, -7046, 7121, -2560, -7437, 2151, -3921, -813, -3580, -5495,
  -9352, -3969, -1457, -11305, -8476, 2966, -7889, -7990, 10192, -15116, -9357, 5595,
  4556, 5759, 17863, 7770, 7991, -5024, -5736, 48, 3408, 64, 10775, 527,
  -30, 7052, -1594, -10197, -6454, -111, -5517, 8920, -12050, -2385, -9088, -7219,
  -1292, -12144, -6044, -12792, 169, -7459, -8436, 10787, 2247, 4785, 4687, 1021,
  -5297, -3044, 6324, 5333, -7858, 14000, 24577, 13159, 6509, -6229, 10585, -6192,
  1037, -3353, -12739, 65, 250, 1700, 7073, -4537, -21538, 10943, -4190, -2624,
  -15882, 3854, -5012, -9259, 10958, 1194, 5707, 7845, -18427, -5646, -2047, -6173,
  -9416, 18519, 19676, -4526, -8157, 12081, -425, -1938, -409, -11253, 3067, -2943,
  -918, -2135, 3743, 14145, -15465, -7633, -345, 8728, -8874, -10250, -239, -11310,
  -22680, -11437, 626, -5420, 9723, -7076, -10181, 5370, -4191, -5599, -12573, 7925,
  9367, 23228, 6310, -11734, 6722, -1431, 6584, -1999, 4433, -817, 1189, 224,
  -4001, 11097, -13207, -7033, -9706, -12578, -4110, -1426, 8343, -13528, 9567, 4972,
  13458, -3256, 9220, -15970, -8672, 8202, -4351, -13280, -1640, -32767, -3582, -21495,
  -1339, 1230, -9906, -9559, -608, -2486, -1503, 4277, -20162, 4069, -2150, 3801,
  3333, -4477, -11112, -7956, -14852, -12054, 4098, -3372, -890, 9321, 2043, -12655,
  -2865, -10217, 4314, -2051, -2958, -1776, -6584, 7951, -9995, 8999, 5332, 2367,
  -12698, -17337, -10996, 10102, -6488, -7409, -20031, 2664, 7457, 5122, 3226, -156,
  1493, 2258, -8282, 5907, 723, -6664, -7142, -8627, 3842, 1741, 7574, -14198,
  -9912, -10242, -1439, 2814, -6673, -8038, 3838, 989, -5136, 2068, -1108, -15965,
  -4657, -2803, -3794, -19612, 4869, 12394, -7809, -20369, -11940, 6440, -2248, 8034,
  -82, 1419, -4017, -4200, -1937, -8388, 15143, 3759, -1538, -4694, 401, -6688,
  -238, -2307, -9087, 3262, -3994, 2179, 11151, 4556, -4227, -13633, -5386, -8701,
  -11000, 4005, 1429, -15022, 5078, 8357, 14618, 21723, 16937, 1932, 7375, 7822,
  3808, -6127, -4152, -10283, 1969, -1301, -11, 9287, 4239, -8824, -2635, 4403,
  8500, 8306, -8673, -4954, -396, 5193, 1149, -411, -1384, -18653, -10823, -18931,
  3976, 4393, 1818, -12526, -9559, -10583, -3195, 3195, -2122, -3128, -9801, -12351,
  -2537, 2077, -3305, 7268, 1824, -1496, -2993, -9849, 7155, -5294, -12592, 1836,
  14911, 3299, -2612, -586, -4564, -811, -325, -19620, 12192, -2808, -19737, -12456,
  -1870, 4473, 17344, 3349, 6945, 17300, -16210, -12371, -5871, -8729, -8942, 2331,
  -2299, 577, -2382, 15950, -1521, -4121, -17820, 13124, -15147, 10753, -9573, -6306,
  6591, -8834, 5396, 5074, 8248, -13963, -17839, -18284, -15672, 2878, -285, -4955,
  -17991, -19561, -14839, 15771, 554, 9020, -12609, 808, 10510, -8383, -1808, 4192,
  10156, -11134, -25087, -1230, 8798, -5221, -17538, -8725, -2323, 1732, 543, -12112,
  -8021, 8844, 9305, -5199, 6046, 12985, -1317, -9712, -3566, 8956, 4257, -11462,
  -10021, -12612, 4384, 24144, 2486, -26893, 5711, 10548, -10087, 4719, 3243, 184,
  12949, -691, 103, -13712, 6844, 5354, -14172, 4264, -3976, 7986, -3120, -6334,
  7838, 3172, -3986, -21194, -17069, -672, 13721, 6323, -28313, -398, 5872, -2707,
  9567, 1932, 5413, 9615, 11487, -9240, 6426, 12681, 8826, -4522, -9080, -5998,
  2850, -2923, -2047, 9963, -15975, 2392, -1943, -14087, -8656, 838, 2060, 6564,
  -4058, -6297, 6940, -5873, -12320, -7816, -5720, -8482, 2164, -9411, 5301, -1277,
  6372, -5134, 10577, -17837, -9299, 8789, 1986, 8763, 12117, 1734, 50, -13504,
  5537, -15229, -1345, 445, -11048, 10546, 15589, -1662, -14618, 2676, -9980, 3953,
  -4126, -5171, -2952, -4098, -11364, -4166, -1457, -5866, 12768, -951, -8596, -15394,
  -5635, -5010, -3507, 2085, -10842, -2932, -20665, 1434, -11247, 1171, -12118, 624,
  -9770, 9762, 2683, -1954, 7044, 5942, -3802, -7181, -10600, -5544, 9216, 4428,
  540, 422, -3211, -3969, 5112, 7166, 4032, -6488, -10537, -6316, -13887, 9172,
  4055, -15619, -17575, 3885, 6320, 9760, -6768, -4242, -10998, 4749, -3167, -4440,
  3176, -1432, 2963, 6242, -842, 460, 9103, -961, -7329, -2304, -3802, 5520,
  14827, 13642, -4698, 5206, 5328, 6698, 5862, 576, -2410, -4165, -764, 7020,
  2677, -5181, -10287, -2636, -8668, 1479, 3454, 13145, -5016, -10203, -7301, 715,
  -3250, 7973, -1019, -5763, 4098, 5279, -10883, -5530, 5664, 1029, -14747, -647,
  -229, 4195, 1860, -6131, -9323, 5831, -3925, -2062, 14623, 2152, -4934, 15435,
  3267, -722, -16206, 5302, -404, -21928, 13694, -5042, -17505, -8318, -2900, 5229,
  -6373, 3910, -7649, -6362, -6910, -8398, -3057, 3070, 9755, 3238, 0, 2140,
  4541, -5431, 9973, 2206, -11578, -974, 481, -3311, -2681, -13325, 4333, -3884,
  -13746, 10857, 6757, -5286, -5060, 4941, -25788, -13343, -15078, -10568, 1418, -8381,
  3809, 9412, -7735, -10098, -5817, 5520, 5805, 3987, -11998, -946, 5673, 7851,
  2286, 5227, 6758, -2621, -7804, -808, 13946, 6003, 1070, 5420, -11048, 5770,
  -1787, -5422, 689, -18324, -7489, -15250, -12263, 1817, -14096, -10181, 8470, 3928,
  -3760, 2934, 2443, -5148, 1213, 2179, 2541, -364, 3996, -10106, -7140, -2876,
  -8543, -5528, 1223, -620, -1474, -14898, -1225, -8970, 8815, -14129, -4254, -464,
  -1885, 1084, -16907, -844, 5061, -8247, -21237, -14338, -8643, -4903, 393, 16179,
  -5549, -11362, -7246, 3355, 167, 8543, 887, -12208, -12682, -654, -287, -2851,
  7454, -372, -182, -11553, -13465, -2606, 11371, -3192, 8957, -7850, -10083, -12078,
  9002, -8048, -9716, 540, -3802, -1854, -11788, 8492, 9558, -8711, 3736, 8779,
  733, -5474, -7679, 1007, 1783, -538, 7409, 9142, -965, -3564, 962, -11199,
  -121, -5395, -4821, -5888, 5859, -24559, 11914, 8098, -15664, -8037, 112, -14356,
  -13098, 337, -3812, -6139, 7479, 4279, -7283, 14324, 977, 5751, -3059, 1835,
  -162, -4979, -1351, -5154, 4414, -1577, 1906, 7175, -8079, 7419, 6856, -10021,
  9251, 1855, -4671, -19559, -14811, -6069, -5840, -16557, 12171, -9692, -10524, 5078,
  -585, -6601, 3297, -1177, -25192, 1673, -14855, -1033, 4531, 3219, 1538, -2363,
  4500, -116, -9374, -1369, -9183, -6421, -8464, 446, -5806, -2035, -1305, -451,
  -1271, -7408, 402, -5338, 4230, 7630, -3858, -7540, -2716, -7829, 3068, -9831,
};

__attribute__((section(".rodata"))) const int16_t _Conv2_bias[16] = {
  -22194, -14171, -9555, -372, -3338, -6156, -4171, -23271, -12257, -1035, -12314, -27208,
  -32767, -2311, -4025, -20102,
};

__attribute__((section(".rodata"))) const int16_t _Linear1_weight[25088] = {
  -1729, 957, -244, -19, -596, 17, -984, 1988, -1822, 722, 852, -1921,
  -1612, 1642, 2376, -629, 7, -224, 511, 591, 12, 1707, -2801, 1583,
  1788, -615, -489, -1519, -504, 1242, 1754, 851, -2347, 749, 1062, 326,
  2012, 1664, -779, -1566, 739, 1933, 1096, -16, -1233, -268, -845, -2477,
  1412, -2297, 869, -2304, -2030, -1831, 1391, 1097, -1368, -1458, 939, -1139,
  -2154, 419, 1509, -116, 48, -491, -1321, 1245, 1080, -374, -2832, 1586,
  -875, -1910, 1973, 40, 1249, 1246, -1633, -1241, 158, 643, -1924, 1637,
  176, 55, 1966, -1852, -921, 1389, 1766, -1295, -1166, -714, 275, -2863,
  1917, -1260, -2243, -2183, -1803, 1205, 830, -957, -3437, -1022, -2648, -1281,
  1721, -2400, -540, -2847, 1377, 1577, 1847, 1774, -1216, -440, -1049, 128,
  1193, -2549, -420, -2226, -2650, 353, -583, 1900, -901, 1510, -2192, -1834,
  -875, -2613, -1317, -920, -2320, -690, 1370, -617, -2073, 124, 506, -2053,
  -2341, 482, 1144, 1798, 630, -931, -1894, 1497, -70, 2050, 155, -1341,
  493, 1160, -1300, -3405, 2468, -2133, -1778, -1935, -1178, -400, 1519, 1909,
  -376, -715, 1754, -1535, 679, -744, -2640, 180, 153, -1911, 556, 1485,
  980, 967, -2893, -2870, -635, 1648, 809, -1447, 111, -1314, 499, 1202,
  -644, -1503, -2526, 1212, -2213, 177, 1262, -2457, -2120, 812, 496, 893,
  1490, -688, 27, -1444, -2209, -3131, -614, 1982, -2436, 544, -2630, -2921,
  330, 851, -643, -2068, -427, 516, -406, 540, 1496, -1387, 264, 1425,
  -2515, -1935, -2596, -384, 289, 100, -1081, -1620, 188, -472, -2179, -55,
  -1041, -3781, -2342, 598, 759, 325, -505, -1454, 1223, -579, -88, -738,
  -1309, 1389, 1808, -1146, 462, 1130, 2161, -362, 1508, -876, 1687, -2098,
  2121, 1513, 707, -820, -2129, -1497, -2129, -2047, 807, -3011, 1040, 357,
  -666, -856, -2640, 2057, -2244, -1086, -676, -1760, 828, -1558, -157, -472,
  -895, 452, 1034, -2663, 1736, -1659, 946, 1235, 1392, -1788, -19, -1820,
  -1686, 452, -2735, -2673, -764, -533, -1910, -1324, -1732, -902, 1122, 1710,
  -2405, 296, -10, -730, 786, -1214, 1967, -1527, -1673, -283, 1531, 368,
  -1282, -2259, -1551, -50, 361, 747, -2615, -26, 1952, 74, -1732, -2338,
  1310, -2621, -667, -1077, -1622, -547, 466, -1621, -459, 937, -2344, -678,
  -950, -659, -1396, -2748, -423, -986, 767, -950, -2323, 542, 809, 263,
  -496, -1161, 382, -2755, -591, -1985, 716, 1792, 708, -808, 108, 1014,
  1121, -993, -1365, -47, -1876, 1864, -2392, -760, -1331, 374, 72, -1219,
  -412, -66, 103, 1500, 694, 598, -2655, 68, 1244, 1682, -1437, -232,
  381, -490, -3023, -545, 1199, 643, 276, -833, 1290, 820, 3097, -1996,
  -2558, -1539, 865, 388, -1783, 1012, -334, -1418, -92, -2177, 1825, -945,
  729, -2327, 1746, -1444, -1428, -1887, 1572, -1393, -696, -2538, 1318, -707,
  -680, 423, -1122, -2408, -2103, 1295, -1734, -1235, 1374, -532, -2438, -626,
  -725, -1822, -760, -2107, -130, -37, -1310, 550, 1736, 184, -2053, -1463,
  1854, -2440, -2071, 972, -2503, -974, -356, -2680, 885, 489, 530, -800,
  -1801, -614, -1714, -133, -2531, 367, -205, 1612, 1033, 1747, -2326, -2257,
  1306, -549, -2327, 1517, 750, -782, -777, -1362, 703, 11, -2324, -1548,
  -2401, -492, -2145, 500, 261, -302, -3360, 246, -1995, -1921, -2466, -80,
  -2438, -3517, -1259, 1234, -893, -383, -564, -2442, 1492, 466, 2294, -1369,
  -1315, 4, -1828, 1718, 947, -2088, 1670, -2388, 750, 966, -2909, 494,
  561, 1879, 417, 1060, -2086, -1953, -2201, -467, -2138, 1567, -1116, 1632,
  -818, -2532, -686, -2367, -1482, -2197, 192, 151, 97, -2914, 235, -784,
  -944, -1298, 101, -472, 901, 1678, -1420, 212, -1223, 1123, -3041, 702,
  1261, -2290, -1140, -450, -575, -2455, 260, -1947, -1030, -110, -3064, -419,
  -1461, -1287, 493, 1313, 1060, -1275, 1397, -276, -1498, -734, 1616, 430,
  1992, 1373, 1645, 1435, 1899, -509, -2401, 1410, -2722, 1237, -1403, -182,
  1332, -422, -1256, 93, -983, 1378, -2316, -2300, -984, -2006, -536, -2325,
  -2185, -2258, -55, -1562, -1168, -1721, -1361, -709, -199, -326, 1573, -454,
  2, 554, -2110, -1575, -1031, -1797, -1027, 285, -241, -2762, 60, 1255,
  276, -1331, 1768, 1643, -721, 99, -520, 882, 1638, -1939, -1302, 1352,
  -673, -1850, -1660, -748, 26, -1340, 1942, -2530, 1012, -2219, -1699, -1629,
  1145, 87, -2553, 1761, 548, -2952, -629, -148, 649, -1370, 123, 941,
  -1198, -2817, 1480, 897, -2569, 1177, -644, -902, -522, -1718, 2243, 802,
  -191, -2424, -1779, 562, 1428, 1251, -1058, -2213, 595, 469, -209, -67,
  -1274, 590, 1756, 854, -1269, -1239, 263, -1097, -2101, -1779, -2201, 1021,
  410, 344, 1420, -1746, -2066, -1102, -862, -2383, -1610, -1404, 93, -2124,
  1094, -1355, 526, 1561, -200, -1895, -1290, -2039, -2247, -2812, -747, 1502,
  -1021, -64, -1722, -1879, 775, -2382, -2359, 459, -385, -548, -2386, 898,
  391, -211, 1414, -774, -81, 129, -2110, -724, -323, 977, -1845, 22,
  1271, 1103, -1665, 467, -1119, 442, 226, -1083, -1089, -2379, 1443, 277,
  -721, 699, -740, -2574, -623, -1604, 469, -2426, -395, 519, -2165, -767,
  -517, 1646, -2439, 1565, -1470, 11768, -1921, -1968, -1101, -1302, 963, -5537,
  -594, 2303, 1550, -2457, 1769, 145, -395, -75, 759, 1264, 1450, -250,
  -1652, -743, -2803, -298, 1586, 1754, -2785, -691, 101, -1255, 1272, -187,
  -1114, -1395, -481, -774, -2452, 1834, 1312, -1219, -995, -895, -1957, 1956,
  728, 743, 191, 844, 1294, -1943, -229, -201, -2187, -1378, 310, 1177,
  -2658, 36, -976, -3084, -1640, 1241, -1311, 1512, -506, -970, -1836, 673,
  -1606, -1576, 1194, -156, 369, -1613, -1804, -890, -3499, 748, 275, -1560,
  904, 1701, -3026, -2752, 12, -645, 1106, -2219, -2488, 825, -2199, -140,
  -1585, 611, -3143, -95, -1456, 1350, -2985, -1078, 1257, -138, -2354, 443,
  -1548, -2084, 205, 1772, -1913, 1683, -366, 1077, -2170, -1342, -155, 484,
  -1062, 442, 528, -2492, 51, 77, 362, -1488, -1951, -1963, 2146, -209,
  -1582, -599, -245, -2343, 1083, -105, 1510, -1694, -934, 1225, -2335, -289,
  1189, -719, -1885, 1077, -2383, -886, -1062, -549, 1560, 1350, 522, -1947,
  29, 10, -1664, -2292, 574, 513, -56, 2120, -2065, -1523, -1505, -1623,
  673, 1011, 422, -534, -1534, -2299, -2437, -2912, 676, -105, -2758, 435,
  -3425, 1308, 41, -1361, 287, 1086, -2222, 622, -2589, -1522, -2434, 1651,
  42, -1807, -3683, -1886, -62, -1126, 1001, 104, -3203, -573, -1592, -1940,
  -659, 1697, 24, -1218, -778, 1534, -735, 175, -1911, -1976, -3270, -211,
  3929, -4918, 853, -1187, -2503, -2306, 107, -847, -1890, 441, 485, -199,
  3118, 381, 1148, 1546, -2259, -1873, 461, -3529, -923, -3552, -933, 1619,
  -1188, -1999, 1480, -390, 1586, -708, -2227, -1222, -1337, -3055, 1849, -1034,
  440, -1169, 463, -725, -870, -1210, 653, -1285, -1996, -1421, -2185, -3807,
  -2762, 1959, 1776, 1035, 729, -1682, -548, 406, -2115, -675, -29, -1480,
  672, -1091, -1809, -1643, -349, -1904, -1256, 1525, 914, -2796, 747, -706,
  -1931, 789, -584, -2454, -1119, 590, -81, 1715, 502, -2559, -144, 10,
  -2021, 96, -778, 1036, 915, -1358, -1907, 1154, 714, 1821, -1631, -2648,
  619, 1281, -589, 273, -1023, 1314, -2704, 726, -1436, -2012, 1596, 949,
  -2651, 994, 1317, 843, 1877, -167, 1150, -499, -1983, -125, -940, 637,
  1282, 158, -2140, -2001, -766, -1168, -308, -2147, -2476, 724, 1050, -449,
  782, 1978, -2136, -566, -473, -1305, -1827, 4121, -1654, -202, 600, 1035,
  -2012, -1474, -1282, 4041, 1206, -1992, 1651, 615, -326, -1602, -3874, -5790,
  -874, 1222, -847, -1999, 719, 836, -3571, 15, 475, 186, -790, 1445,
  -2968, -429, -2310, -444, -2837, -1081, -382, -2253, -3011, 474, -2277, 66,
  534, -692, -2464, 504, -474, -543, -3455, 512, -1588, 1459, 1010, -2877,
  -143, -4177, 93, 673, 2063, 1315, -2296, -2788, -3345, -1236, -2738, 161,
  -1683, 1489, 3029, 601, -1371, 564, -161, -3126, -1345, -1111, -2984, 385,
  339, -1184, -1736, -1301, 1244, -436, 1881, -353, 348, -95, 2784, 4863,
  -49, -2433, -2163, -692, 734, -2124, -146, 2083, -3657, 499, -1976, 378,
  -832, -140, -1132, 292, -1266, -658, -2284, -1374, -2591, -1089, -411, 837,
  -1756, -683, -2278, -296, -71, 990, -140, 194, 1561, 1056, -2507, -103,
  -2020, -227, 952, -174, 235, 811, 1059, -1175, 535, 1225, -108, -2457,
  1673, -1084, -1348, 2730, -2304, -1272, -888, -2987, -4588, -1659, -1267, -1656,
  -1495, 2539, 1301, -4607, 236, -3481, -1424, -1103, 5550, -2083, -4614, -2692,
  -3391, -30, -9244, 1351, -42, -5602, -4715, 1307, 305, -3987, 838, 6232,
  -2114, 2327, 1296, 1919, -1847, -4575, 609, 228, 3199, 1443, 3547, -2720,
  -9980, -166, 1481, -588, -2981, -1114, -1730, 596, 1317, 772, -983, -1133,
  1016, -2325, 847, -1298, 26, -2602, -2178, 677, 1752, -238, -2857, 731,
  -2294, 847, -2509, -1981, -879, -475, 1121, 111, -917, 1010, -2249, 578,
  -2056, -1580, -870, 862, 2135, -992, 1291, 989, 204, -4795, 718, -1944,
  -1689, -687, -1045, -1634, -2010, 1035, -1941, 1153, -1138, -1671, -780, -1215,
  -1478, 162, 1699, -1409, -64, -2247, -240, -1807, -2565, -713, -1871, -1023,
  1599, -2076, 85, -1851, -2547, -1313, -146, -2431, 1661, 484, 1691, -378,
  -1662, -984, -474, -1063, -794, -2150, -856, 793, -793, -2475, 207, 619,
  221, -2512, -2265, 1909, -2704, -304, 1485, -2738, 1190, 400, -2323, -981,
  -496, -466, -1033, 1183, -1382, 284, 1571, -1266, 1296, 1022, -222, 1274,
  -1472, -652, -2136, -94, -390, -834, 346, -2566, 480, -2790, 444, 1254,
  -2728, 918, 1174, -220, 1163, 114, -1611, 1850, -1700, 1678, -1491, -506,
  -2621, 679, -2425, -2444, -250, 1752, -3767, -1389, -103, 1462, 1315, -567,
  2297, -2381, 58, -2842, -2456, 1176, 803, 187, -3844, 683, -355, -2269,
  1401, 1059, 1958, -1696, 414, -241, -328, -635, 601, 828, -4041, 344,
  -1744, -566, 160, 1283, 1036, -2092, -472, -2381, 786, 766, -50, -1762,
  -2556, -858, 959, 1335, 1499, -2555, 1421, -1377, 27, -1780, -1128, 877,
  -1370, -2210, -4291, -482, 476, 1294, 1811, 764, 228, -1440, 1526, -1254,
  1354, -1061, 107, -2671, -239, -1710, -656, -1280, -2692, -1564, -899, -2388,
  176, 1258, -1447, 935, -1338, -2292, 166, -1905, 403, -343, 1504, 1169,
  -2354, -2132, 540, -1829, 960, -777, -1370, -1065, 2034, -3692, 951, -1956,
  6656, 55, 314, -2061, -9927, -1749, 6021, -3400, -2002, -892, 5625, -1000,
  -978, 7984, 1390, -11109, -2559, -1236, -8969, -9729, 9405, -14067, 2150, 7129,
  387, -4900, -4553, 12180, 10303, 3483, 11206, -2188, -2452, -8551, -4713, 1452,
  6540, 4090, 565, 1278, -5400, -4626, 6715, -8704, -4310, -2522, 3640, 7755,
  206, -2563, 5607, 13140, 1511, 12, -1134, -1445, -4237, -2667, -8287, -2976,
  490, 285, -3920, 7445, 3203, -5286, 6031, -1723, 7168, 2178, 3093, 2945,
  33, -978, -5435, -5943, 7829, 11481, 636, 3734, -7654, -1745, -4993, 3478,
  2674, 3696, 3892, 1330, -471, -5368, -1060, 2102, 2138, -8491, -7854, -1065,
  -8389, -3406, 1961, 7788, -1092, -1446, -1364, -2858, 4452, -2627, 1459, 3045,
  5952, -626, -5109, 6659, 2065, -2346, 5347, -3252, -803, 3705, 4624, 3604,
  5115, 3100, -5041, 2992, 2757, -3560, 2141, -1511, 244, 3938, -2962, -289,
  2606, -6325, -8569, -5422, -5852, 8621, 4656, 3823, -8479, -1864, 931, -12398,
  -677, -2991, 823, -6873, 6728, -11952, -9188, -6080, -6021, -3750, -7250, 2550,
  -8323, 355, 4297, 1739, -1092, -1463, -4005, -2370, 2812, 8386, 5237, -8631,
  244, 6539, -2477, 5734, 3283, 3091, 3687, 143, 353, 9198, 2779, -4246,
  300, 744, 2554, -2478, 13892, 2382, 177, 1817, -5918, -4511, -6975, 7877,
  -8062, -345, -2235, -5712, -724, -1843, -3850, -3654, 1451, 6787, -6735, -7537,
  -14055, -7286, -3070, 1271, 4127, -79, 2905, -6425, -6181, 7364, 3239, 5507,
  7298, 7623, 4806, -7051, 2336, 1221, -627, 4404, 8239, 5555, -1550, -2476,
  -9660, -571, 3434, 6016, 1480, -3279, -4934, -931, -119, -855, -1345, 2024,
  -5861, 699, 476, -4453, -9366, 2487, 4094, 1469, -4829, -4852, 3123, 5617,
  4753, 3650, 765, -1503, 4036, 1511, 11505, 13434, 8780, 2873, 5840, 2272,
  -3095, 17632, 8928, -1983, -6601, -1986, -7841, -5164, -5197, -5494, -1341, 10665,
  -6184, -3299, -141, -7177, -2449, 3169, 11607, 2994, 1976, -498, -164, -2052,
  -5610, -307, 6332, 2805, -2542, 1352, -3467, -5305, -940, -10849, -2304, 2923,
  -8745, -12086, -4303, 995, 2588, 6450, 4092, 2373, -47, 43, -2416, 2145,
  7488, 719, -834, -665, 2135, 691, -44, -3401, 2417, -4380, 1099, 629,
  3038, 5041, 7384, -4280, -3260, 958, 1299, -2077, -3593, -629, 3133, -3372,
  -623, -4362, 1349, 5546, 1479, 6684, 4678, 12547, 2689, -1455, -11040, -3173,
  -1774, 2511, -5748, -627, -240, -1969, -10262, -7739, -11527, -5452, -2068, -4982,
  -2799, -12769, -6887, -4631, 4475, -7970, -15520, 2727, 1123, -648, 1196, -1235,
  1105, -659, 2611, 5442, 2711, 4489, 2455, 87, -4401, 5783, -1925, 3770,
  866, -232, -3258, -7181, 7431, -1279, -1429, 2001, 2643, 2349, 5648, -3647,
  -8184, -3104, -41, 6220, 5847, 3647, -9918, -4986, -807, -9852, 1333, 1562,
  3287, 971, -5031, 1435, -4972, 3275, -1103, -9517, 1510, -8448, -7559, -3993,
  1673, -16191, 2611, 2990, -7108, -10296, 1822, -1962, -6353, 3197, 2177, 5698,
  -622, -2254, 8058, 4873, 5211, -3839, -5200, -2409, 8, -183, 2813, -8355,
  3307, 7944, 1963, 7727, 4465, 2542, -1503, 5748, -9354, -2626, -436, -120,
  -646, -4732, -15116, -17728, -13525, -15029, 4628, -690, -16544, -4708, -10008, 398,
  10646, 6758, -7308, -25598, 3467, 1735, 12161, 5190, -1327, -6939, -6504, -3342,
  -10037, 1475, 4725, -32767, -10514, -2840, -2594, -2344, 1933, -5775, 790, -8187,
  2878, 1297, 1460, 1985, -1477, 336, -3070, 1375, 4195, 7633, 8097, -4696,
  -8246, 5855, 3064, 4450, 7050, 4845, 1483, 1486, -379, 1202, -3388, -8232,
  5400, 6804, 4114, -3545, 1069, -7251, -1895, 8922, -1522, -16899, -12459, -211,
  922, 14932, 3354, 1739, -17713, -4881, 1378, -2413, 4417, 414, 3770, 3241,
  4686, 2473, -1344, -672, -1867, 605, 519, -4647, -209, 4703, 1915, 2200,
  1782, -1721, -2789, 1521, 2633, -2691, -11009, -2778, -2186, -4241, -6751, -4504,
  -16164, 1705, 7568, 2149, 1500, -5379, 767, -1045, -3959, 2309, 226, -2254,
  4371, 3866, 8349, 2719, 2576, -5152, -1513, 438, -3306, -3511, -810, -675,
  -628, 2882, 2276, -1394, 1437, -2477, 1913, 2631, 2163, -602, -30, -2555,
  -3323, 1933, -2932, 3336, -3308, 2213, -638, 4550, -2375, 2822, -1483, -12092,
  5812, 2630, 62, 884, 2073, 754, 1022, 4775, 2533, 3956, -3749, 2804,
  -1973, -697, 734, -3347, 1538, -811, -6639, -10499, -2171, -5138, 1447, -1521,
  -423, 805, 1283, -5455, -1171, -8, -628, -1846, -614, 2731, -1634, 895,
  4184, -511, 6896, 6562, 2706, -7158, -4006, -4676, 4609, -4425, 2097, 3149,
  -8581, 3207, 824, 13, 1986, -2417, -4611, -7898, -3315, -2731, -2676, 7190,
  -4448, -8174, -8180, 2075, 1066, -1526, -2021, -2516, -4023, 115, 1606, -2313,
  1017, -6112, 1200, -1424, -1210, -3310, 323, 4298, 5945, -1265, -4940, -2640,
  -467, -1029, 1523, -3212, -2035, -4864, -3052, -945, -1876, -1092, -478, -2485,
  712, -1286, -7578, 1081, 1957, 7586, 471, -2405, -4691, 5630, 9480, 3317,
  -105, -1752, -5397, 2124, -6747, 2642, 3885, -6610, -11014, -509, -43, -3133,
  -2284, -4767, 6010, -3889, 959, 6963, -5212, -2969, -2763, -2419, 2062, 1947,
  4085, 667, -3970, 4292, -1590, 539, 5670, 2359, 4292, 3842, 6894, 7224,
  588, 2779, 2072, 3455, -2304, 6216, -7887, -4485, -537, 3062, -9507, 7126,
  393, -8865, 4174, -2038, 49, 3357, 1963, 2841, -266, 1331, -972, -2151,
  1474, -2206, -830, -1561, 2500, -992, 1990, -625, 685, 138, 1741, 1607,
  -2299, -676, 1474, -495, 10, -1520, 405, 1710, 1703, -3297, -1458, -2231,
  1347, -2170, 542, 2522, -959, -1336, -2466, 913, -1773, -920, 638, 1371,
  230, -1839, -103, -2455, -1981, -2582, 372, 1279, 1623, -145, -1632, -92,
  -568, -738, 86, -1001, -70, -152, -1546, -854, -2691, -2278, 1578, 79,
  -148, -398, -681, -2805, -2524, -575, -752, -1490, 1325, 275, 1587, 782,
  -1719, -2303, -1611, 227, -905, -2008, 1116, 845, -2926, 1701, 175, -942,
  -723, 753, -2007, -372, 1036, -4, 879, 624, -2072, -1538, -664, 1111,
  -1177, -1082, 1567, -2668, -2342, -1249, 934, 1453, -2178, 928, -2014, 1936,
  -670, -1592, 1730, -849, -160, -1637, -1572, 762, -1339, -1823, 1867, -2059,
  -58, 1869, 450, -2372, -997, -319, -637, 2600, 1591, 1687, -2103, -2634,
  837, -2371, 410, -4, 1886, 1374, -1438, 1519, -662, -1468, -1135, -497,
  1468, -377, -2713, -1507, 1018, 860, -1406, 1024, 1885, -1253, -2453, 57,
  311, 827, -2706, 1290, 219, 79, -1871, -1794, -668, -2224, 846, 2118,
  245, -855, 130, 1127, 806, 660, 1347, 499, -706, 1114, -2117, 754,
  -816, -565, -1935, 1970, -1851, -654, -1782, -2278, -2415, 112, -1399, -1570,
  1815, -2018, -1527, -1447, 151, 751, 1268, -2356, -2401, 77, 165, -3944,
  -1765, 1727, -21, 1969, 555, 1052, -3293, 2019, -3420, -2415, 1113, -604,
  -2096, -1884, 588, 1845, 2014, -1994, -895, -1174, -1816, -1837, -2306, -334,
  -485, -1579, -619, 305, 90, -573, -696, -617, -2438, 1457, -1810, -471,
  1170, -265, -1451, -2037, -676, 1113, 1824, -273, 1738, -484, -1626, -231,
  -1565, -787, 1403, 1693, -1217, -1448, -1669, 1112, 105, -1782, 728, -473,
  -1057, 1421, 2095, 1073, 820, 170, 488, -1800, -187, -67, 1349, -2109,
  -2641, 1996, -348, -1800, -823, -45, -436, 795, -320, -1172, -2540, 1940,
  -661, 629, 138, 2004, 1695, 874, -601, -2189, 443, -660, 896, -2563,
  -735, -2597, 1165, 815, 576, -2183, 1070, 139, -2399, -2363, -2254, -2385,
  -21, -1800, -1212, -2333, 2333, -996, -1480, -880, -2309, -1867, -2139, -715,
  -2138, -1762, -2079, 1601, -2063, -153, 989, 1018, -867, 1323, -824, -2169,
  315, -2316, 1112, -1297, -633, -633, -1123, 1277, -2009, -2692, -1049, -2411,
  -1642, 1579, -728, 693, 404, -1501, -2677, -2520, -802, -2200, 1137, -1525,
  780, -9, -215, -1127, -3401, -2505, 141, 744, -2431, -1147, -374, -2475,
  -750, -3167, -3200, -2047, -2549, -878, -2189, -1797, -1257, -2488, -2042, -1681,
  1544, 425, -513, -2227, -2726, -2065, -1281, 451, -349, 1538, 1364, -1131,
  -448, 795, 139, -225, 1846, -847, -1632, 926, -2808, -760, -812, 1691,
  -3010, 1364, -2580, 1520, -1053, -505, 272, 1170, 2441, 1965, 1433, 1585,
  -1198, -2604, 1823, 1034, -605, 93, -2115, 641, -54, 503, 354, 2320,
  933, -2199, -240, 318, 1270, -1555, 1865, 431, 10, -2489, -796, -70,
  -2644, -317, -1884, -2615, 541, 1787, -1951, -1464, -137, -3122, -2534, 1916,
  2228, 193, -1834, -289, -2097, -878, 650, -2704, -1779, -1928, -954, 500,
  1057, -324, -841, -310, -1909, 1024, -1481, 412, -1786, -1520, 1181, 1270,
  791, 1120, -477, -2326, -2628, -288, -632, -2387, -2001, -1093, -1346, -1144,
  -642, -218, 1746, -1018, 131, -3591, 634, -1220, -2149, -912, -976, -396,
  -2872, -2518, -1869, -321, -1037, -2375, 1056, -2330, -1901, 1456, -960, -765,
  1744, -2852, -1616, 851, 519, -1533, -64, -769, -956, -552, -997, 203,
  361, -2453, -637, 335, 902, -1465, -1823, -1908, -4, 470, -982, -2362,
  12, 1138, 793, -1302, -832, -2098, -1326, -2235, -124, 1416, 1033, 1295,
  1571, -540, -2967, -1026, -3030, 799, 1048, 1368, -404, 430, -3478, -2716,
  -2642, -2299, 960, 1328, -2347, -1802, -1541, -349, -1001, 938, 881, -1811,
  -634, 193, -188, -1004, -1164, -150, 1884, -1312, -1317, -386, 1228, 293,
  -2196, -1927, -695, -2326, 101, -48, -1857, -362, 786, 1996, -1997, 354,
  -58, -1356, -1887, 804, -1643, -455, -1327, -267, -2039, 117, 225, -2714,
  -2799, 340, 592, 925, 1348, 1960, -708, 1867, 774, 1485, -195, -1524,
  1225, 1064, -2177, 973, -97, 1536, -706, 990, 239, -280, 938, -167,
  -1062, 687, -467, 973, -637, -678, -336, -1815, -1361, -1136, -1700, -1250,
  813, -1863, -1451, -1563, 1734, 581, 1967, 70, -1619, 604, -940, 1839,
  -1087, 970, 122, -2175, 2100, -1646, 1707, -284, 778, -90, 1998, 1869,
  932, 372, -738, -2457, 1176, 506, -2105, 744, -2065, -31, -1833, -1265,
  -224, -523, 23, -1614, 697, 71, -1769, -2323, -2354, 12, 551, 1553,
  944, 539, -205, -2087, -1849, 1700, 142, -663, -1087, 1330, 1326, -1965,
  2535, -1162, -35, -2633, 123, 198, -56, -1333, -1575, 1083, -1294, -2454,
  254, -1384, 1991, -1230, 1069, 145, -2250, -1179, -2488, -1326, 811, -1424,
  -2670, -488, 188, -751, 1661, -1864, -920, -122, 451, 282, -3253, 40,
  125, -1496, 1100, -1644, 1280, -1003, 472, -922, -2464, 1766, 1369, 62,
  1392, 2024, 1914, -2001, -1938, -1244, 1734, -424, 1830, -2552, -1610, -922,
  1550, -496, -617, 164, -982, 446, -1535, -1781, -264, 1418, -867, -2574,
  -1424, -1831, 1115, -239, -2146, -498, 1922, -562, 988, 2115, 1745, 1826,
  -2454, -2546, 76, -347, 1883, 952, 832, -1170, 1364, -637, -195, 2144,
  -481, 1073, 1192, 1083, -1000, -246, -446, 1393, 316, -2450, -1408, 855,
  687, -2192, 1015, 432, 265, -2609, 741, -607, -1571, -1444, -2652, -1788,
  1215, 405, 1211, -729, 1263, -1609, 34, 1146, -1084, -720, -2492, -1627,
  -978, 693, -1158, -1270, -1486, 685, 1172, -192, 77, 1145, -1058, 853,
  1686, 101, 136, -755, -1255, -638, -580, 1237, -594, 670, -1475, -1292,
  -909, -1122, -1637, 1082, 1907, -26, -2400, -2027, 1258, -418, 882, 925,
  -1284, 859, 1198, -2217, -1223, 987, -1491, 1031, -15, -2248, -1736, 1835,
  751, 602, 262, -1733, -2629, -106, -2237, 603, -1678, -955, -1348, 1236,
  179, -1703, 155, -1328, -2073, -61, 1285, 1481, -435, -1886, 957, -1950,
  -2429, -60, -1500, 152, -706, 398, 1420, 955, -2646, 392, 1138, 346,
  655, 1208, -1030, 555, -4037, -841, -1438, -2497, 767, -2106, -2729, -1149,
  -311, 484, -97, -2711, 128, 1250, -2318, -2450, -1124, 471, -91, -2741,
  660, 1190, -2046, 1148, 101, -871, 1396, 1067, 1830, -1218, -1720, -1370,
  216, -1355, 627, -1932, -2639, 1558, -2171, -530, -687, -3995, -2318, -1509,
  -615, 720, -118, -2326, -1094, 228, -1473, 1829, 1608, -93, 705, -4940,
  376, -1317, -342, 1344, -1400, 1804, 818, 255, -398, -1606, 836, 2247,
  -1216, -1626, 753, -1533, 1132, -755, 153, -1522, -2032, -1165, 1170, 579,
  -1966, -1706, -981, 1818, -2592, 674, -92, 501, 284, -1712, -354, -2080,
  -666, -1939, -873, 552, 1028, -119, -1355, 148, -1318, -1342, 549, -2484,
  -1434, 1608, -1610, -651, 1187, -1120, -1837, 810, -1711, -539, -1982, -1850,
  -247, 1499, 318, -1687, -1113, 1765, 316, -1163, -905, -2148, -1509, -834,
  1905, -1065, -2302, 1885, 443, -555, 787, -275, -2435, -1470, -1450, -1421,
  -1777, 1218, -1193, 1207, -1411, 58, -2337, 1788, -2696, -1338, 844, 1335,
  -3225, -282, 1566, -2528, 1952, -2288, 325, -2447, 869, -493, -2107, 551,
  -877, -2281, 566, 138, 147, -2272, 1113, 1565, 442, -1652, 1167, -52,
  238, 1153, -1963, -854, -512, -522, -55, 1792, -2445, -1940, 1646, -917,
  838, -2221, -1929, -1336, 1447, 1838, -2125, -1666, -411, 350, -2377, 1146,
  -186, -2948, 1566, -487, -1022, 1070, 156, 1783, -2639, 864, 1004, -293,
  -243, 971, -2179, -2701, 1690, -377, -2640, 419, -2366, -2182, -1113, 1,
  -727, -1465, 1712, -1384, 80, -2277, 1178, 922, 343, -907, 1208, -2638,
  -2346, -1026, -2494, -1567, -2058, -748, 1016, -2077, -1283, 1065, -2601, -423,
  -1309, -1607, 1196, -1544, -1049, -344, -88, -216, -1000, 599, 856, -984,
  960, 478, 1658, -1212, 1915, -112, -595, -1241, -2385, -2622, -194, 475,
  919, -653, 353, 561, -2387, -348, -156, -3650, 314, -238, 1242, 1232,
  -340, -1546, -1186, -74, 1837, -1021, -1614, -1383, 504, -2187, 1639, 660,
  -513, -140, 14, -1858, 774, -2614, -2388, -1124, -1672, -1079, -455, -2268,
  -3068, -1047, -1391, 375, -392, -1336, 588, -1874, 850, -1649, -1723, 87,
  606, -1606, -4, -1021, 1684, 529, -1509, -4186, 2187, -1354, 1792, -1118,
  -797, 1089, 1328, -1942, 998, -375, -2348, 1665, -1493, -556, 2340, 2049,
  605, -432, -2015, -2703, 596, -2402, -1414, 1862, -2579, -2356, -491, -2643,
  -1798, -3370, 1861, 1555, 1150, -1637, -1776, 282, -490, -2070, 1307, -1770,
  -1613, -489, -353, -3928, -230, -2104, -147, 1663, -671, 121, -3019, -2126,
  -1459, 1548, 1270, -227, -2854, -483, -1601, -1355, -770, -1406, 1923, 41,
  -1822, 230, -1945, 1878, 677, -855, -1479, 774, -324, -1031, 75, -2752,
  -1457, -2713, -924, 15, 58, 1924, 1263, 1348, 257, -935, 1030, 599,
  -1753, 40, 733, 1253, -832, -57, -2348, -1917, -975, 969, -377, -1217,
  630, -1699, 1938, -1911, -1352, -1470, 1938, 1415, -651, 2438, 2244, 53,
  -915, -3130, 106, -2268, 972, 640, -81, -2670, -473, -2540, -901, 1279,
  -555, -1753, 798, 1050, -298, 1161, -117, -72, -1203, 157, -2584, 168,
  -1397, 1434, 638, -153, 1401, -828, 19, 456, -956, -227, 640, 1067,
  980, 634, -63, -1045, 514, -1261, -237, 92, 1224, -2363, -1479, 1496,
  -424, 881, 1094, 85, 784, -1219, -1525, -1325, -211, 1622, -1483, -1238,
  -2577, -1473, -2398, 943, 1779, 408, -2087, 1181, -533, -1551, -1690, -1354,
  538, -1708, 598, 444, 1728, -2379, -2731, 32, 2035, 108, -2105, -188,
  -1728, 625, 1699, 742, 1093, -1029, -2194, -312, -442, -1730, 84, 1295,
  -1581, -2405, -385, -177, 1496, -1291, 285, 1497, 1308, -1479, -2368, 1480,
  720, 100, 1408, -2371, -359, 1713, -668, 1369, -1685, -671, -1988, 1341,
  -2245, -533, -2511, -1683, -1597, -212, -2703, 155, 1149, 1416, -1506, -1587,
  660, -1260, 755, 1485, -986, -2761, 1399, -815, -1272, -2100, -1020, -876,
  -2055, 1039, -1979, 2001, -522, -825, -2330, -595, 915, -1648, -1768, -1545,
  829, -127, -1284, 1062, -579, -553, -237, 1410, -2254, 711, 1658, 369,
  -984, -2266, -2124, 941, -283, 1318, -2291, -2260, -1409, -492, -1537, -1462,
  -2097, -823, -2562, 301, -2631, 1323, -2361, 224, -2658, -1515, -2559, -836,
  -2371, 800, -146, 1383, 629, 602, -951, -781, 8853, 695, -3700, -567,
  -9161, -4396, 1692, -2997, 1138, 4413, 8489, 4886, 490, 304, -1139, 5038,
  7534, 15480, 2234, -3052, -4126, -2031, -5138, -15, 10290, -15703, -2252, 2862,
  -1474, -218, -2739, -2891, 961, 5730, 11309, 2551, -561, 747, -1971, -9005,
  -9983, -2141, 179, 2556, 10391, 949, -5932, -10784, -11635, -2400, -5, -2546,
  3889, -7999, -7746, -3776, -1976, -2447, -3798, 1426, -7242, -13568, -12603, -4020,
  -934, 233, 1864, 6586, -8594, -7991, 2016, 1467, 6051, -946, 4637, 4709,
  -975, 1968, 3867, 3314, 2313, 2781, -3093, 3943, 2575, 3893, 2355, 6570,
  300, 6033, -3896, 11656, 6409, -1932, 5852, -8139, -3494, 5101, 5906, -3824,
  -7845, -6415, 1104, 870, 1882, 156, -1896, 3431, 1412, 6061, 3696, -4386,
  -181, -4710, -1292, 1613, 1614, -873, -6234, -183, -6782, 1661, -4872, -110,
  -5450, -3057, -1777, -2263, -3058, -2223, 1311, -3586, -5137, 4767, 3418, -1842,
  -2173, -1348, 1227, 6161, 8013, -8136, -11656, -2176, 2159, 4772, 3797, -1950,
  -4310, -3355, -10970, -9395, 3627, -5265, 2234, -4377, -2127, -6924, -12811, -12020,
  -8406, -4870, -3467, -675, -389, 3229, 7624, 3850, -1232, -1553, 1910, -1833,
  2065, 3394, 2672, -92, 57, -2741, 3936, 2657, 2992, 4108, -230, 719,
  -3533, 2057, 2948, -463, -3921, 2600, 3122, -328, 8519, 7756, -2474, -7445,
  8922, -4083, -4905, -12824, -8102, -2519, -6061, 3420, -2710, -5922, -6697, -8084,
  -12307, -3035, -4449, -355, 817, 4838, 2138, -4713, -4218, -2888, 5050, 4325,
  3446, 6107, 607, 3334, -13968, -4248, -9279, 10136, 5864, 3126, 2772, -7223,
  5589, 860, 3863, -549, -506, -83, 9457, 100, -5221, -1123, -2295, -4825,
  5859, -3002, -7467, -7178, -5823, -11424, -4039, 1339, -2492, 1872, 2084, 631,
  6467, 16416, 2938, -2410, 1439, 4328, 4316, 630, 10255, 4089, 1392, 3794,
  -1170, 6205, -4938, -7510, -2294, -939, -1322, 708, -9839, -2821, 9053, -13208,
  682, -5313, -604, -3708, 9561, 11639, -3734, -3360, 1833, -3066, 52, 1981,
  -2934, 5334, -3123, -725, -5468, -5794, -9630, -13298, 2894, 7565, -2925, 3295,
  -5121, -356, -2464, -4962, 2407, 2162, 2147, 710, 4131, -1203, 6499, -522,
  -674, -386, 2220, 7230, 3922, 3969, -11872, 4486, 987, -5454, -353, 2833,
  -1431, 1222, 6599, 4828, -4753, -1972, 170, 4440, -1774, -5970, -1302, -58,
  -3226, 655, 72, -7046, 7913, -4585, 4078, -8603, -10739, -5574, -6382, -1352,
  5852, 1776, -4104, -9842, -4493, 2600, 6709, 2394, 2360, -3485, -7861, -8175,
  2330, 4861, 6369, 7656, -2574, -2989, 207, -7050, -2706, 13188, 9876, 3,
  -1104, 1436, -2221, 3492, 6290, 3631, -271, 1793, 4581, -146, -881, -382,
  517, -3132, -3446, 6683, 3802, 7706, -6160, -244, 2705, 4543, 6652, 742,
  886, -10029, 2670, 6098, 986, 2764, -1941, 5982, 8136, 1842, 6591, -741,
  -6056, 2627, 4327, 6987, 441, -1261, -5380, -5980, -2933, 3739, 971, 553,
  5026, -1738, 4318, -5617, 2751, -144, -2283, 9683, 13043, 2185, 9334, 12225,
  9328, -9078, -1854, 10324, -1913, 111, -2442, 6, 2039, 1472, -2248, 563,
  -4997, -13876, -4052, 5979, 3587, -935, -9518, -4491, 10265, 2804, 8928, -3566,
  -6148, -8559, 3869, 1549, 10036, -4831, -3647, -9801, 3094, 3595, 5162, 14860,
  1074, -8034, 3220, 13920, -4888, -1147, 2255, -712, 11684, 10864, 7070, -23,
  -2148, -7996, -195, 4658, 13358, -6512, -2581, -4147, -3462, -333, -12828, -2845,
  3728, -264, -2666, -6150, -11360, -3101, 2086, 6365, -1031, -3413, -1172, -2965,
  9457, 5684, 3261, 2277, 5864, 2572, -5712, 12302, 1933, 314, -2531, 1491,
  -761, 1952, -1682, -3677, -1730, 3462, 4410, 13466, -11220, -11665, 1143, 3178,
  23447, 13022, 8955, -951, 9702, 9882, -386, -2924, -1749, -3063, 2030, -41,
  4237, 1192, 1355, -4087, 2455, 913, 599, -6698, -4526, -5557, -281, -1842,
  4533, 1380, -8162, -1282, 5053, 2564, 5312, 6712, -4280, -3193, 527, -3744,
  342, -202, 6181, 651, 386, 2232, -822, 2005, 4563, 2524, -805, 494,
  920, -4699, -3212, -5029, 1491, -3587, -1276, 1278, -1767, -3676, -3789, 155,
  -3142, 812, 2917, -4714, -259, 2939, 2718, 664, -193, -1943, 763, -898,
  396, 2280, 1680, -10745, -605, -2060, -496, -399, -5423, -2320, 1497, -952,
  532, 2844, 770, 2914, 553, 4373, 6927, 1086, 3446, -5493, -892, 1050,
  2753, 5968, 5118, 1013, -229, 2846, 7721, 5750, -4764, -2338, -3453, 5053,
  1986, 1655, -2814, -1674, 5753, -4485, -26, 1863, 4087, 46, 2123, 976,
  -1682, 162, 3963, 4696, 193, -2851, 84, 1697, -4365, -1848, -2211, -8303,
  -1176, 3291, -2381, -2196, -3352, 826, 1259, 1607, 789, 4645, 1803, -1434,
  4885, 2901, 11280, 4411, -6867, -3449, 3450, 6974, 2638, 3210, -5537, 4151,
  2161, 5587, 3800, 2194, -7876, -935, -4781, -1212, -621, -5307, -2778, -7120,
  692, -2109, 3187, 1692, -4880, -4931, -1439, -3920, 4922, 4949, 1237, 1371,
  3649, 6550, -1088, 2013, 4752, -3503, -1946, 4724, 4012, 727, 7169, 10396,
  -1926, 584, 1346, 2592, 2556, -1684, -8747, 5429, 3119, -2896, 6205, 1197,
  -8024, -6297, -6203, 1481, -311, -2484, -4188, 2726, -3708, 4362, 4813, 890,
  -93, -8913, -3413, -2372, -2547, 6070, 4050, -2027, 10197, -4364, 271, -3711,
  5585, 2430, -816, -7278, 2561, -5337, -3977, -5698, 1665, -311, -739, 4537,
  4346, -2729, -615, 1543, 5507, -2898, 8436, 1224, 1159, 476, -437, -3476,
  -5084, -5106, 7426, -2264, -4253, -2727, 580, -5156, 270, -1887, -5148, -1038,
  1259, -1134, -1729, -5837, 951, 4755, -2475, 4162, -4556, -4895, -5041, -1332,
  -776, -1711, -256, -498, -4809, -7382, -1531, -1513, 1665, 548, -3888, -1309,
  -209, -151, -6084, -2430, 3306, 1721, -3480, 133, 3851, -2326, 350, -2872,
  -2964, -1328, -2879, -2772, 1343, -192, 12671, 1780, -1086, -5754, -2408, 5334,
  -734, -402, 156, -1683, -4819, 2916, -3608, 4205, -1633, -4816, -3310, -2925,
  4023, 126, 468, 275, -1329, -2129, 2517, -1481, -1491, -907, 4063, -3738,
  861, 640, -4399, -4721, -1110, 1432, -1739, -704, -175, -2432, 126, -5818,
  -7229, -734, -3036, -3201, -5377, -324, -1625, 2334, -2133, -304, -937, -4621,
  249, -3585, -957, -2100, -3151, -7439, -4826, -1342, -3687, -3635, -2613, -2955,
  861, -457, -264, -1545, -3210, -2865, -4128, 1163, -5106, 105, 1686, -5211,
  1686, -7498, -388, -4389, -1228, -245, 256, -2612, -920, -1312, -2643, 6061,
  3050, -2322, -5457, 756, -5371, -155, -260, -3781, -3209, -2024, -2809, -6574,
  -2241, 807, -5970, 1335, -335, -431, -8881, -2500, -8819, -3911, 1990, -1433,
  -525, -5863, -1220, -7221, -2593, 4392, -2353, -1254, -7327, 1706, -4564, -8291,
  -573, 1190, -4065, -2246, -6068, -2240, -5370, -3482, -266, -1095, 2319, -5014,
  1678, -2871, -2099, 2020, -1460, -683, -3428, -5168, -5057, 205, 4587, -2081,
  2613, -2043, 1667, 3540, 1706, 1489, -1327, -203, 7533, -3419, -3675, -3908,
  -930, -2772, 323, 814, -1109, -2618, -7388, -292, 246, 3779, -4044, -3765,
  720, -1968, 1374, -3366, -1595, 7720, -743, -8860, -1646, 3, 2822, 2538,
  -546, -917, -4830, -2477, 1100, -558, -1510, 846, 362, -498, 8471, 2103,
  -1533, -3143, -3932, -1183, -1281, -4029, 3519, 1162, -1552, 5368, 697, -3363,
  6411, 3015, -3592, 3618, 3584, 124, 1265, 2954, -292, -2332, -7810, -3781,
  808, -239, 7001, 277, -2232, 2218, -1695, 1869, -3306, -3542, 3862, -1291,
  -690, -1392, -421, -1494, -2577, 4545, -3174, -1254, -1372, 9389, 12084, 488,
  1309, -4034, -908, -5003, -2307, -6983, 796, 1218, -4587, -3929, 2175, -3022,
  -1241, -4305, -4738, -4277, 593, -1828, -6711, -2355, -141, -4944, -2335, -4188,
  186, -4169, 2381, -5154, -5131, -2259, -1592, -1006, 1693, 1441, -4124, -1186,
  1489, -3194, -4820, 5682, 1469, -3972, 279, -2799, -4860, 490, -4711, 2136,
  -1552, 1681, -2375, -2287, -3717, 1120, 9554, 4590, 1847, -3050, -4092, -6183,
  -4257, 6877, 1735, -4970, -1940, -5839, -3288, 1970, -5324, -1234, -4453, 2323,
  445, -6266, -3085, -9368, 570, -458, -3200, -831, -5687, -1434, -2507, -2016,
  -1841, -1703, -1098, -4519, -4707, -6506, -2856, -2116, -324, 4625, -3042, -4928,
  -381, 4173, -2145, -67, -1989, -3623, -4761, 3536, -8898, -2860, 3174, 3011,
  4529, -3049, 6723, 2216, 690, 1785, 4628, 3106, 871, 2744, 4019, -88,
  -916, 7889, -2871, -6433, 1602, 5285, -3064, -374, -2246, -1761, -847, -431,
  -2017, 7761, -860, 4270, -109, 985, -2486, 589, 465, -3136, -5374, -2646,
  -3116, -2080, -1206, 1877, -5218, -1961, -5979, -2971, -3121, -3003, 2348, -1604,
  -510, -5394, -1578, 791, 1623, -2742, -2256, -7410, -3088, 2363, 2919, 7192,
  207, -2606, -1546, -4832, -2734, -1181, 1298, -4625, -661, 68, -4506, -2724,
  -1271, 2332, 1086, -4972, 1532, 8196, 264, -8509, -2839, 544, -756, -5202,
  -1744, 2004, 4612, 3851, -1165, -888, -3294, 2598, -1936, -5713, -3049, -4309,
  -2477, 2368, 7822, 2087, 1690, -3784, -6171, -2214, 2102, -1991, 1416, -4656,
  -754, -1908, -5193, -931, -2402, 1448, 4586, -1059, 741, -1758, 1241, -4237,
  -3791, 4175, -1778, -3655, 1222, -1470, -162, 1993, 674, -3823, -2962, 1338,
  -2913, -3507, -3031, -3300, -1726, -1612, -981, -2734, -4247, -8246, -5449, -6122,
  -3887, 1628, 787, -2279, -1405, -2198, -75, -4964, -1171, 2647, -8065, -5791,
  -5693, -2895, -1369, -847, -2090, -4736, -6279, -4293, -6048, 994, -4234, -1733,
  1979, -7774, -4639, -5159, -2304, -1258, 461, 4355, -668, 1383, -1173, -3699,
  1302, -2738, 678, -1012, -3178, -1173, 2476, -190, -1603, 1066, -5595, 590,
  -694, 1292, 3788, -3202, -5807, 1112, 316, 578, -2352, -389, -1533, -2691,
  -1291, -1354, -2443, -631, -2503, -1989, -2390, -3639, -4102, 138, -1889, -721,
  564, -3791, -4609, -959, -4009, 5840, -206, 1454, -2484, 3987, -4573, 346,
  1702, -2936, -922, -1271, 39, 1022, 2541, -1299, -2327, -6841, -3702, 2507,
  -2683, 1271, -82, -3365, -3894, -5212, 1263, -3370, -4906, -1401, -5904, -3361,
  -3152, -794, -112, -2825, -2814, 1566, 3479, -467, -713, -2567, -2810, -1256,
  -1493, -2858, -5065, -2254, 250, 3275, -225, -3016, 337, 3047, 1044, -5682,
  -3649, 832, 1504, -4651, -2866, 1770, -1614, 1354, 1891, 717, -4045, -5554,
  -5037, 6, -2589, 2455, 4378, -5449, -1041, 803, -4055, 5379, -2589, -3231,
  -1956, -4554, 71, -2969, -2570, -438, -3870, -3299, -631, 4385, -2897, -2202,
  3341, -678, -1286, -365, -4293, -355, 488, -2947, 86, 2895, 3428, 176,
  -2734, -4503, 300, -460, -1951, -1853, -4459, 203, -2933, 3533, -2314, 634,
  -2323, -3248, 943, -2468, 15, -3572, -4523, -4410, -3171, 783, -4528, -3450,
  -997, 2220, -2450, -552, 4153, -7653, -450, -5976, 4620, -2564, 2339, -2081,
  -6127, -3286, -1598, 2028, -1368, 5253, -3286, -2065, -575, -312, 1359, -2173,
  -589, -2616, -3105, -1242, -2093, 1203, -13964, -1427, 263, -3161, -1782, 5974,
  2104, -862, 1495, -6696, 4552, -538, 2145, -7687, -1319, 2085, -1310, 16257,
  7736, 130, -7599, -1175, 8513, 6226, 7319, 10272, 6542, 945, 4444, -5265,
  -3266, -1416, 5815, 1390, 2085, -1173, 6772, 3684, -2824, -3824, -2833, 3330,
  1025, 1627, -3353, -12196, -640, 4194, 2643, 221, 4672, 9460, -10332, -9037,
  -4098, 4781, -130, -5973, -8264, -7571, 1083, 40, -2507, -400, 8753, -6852,
  1276, -1661, -525, 784, -5306, 8561, 9411, 11, -999, 4955, -2733, -2390,
  12003, 8499, 6420, -11495, 2705, -1913, 2000, 3346, -3240, -11092, 1994, -8106,
  -2372, -416, -1093, -3789, -3241, -3479, 10230, -5442, -13863, -168, -4465, 2938,
  -2065, 5302, -4599, -5135, 3455, 189, 2671, -1694, 5676, 7750, -2140, 4699,
  -1665, 2715, -5649, 304, -13710, 6418, -5583, -2229, -262, -403, 7604, 5479,
  4181, -5642, -8356, 3010, -2200, -2823, 1698, -14, -1721, -3798, 413, 1780,
  -2900, -4961, -4000, 12996, 4332, 5676, -2123, 4359, -2409, -10411, -1283, 4038,
  4874, -12748, 322, -2523, -8613, -4118, -3302, -5777, -15725, 375, 10474, -3385,
  1906, -3259, -10800, -101, 2335, 4981, 1694, 1133, 2338, -2154, 7861, 523,
  -3123, -1567, -402, -871, 11072, -543, -6246, -693, 6813, 6447, -487, 1260,
  -6134, -3093, -2535, 9029, 11026, 8124, -1577, -2217, -2702, -2998, -10227, 2896,
  -6097, 4156, -4618, 6040, 6637, -2687, -2631, 10912, 9859, -177, 7208, -12088,
  -2209, -6075, 3035, -2839, -2204, -8836, -5054, 1262, 5523, -2791, -8610, -927,
  10192, -6176, 3793, 12749, 1725, 1877, -8850, -418, 10202, 14826, 4180, -3868,
  -6310, -2528, 1216, 10474, 20133, 4995, -3868, -5366, 3825, -7582, -2877, -11005,
  -8653, -9912, 6984, 9317, 3301, -722, 1661, 5134, -7687, 5143, 4154, 2433,
  -4338, -8291, 216, -5658, 10275, 20486, 3738, -1704, -733, -7651, 9601, 4808,
  6020, 5873, 1144, 7679, 2185, 9407, 3957, -1667, -360, 1683, 6913, 10094,
  15158, 11740, 1834, -5001, -871, 2813, 3457, 6815, -1002, 266, -659, 1125,
  -7680, 4364, -4810, 987, 288, 11369, -930, -7859, -2682, 32, 6508, -3136,
  -4175, -8112, -1201, -4646, -1539, 2385, -2447, -6262, -1600, -4927, 5973, 2925,
  -2825, -3939, 4747, 8903, 5903, 5679, 298, -144, -3175, 1648, 8870, -261,
  5329, 3994, -4610, -4071, -5167, -7906, 3164, 8389, -2488, 3013, -2306, 3811,
  -5915, 5036, -1227, -5033, 3640, -4440, 1800, -3053, 7762, 6594, 16710, 1723,
  -332, -3465, -754, -5731, -65, 7717, 9889, 1412, -1816, -671, 6059, 6344,
  8985, -2805, 465, 3363, 3651, 6789, -3574, -5052, -5696, -7331, -1357, 2018,
  -1734, 1112, -6586, -7263, 1123, -4551, -3268, -4952, -5737, -1564, -4234, -694,
  -4975, 4334, -5010, -719, 373, -1824, -1729, 2113, -328, 2249, 2465, 6032,
  3916, 2184, 2263, -5855, -2875, -3105, 13457, 7833, 1316, 775, 197, -6657,
  106, -1763, -309, -1470, 174, -4974, -13655, 4584, -11288, -14739, -3820, 2140,
  -2627, 2353, 4890, 9514, -8905, 7449, 8749, 7204, 7022, 8674, 1343, 4157,
  -933, 3504, 1659, -3259, -4930, -6343, -4193, -5526, 5489, -1713, -3222, -80,
  1769, -446, -3722, -1665, 1741, -8898, 5653, 7618, 5033, 2789, 6395, 4520,
  10823, 104, 8027, 4417, 8052, -2198, 8401, -6370, -7635, -268, -5053, 2074,
  -5508, -1642, 1795, -3455, 6308, -5194, 3011, -3165, -5246, -2587, 6642, 3273,
  -3408, -2457, 1800, -3705, -2537, 1116, 6834, -2269, 9438, 1120, -479, -1659,
  -1098, -6587, -2472, 4639, 4713, 1943, -500, -5434, -1129, -484, 2493, -2634,
  -3715, 9423, 12057, 12243, -2745, 4384, -545, 2706, -2839, 14096, -915, -6053,
  -4922, 2409, 7553, 1025, 389, 1132, -3696, -1641, 7688, 7744, -8477, 4513,
  25737, 9329, 13748, 2718, -276, -3582, -3647, -6044, -1680, -5004, 1678, 4586,
  2350, 1481, 1901, 2322, -3323, -1495, -3328, -4270, 4483, 5255, 2472, 4424,
  -5796, -3255, 1965, 3330, -5859, -623, 1248, 1540, 5371, -2043, -2768, -7471,
  -2481, -554, 3261, 1926, -10229, -8888, 608, -5985, -8057, -4615, -9101, -9549,
  -3938, 5514, -1207, -2177, 1354, -921, -6984, -1316, 20, -1208, -2425, -54,
  3947, -3387, -4268, -795, 1563, 4257, -4745, 666, 4477, -1089, -2403, -671,
  -1848, 1022, -150, 1393, 2608, -1685, 4491, 7462, -2609, -410, -2000, 5315,
  4490, 8455, -133, -4864, -6218, 155, 8378, 2025, 6093, -8383, -2655, -3062,
  6662, 17148, 10185, 4136, -5305, 3512, 5281, -1575, 1765, 5668, -2783, -471,
  -984, 606, 2530, 2868, -615, -4164, 314, 1109, 314, 1703, 4544, 4398,
  -5571, 9518, -3027, -80, -1756, -3022, 3433, -8431, 1109, -1735, 1617, -1988,
  -7199, -3831, -2034, 5687, -5943, -1668, -1492, -8620, 182, 2301, 5352, -4162,
  -8298, 5004, 6615, 1366, 12652, 2257, 647, -6227, 3326, 4194, 2731, 2918,
  731, 3168, -996, 1715, 10821, 4467, 7163, -2605, 4410, -1767, 3109, 1373,
  -3100, 5432, 4603, -2497, 802, 3264, -3194, 3158, -8103, -8303, -3664, -5750,
  -5688, 3803, 1391, -381, 2372, 1795, 9543, -3152, 10688, 8334, 156, -1243,
  -950, -14506, 14134, 8586, 2853, -1153, 2902, -8997, -2336, -9805, -5386, -223,
  4007, -4507, 1741, -1348, -5754, -1550, -1698, -1401, 2536, 1975, -3190, -3720,
  -3684, 4986, -1951, 798, 10137, -4223, 1470, -4869, 6315, 6073, -474, -1779,
  -6124, 1982, 5170, 2104, 2201, -2481, 3364, -2362, 7273, 5867, 682, 1278,
  -1701, -560, 7227, 6240, 1723, 374, 4813, -1986, -1752, -799, 1049, -2564,
  196, -1351, -1502, -8, -1158, 503, -1411, -307, -1147, 431, 290, -264,
  210, -841, 1385, 1376, -682, -1249, -2083, -1831, 264, 685, -1812, 1375,
  -175, -870, 457, -732, -106, -1329, -2602, -2118, -585, -567, -2550, -246,
  -1786, 2786, -2690, -1253, -2700, -1242, -1427, 339, 7, -934, 1236, -1604,
  1438, 791, -1145, 1831, 2662, 1513, 34, -1484, 1276, -1360, 1768, -1058,
  1201, -2253, -2326, -1009, 747, -324, 1479, -2538, -2130, 1181, 644, -239,
  996, -615, 1635, -1716, -3039, -1199, -734, -1398, -1723, -138, -2393, -2224,
  1905, -1378, 858, 1724, -981, -278, 1830, 451, -2129, -464, -1603, -61,
  1803, 575, -770, 728, -1468, 1127, 582, -1014, -1280, 240, -2384, -2188,
  775, 1729, -2428, -1328, 1171, -545, 1506, -64, 1223, -1902, 1305, 935,
  -1217, 10, -491, -995, 638, 1181, -2675, 1960, -2436, -1247, -315, -160,
  1262, -1723, 1620, -395, -1093, -429, -1145, -437, -2147, -1233, -512, 1014,
  678, -74, -1401, 1246, 1890, 1996, 725, -1078, 1778, -656, -1129, -679,
  -454, -888, -188, -888, -2505, 773, -2581, 152, 1211, 146, 1653, 1730,
  -820, -9, 186, -2255, -2351, 1532, 55, -1225, 80, 859, 981, 1218,
  -1941, 1323, 830, 801, -116, -2472, 202, -949, 517, -1032, -1958, 1052,
  177, 1862, 1444, -2654, -1320, -1810, 2453, -630, -6892, -1076, 995, 166,
  -664, 716, 270, -1731, -1521, -1751, -329, -1013, 1445, 377, 1088, 1121,
  -778, -2305, -362, -873, -2666, -1650, -1185, -915, 1334, -777, 52, 1827,
  -709, -3434, 452, -873, -479, -1312, 517, -354, 1322, -2816, -3269, -1877,
  228, 1385, 1591, -1695, -1872, -667, -2343, 956, -710, 1456, 51, -2495,
  -965, -2431, 1392, 2370, -911, -2383, -622, -1422, -176, 1496, 1804, 1333,
  -709, 628, -1654, 1589, 1107, -2127, -24, -776, 576, 1032, 1572, -2264,
  -2636, 170, 1456, -1185, 748, -874, -796, -629, -1333, -1178, -1658, 645,
  -1455, -113, -570, -2277, 1639, 31, -321, -383, -759, -123, 907, 509,
  -246, 1069, 1269, 53, -98, -382, 821, -541, 1099, -2172, -576, 1283,
  368, -1940, 34, 69, -1427, 1364, 913, 1306, 632, -947, -2225, -2607,
  -1360, -810, 1796, -2016, -493, 135, 1306, 1759, 946, 1695, -457, 1172,
  -31, -1664, -1166, -2450, 1567, 1561, 1490, -537, -703, -1058, 476, -2926,
  -2928, 1157, -1192, -2014, -1177, 1571, 1059, -3682, -3011, 256, -21, 1730,
  -768, -13, -1172, -883, -1716, 434, -2366, 244, 200, -2668, 2559, -973,
  -735, -2306, -2576, 1685, -645, -2369, -1417, 681, -1649, 1320, -51, 693,
  926, -1281, -2013, 627, 1940, -950, 1469, -1246, -1334, 1589, -2115, -1334,
  -2527, -757, 685, 1866, -205, -1296, -2624, 499, -576, 1384, 1724, 1845,
  -1079, -402, -12, 480, -2385, -1041, -1290, -2301, 1401, -1617, -2646, 859,
  -2623, 896, -2220, 1405, -2174, 239, 2339, -1141, -2617, -1666, -1091, 1827,
  -1883, -1748, -1450, 373, 976, 132, 378, -684, 604, 423, -299, 905,
  -1020, -655, -2378, 155, -967, -766, 55, 2341, -2241, -2652, 1809, -1660,
  1315, 40, -2511, -221, 1725, 356, 715, -430, 281, 51, -916, 851,
  877, 1646, 205, 392, -2700, 1227, -23, -1460, -1966, 1165, -1862, 262,
  283, 115, 996, -1259, -238, 1852, -1652, 690, 1541, -1615, -430, -990,
  -1270, -2216, 580, -2695, -1062, -1008, -3318, 210, -2855, -2634, 2194, 1631,
  -3797, -3818, -1846, -1067, -2387, -98, -116, 4664, -4122, -1848, -360, 1365,
  -3638, -2240, -655, -6203, 302, 96, 550, -2029, 2319, -1562, 355, -2595,
  -1071, 1694, -2115, -54, -1370, -2186, -794, -1308, -1747, -2248, 827, 185,
  -1518, 1657, -1006, 365, -14, -2158, -353, 322, -266, -744, -884, -1072,
  1823, -2110, -2539, 1137, 1733, -2738, 239, 1448, 454, -1081, 1322, -2752,
  -1228, 1390, 537, 795, -523, 161, -1054, 618, -1209, 1035, 1577, 1096,
  1309, -2552, -411, -506, -554, 1109, 151, 749, 296, 290, 466, -521,
  201, 1907, 1141, -1790, -804, -1945, -2717, 1285, 1394, -571, 2278, -1838,
  -854, -2401, 1252, 398, -2556, 863, -1441, -1928, -2360, 1102, 852, 1127,
  -2575, 28, -1556, 795, -1022, -1037, 1309, -1827, -1583, 210, -2248, -1526,
  -2595, 1044, -859, 1335, 1189, 982, -2424, -792, 2256, 1528, 177, -182,
  -1769, 1087, 1404, -1534, 23, 953, -2484, -2620, -1154, -708, 670, -681,
  -471, -1926, -1091, -555, -2272, -539, -423, -409, 678, 1601, -353, -2716,
  -2379, 1543, -1129, -917, 1840, -1886, -2469, -2723, 557, -1022, -2716, -810,
  1573, 518, 202, -276, 148, -2066, 1425, -1759, -2154, -1010, -469, -1450,
  -1867, -1340, 1332, -1599, -1906, -5527, 906, -852, 332, -2547, 1166, 2260,
  -4262, 2192, -2683, -2005, -1304, -2031, -1226, -1810, 1310, -1924, 249, -566,
  -301, -781, -2644, -1192, -1451, 1224, 761, -1383, -1267, -986, -2632, 1877,
  1811, 1663, -1832, -508, -837, -389, 70, 1789, 801, -2550, 1710, 145,
  -1517, 271, -150, -2356, -1524, -1414, 887, -2716, 1072, 1133, 1129, -263,
  -29, -868, 2104, 90, 876, -258, 374, -1638, 1325, -948, 421, -379,
  711, 631, -2547, -951, 922, -1559, -129, 1057, -651, 913, 910, 406,
  1630, 1303, -744, 1498, 497, 1205, -157, 702, -760, -1974, -150, 570,
  -1857, 5083, 2424, -2430, -2651, 1320, -643, -1028, -711, -947, -966, -2162,
  -1891, -383, 488, -2280, -1456, -1089, -2112, 723, -1017, -2117, -1211, -450,
  -908, -2248, -554, 1325, -731, -2476, 1223, 165, 726, 1326, 340, -442,
  -1683, 1013, 1277, 706, -383, 303, -2510, -3445, -74, -1272, -2287, 499,
  -1770, 2513, 932, -2456, 1308, -4273, -302, -1858, 2031, -2667, -3879, 1450,
  808, 947, -1912, -1319, -2219, -761, -1827, 677, 110, -1935, -957, 210,
  -2806, -497, -480, -2648, 994, -166, 492, -1084, 1510, 608, 45, 1012,
  1138, 320, -606, -3057, -920, -1441, -1044, -670, -3551, -2260, -3051, 565,
  285, -2078, -836, 860, 294, -1870, -617, -15, -588, -585, 813, 2076,
  -986, -1789, -2695, -1171, -3167, 495, -334, -725, -1355, 1295, -2771, 1827,
  -1167, -2590, 44, 1048, -1421, -864, -2550, 1783, -1138, 1081, -3461, -832,
  -264, -2168, -1942, 780, -2540, 693, -51, 1403, -1337, -1408, 882, -1155,
  -3892, -557, -1528, -1011, -2167, 229, 1665, -4095, -688, 1056, -327, 1143,
  -1276, 1792, 698, -392, 2035, 2953, -1120, -3535, -1153, 660, -1843, -674,
  -1166, -2399, -176, -487, 888, -1863, 1993, 1617, -663, -4405, -888, 1039,
  1763, 1111, 925, -3046, -2551, -1416, -2293, 1718, 1200, -423, -3777, -3806,
  -782, -636, 1936, -171, -2133, -330, -2299, -382, 706, 1554, -3784, 573,
  -1675, -3122, -278, -4, -64, -1834, 3212, 988, -3922, -455, -887, -4077,
  1780, 220, -3249, -1823, -2706, -3119, -1440, -261, 1644, 1872, -1582, -1766,
  -1835, 1462, -3337, 1184, -359, -2338, 1071, 1183, 3067, -1060, 1813, -2120,
  -2135, 1071, -2537, -6966, -1776, 1322, 1255, 2031, -2216, -4589, -3623, -1983,
  1700, -1233, -860, -607, -764, 2245, -1535, -1718, -315, -3082, 632, 824,
  -2012, 143, -2009, 1617, -1732, 1045, 1198, -799, -4273, 1330, -326, -2601,
  -2771, -1646, -977, -1245, -211, 989, -1281, 1292, -2711, 1337, 1340, 48,
  -2388, 518, 336, 1418, -1942, 362, -929, -3803, -2287, 187, -295, -2168,
  -524, -1392, -530, 1392, 256, 1627, -2977, -2345, -504, 377, 619, -2700,
  -704, 729, -2561, -1618, -1927, -1075, -849, 167, -2419, -969, 111, 432,
  -1581, 1274, 212, 147, 1635, -619, 151, -2390, -2552, 921, 564, -466,
  -1166, 444, 1452, -82, 215, -1848, -46, -3159, -1090, -1382, 1726, -1794,
  -2453, -2488, -1803, -1562, 1116, -699, -729, -1321, -1609, 3017, 2041, 1003,
  -881, -865, -2586, -279, -1314, -1186, -1307, 1889, 301, -2064, 1716, 743,
  -2431, -7631, 1865, -1688, -2442, -420, -1737, -2613, -114, 2274, 2411, 22,
  750, 1111, -5067, -4179, -1720, -4937, 518, 828, -1503, -2211, -1065, -1597,
  -4392, -3359, -2342, -1017, -3893, -2349, 1435, -921, -3535, 499, -292, -134,
  484, -1658, 1415, 854, -2312, 1298, -1390, -2031, -1956, -2001, -3461, -1434,
  555, -305, 980, -1263, 561, -1977, -1622, -594, -1354, -733, 948, -4445,
  1852, -826, 1210, -1640, 1469, 608, 1297, 6435, -6804, 194, 2829, -2949,
  1137, -3399, -505, -3354, -21, -937, 1182, -1017, -2781, -4940, -3962, -975,
  -971, -2427, -1534, -405, -1049, 193, -1772, -1048, -2829, -652, -791, -3935,
  -2301, -1202, 1673, -1888, 992, 108, 597, -2724, -572, -227, -2584, 1140,
  -931, 270, -2080, -2525, -1880, -1128, -1960, -1221, -981, -1815, 2978, 750,
  2243, -1258, 1695, -1672, -2109, -472, -1833, -2996, -3881, 2757, -3400, -1730,
  1305, -1445, -1023, -5244, 5506, -2688, -1043, 1578, -5054, 672, -1841, 3961,
  -4318, -538, 870, -5491, 1160, 1872, 1359, 1678, -1542, -888, -437, 2620,
  1753, -3020, 7807, -1140, 584, -182, 247, -2355, -1884, -3158, -1125, 379,
  -1732, -424, -2699, 670, -1605, -2718, 2432, 1142, -423, -2595, -3084, -683,
  -930, 307, 642, -3911, -3423, -251, 1074, -218, 2222, -3433, -4409, 815,
  -1138, -2221, -2610, -1984, -851, 197, 1391, -1879, 2044, 1343, 1400, -871,
  -903, -2328, 1466, -463, 393, -1821, -4180, 5966, 967, -3725, -1370, 508,
  589, 1627, 1671, 61, -1363, 344, -359, -441, 1468, -1150, -2266, -2181,
  1193, -2264, 653, 961, -384, -1569, 370, -2111, -73, -1651, 1155, 378,
  -2482, -658, -2412, -1790, -2110, -1207, -889, -175, 1948, -2102, -343, -2156,
  -831, 279, -2850, -837, -586, -454, -2546, 314, 1486, -1602, 2147, -1858,
  -871, 1184, 231, 533, -1097, -1841, -1994, 489, 795, 27, -279, 1187,
  -1670, -328, -2435, 633, 970, -1048, 801, -2106, -1339, 907, -639, 144,
  1554, 167, 659, -1306, -2356, -2088, -2664, 336, -1484, -2581, -952, 1741,
  1428, -1909, 1310, -407, -1660, 1920, -2120, 1373, 1831, 179, -1343, -1588,
  795, 1738, -850, 800, -3209, -1986, -38, -778, 1689, 398, -2260, -2542,
  763, 868, 993, 1448, -276, -4187, -234, 1388, -241, -366, -1418, 1482,
  -1670, -2546, -1520, 1065, -272, -430, -999, -322, -1135, 2079, -125, -1556,
  -1646, 196, -80, -1667, 601, 77, 2013, -115, 1768, 638, -2377, 1306,
  1085, 1604, 2152, -1165, 1446, 106, -2710, -581, -2533, 1823, -3557, -2204,
  335, -2409, -554, -2526, -310, 637, 95, -1913, -911, -764, 359, 1057,
  -2395, 296, -2017, -748, -2079, -1055, -227, -1029, -4028, -1514, -1852, -3070,
  266, -204, -120, 651, -1337, 1954, -494, 917, 51, -1357, -2090, -2034,
  -1388, 72, 79, 555, -2401, -710, 1086, -1494, -1213, 1641, 1523, 742,
  718, -1987, -2295, 589, -261, -979, 486, -1086, -1598, -1439, 1465, -533,
  -335, 273, -1748, -454, 1608, -2261, 1039, -701, 1620, 55, -1265, -836,
  -1260, 1666, -2499, 1400, -949, -1543, 1058, -1048, -2148, 945, 827, 466,
  -1520, -995, -1138, 50, -1874, 2547, -984, -336, -1180, -2048, 133, -2476,
  1631, -364, -786, 476, 940, -1457, 777, 972, -1474, -710, -853, 671,
  2, -2152, 1467, -2553, -564, -1139, -564, -1389, -2117, -1766, -743, 644,
  -760, -911, 1449, -1438, -1607, 164, -163, 614, 1102, -1065, -776, -818,
  994, 258, -695, -2300, 1966, -817, -1014, 1730, -1690, 1790, -2739, -1402,
  1494, 1782, -1524, 382, 720, -1098, -742, -1778, 846, -213, -1215, -2241,
  -574, -2410, -1127, 319, 1838, 1369, -1674, -1063, -872, -1160, 1414, -1370,
  755, -252, 33, 1137, -1339, -219, -550, -2064, -1533, 1278, -296, -2749,
  -2499, -2691, -1003, 1280, 924, -2045, -305, 181, 1691, -1319, 1682, 674,
  -2367, -1566, 492, -2154, 1671, 1167, 1677, -2359, 1776, 360, -25, -334,
  -1240, -736, -2367, 2324, -548, 1183, -494, -2204, -1481, 1149, -1487, 331,
  1026, -547, 1048, -1158, -981, -907, -1652, -101, -364, 1632, 396, -1588,
  1727, -1888, 18, 873, -191, -443, -1725, -1146, 576, 442, -218, -1665,
  -1539, 1685, 1068, -2480, -931, -1790, -476, -548, 1234, 798, -583, -1007,
  -1841, -1407, -1885, -8, 1313, 1618, 488, 887, 100, -1792, -1289, -1054,
  1228, -737, -453, -2243, -184, 1028, -2448, 1577, -857, -2595, -1204, -2541,
  24, -23, 748, -2140, 880, -1822, -2160, -435, -606, 75, -712, -1948,
  1684, 1455, -1495, 2101, 1555, 762, 231, 1218, -2191, -2465, 584, 1529,
  1466, -584, 290, 2006, 874, 478, -519, -2253, -1291, 523, -2485, -1521,
  16, -854, 1540, -814, -1928, -2485, 614, 46, -2487, 752, 224, -756,
  895, 119, -2358, -2103, -2106, 59, 24, 911, 386, -2222, 2691, -1571,
  -80, 44, 562, 1977, 1835, 1800, -1713, -1348, 27, -352, 849, -384,
  1710, 49, -1597, 1975, -2394, 1317, 1, -2157, -1165, -988, -1145, -2617,
  -1016, -345, 2038, 348, -690, -922, 1431, -1748, 1518, -1718, -808, -757,
  -985, -118, 214, -277, -2648, -2615, 1563, 722, -671, 1022, -2416, -493,
  -344, -2276, -1504, -1001, -610, 795, 692, -621, -1510, 180, -256, -2107,
  828, 280, -674, -489, -2386, -1858, 592, -1883, -594, -4, -1498, -2038,
  1221, -1650, 18, -1225, 305, -2070, -2016, -167, -2336, 1651, -1065, 1949,
  -2694, 1021, -2455, -2642, -2726, 760, -582, -267, -417, 436, 1230, 1585,
  1031, 886, -2760, -395, -523, -1030, -2133, 1115, -2256, 684, 982, 110,
  -604, -428, -1580, -1645, 1872, 1891, 1114, -1940, 541, 863, -1686, 961,
  -761, -2, -1201, 459, 648, 1920, 1303, -1841, -2315, -1950, -2740, -411,
  -1394, 1586, -962, -294, -4041, 2181, -967, 2690, -685, -918, -4645, -2401,
  764, -2306, -1232, -1640, 1403, -782, 2019, 211, 1605, -231, -966, -2574,
  -2199, 264, -1248, 203, 900, 696, -1989, 750, -1684, 2122, 1371, -1849,
  162, 1446, 68, -335, -1626, -744, -1001, -1370, 1498, -2657, 669, -1702,
  -155, 1822, -1222, 1153, 856, 1024, 1364, -2515, -1072, -868, 1117, -1647,
  1894, -919, 403, -1202, -281, -2315, 1216, -1865, -524, 2446, -2463, -2494,
  1089, -527, -1793, 1208, -921, -1668, -988, 478, -1901, -628, -1770, -223,
  -2476, -286, 885, -3623, -4451, 918, -2762, -897, -3779, -372, -4309, -113,
  -2473, 1114, 1728, -1407, -1265, -1049, -2236, 1485, 1159, -1680, -978, 966,
  -1422, -2680, 11, -1523, -160, -420, 1418, -509, -288, -1733, 14, -1474,
  -1850, 1522, -128, -774, 1236, -1790, -1017, -2300, -1360, 66, 934, 1350,
  -1280, 445, 1172, 56, 751, 1550, -2502, 791, -433, 888, -2509, -27,
  1830, -2341, -1034, -1381, -2531, -1321, -78, -430, 591, -1263, 1303, 963,
  2187, 1216, -1241, -2574, -1491, 1365, -2712, -2744, -1991, -1451, 1981, -920,
  1188, -1149, 894, 479, 1357, -2531, -2284, -188, -1819, 668, 1220, -682,
  -983, 100, 1176, 870, 1664, -1562, -54, 1387, 2002, 804, 1547, -587,
  1371, -84, -2541, -2550, 198, 1245, 508, 1788, 1672, -2715, -1052, -2751,
  838, -2759, 563, 339, 554, 2756, 853, 90, -2418, -1548, 1152, -122,
  -681, -820, -1477, -2500, 1750, 1912, 742, -1906, 383, -1079, -1584, -1635,
  1785, 86, -1760, 785, -2018, 975, -1717, -2177, -2658, -252, 1770, -2439,
  -2194, 1629, 838, 1741, 220, -786, 436, 424, 271, -2057, -1534, -1523,
  -55, -1510, -2149, -2681, -1799, -2048, 1768, -864, -435, 174, -1949, 726,
  562, -1446, 206, -2582, -624, -2302, 464, 457, 1823, -770, 236, -640,
  -1671, -1010, 672, -354, -403, -533, 455, 1296, -202, 757, -1454, -183,
  1999, 1684, -1274, -525, 519, 714, -518, -229, -853, -11, 946, 31,
  1877, -600, 414, -2440, -1843, 1866, -2677, 362, 50, -1643, -2421, 1077,
  -274, -105, -2348, 924, 1791, -639, 1841, -2676, 1575, -143, 2221, -1094,
  954, -2530, -1764, 290, 1188, 504, -1117, -1184, -1569, -2458, 1370, -595,
  404, -2380, -2016, 920, -2297, -257, -755, -1193, 1627, -1255, 1608, 687,
  -2601, 1892, 308, 160, 1518, -1153, -299, 910, 6371, -1541, -2250, 4155,
  1582, 425, 3320, 4512, 7885, 4474, 6973, 6643, -2939, 630, 4861, 6111,
  7382, 9443, -8463, -5129, -7768, 425, -38, 6749, 1851, -373, -2066, -2427,
  -4404, -1974, 462, -2139, 1349, 2148, 2697, 2583, -672, -1719, -1130, 67,
  2325, 7198, -3146, -2107, 152, -1095, -1420, -2147, -3352, -3175, 1868, 3925,
  -2049, -10598, -17802, -3456, 2545, -6334, -4129, -456, 4713, -10348, -8523, 742,
  -1221, 26, 7236, -6013, 2780, -2794, -4408, 2274, 3790, -1239, 468, -2234,
  -1339, -115, -475, 9734, -12741, -14002, -5432, 5612, 1848, 934, -2095, -2530,
  1607, -3341, 201, 682, 2940, 7150, 1630, -1262, 679, -709, 11226, 7349,
  3838, 1903, 1837, -1116, 3273, -2059, -206, 2251, -4122, 1734, -2577, 2273,
  -9707, -6173, -3684, -852, -2452, -733, -5975, -7286, 465, -6259, 5184, -752,
  3354, 583, -5525, 2321, -8852, 1306, 4607, 5025, 643, 2783, 1719, 495,
  4244, 4211, 1574, 3089, -652, -155, 4056, -6231, -2160, -1030, 1346, 2575,
  957, -1787, 655, -1880, -7228, 7701, 6298, 1494, -2764, -3828, 277, -7294,
  4690, -286, -3431, -7496, 4055, 4111, 2988, 6463, -3077, -2510, -6667, -761,
  -4512, -3277, 4464, -4875, 4025, 5481, -5639, -5621, -3259, -1787, 1620, -1532,
  2274, 1664, -1522, -5549, -2570, -247, 343, -3760, -6319, -2603, 4186, -4941,
  2947, -3804, -1172, -7922, 666, -1933, -15116, 1939, -3384, -4441, -2404, -10319,
  -4725, -4502, 485, 7349, 3299, 8586, 5275, 6221, 3498, -5194, 7578, 369,
  -9949, 13493, 10206, 811, 3790, -2450, -6010, 1986, -736, -3571, 7151, -14916,
  -11155, -5236, -4357, 3449, 2781, 2330, 1778, -2565, -13586, -9405, -4262, 201,
  -266, 1328, -6628, -14445, 5345, -3793, -5858, 3044, 3096, 5485, 3205, -3713,
  11562, 11112, 609, -779, -1009, 7465, 2493, -5496, 19632, -1302, 626, 3783,
  9745, 4049, -12579, -1898, -7036, -932, -1536, 4149, -1003, -1854, 360, 9079,
  -604, -2085, -4463, -3388, -1972, -3057, 289, 6695, 1125, -816, -1017, -2298,
  1566, -6749, -999, -452, -1998, -2652, -8198, -9138, -5020, 8949, 3060, -2735,
  -561, 2905, -45, -9813, 5961, -6264, 854, 3970, 2173, -631, 21, 6101,
  8719, 2851, -2102, -2232, -336, 411, -8560, 625, -696, 2527, 3193, 561,
  -1374, -1564, -2836, 3209, -3057, -1037, 2506, -1802, -1999, 4966, -3492, -1512,
  -95, 796, 1104, -4445, -85, 1599, -1184, -4281, -1573, -2836, -703, 9065,
  7188, -7112, -6476, -8194, -1874, 4808, 7595, 3046, -716, -10516, -8981, -4581,
  2044, 4291, -949, -1498, 340, 2116, -981, -8103, -9427, -249, 5017, 897,
  2253, 7134, -225, -2722, 1580, 2806, 1959, 1940, 951, 2757, 2600, 4650,
  888, -677, 1305, -501, -2430, 5124, 116, 2769, 5217, 3834, 3613, 2027,
  -1103, 4127, -33, -5190, -786, -5447, 5854, 5780, 14118, 361, -6873, -6225,
  -2853, 476, 4581, 3632, 717, -7059, 6734, 8284, 338, 200, 3495, -1570,
  4581, 11010, 3672, 1285, 149, -1881, -116, -2781, 2855, -498, -6650, -5981,
  -1088, -2404, 1719, -3380, 1984, -4059, -584, 1169, 7135, 6192, 3935, -2275,
  318, -12227, -618, 3885, 1018, 508, -5211, -5307, 63, 4911, 926, -6915,
  -1989, -817, 2123, 4702, -7839, 2307, -5946, 2701, 7137, 473, -1495, -5230,
  -7414, -3410, -1810, -4352, 1154, -1854, 110, 1075, 3360, -2630, -1993, 1859,
  4448, -3203, -5310, 7286, 1877, -3757, -2481, 1702, 2691, 2521, -5030, -2761,
  -5548, -3184, 1752, -4715, -7665, -1314, 2318, 1514, -1771, -8024, -4987, -45,
  11040, 5111, -1739, 1366, -2901, 3497, -16551, -9861, -6703, 755, 4217, 8128,
  563, -14510, 1083, 6500, 3812, -1848, -6583, -883, -1663, 10112, 7285, 4711,
  -1278, 240, 11739, -10937, -17231, 4102, -3241, -42, 4096, 4498, 874, 2403,
  -4069, -2988, 4010, -7356, -542, 2786, 1000, -7819, -3711, -1322, 1575, 2955,
  3109, 6167, 4728, 528, 3991, 3576, 7873, 2591, -1513, -3020, -1871, 3126,
  4350, 684, -293, -230, -6543, 160, 2338, -2131, 948, -100, 1693, -633,
  3165, -10576, 5241, 1390, -4100, -1652, -2519, 3007, -1187, 942, -1123, 1,
  652, -1315, 1806, -1924, -2945, 4349, 1054, -2577, -2847, -4608, -4123, -4211,
  2807, -1638, 1508, -5412, 3298, -4444, -3315, 78, -1568, -2372, 3269, -2505,
  -4463, -1272, 3955, -5278, -1900, -2083, 3346, 1763, 2178, 2583, -3420, 36,
  -2839, 1448, 1416, 2254, 735, -6376, 837, -7066, -3931, -3325, 2334, 4395,
  2374, -1781, -10711, 608, 917, -305, -1206, -1033, 5825, -1057, 2403, -5437,
  -4564, -882, 3221, -1791, -6970, -6332, 271, 1849, -300, 1397, -4567, -2548,
  -3657, 4359, 6, -3091, 922, 385, -1273, -739, 750, 3006, 720, -453,
  1854, -628, 1397, 1941, -487, 2104, -2508, -1323, -4052, -9368, 855, 2401,
  3802, 5034, 543, -1630, -8867, 295, 1344, -2623, -7374, -8296, -5581, -5134,
  9398, 2193, -1621, 3607, -2834, -2306, -4275, 1189, -592, 2571, 2383, -2917,
  5628, 3442, 3471, 2737, 3287, 1387, -2505, -1856, -539, -2367, -10224, 10753,
  4886, -1568, 2908, -331, 613, 2573, -8003, -2271, -1800, -3523, 3543, 2530,
  -6856, -6043, -589, 3367, -6293, -2266, 3067, -6386, -5559, 1402, 2237, -312,
  -4147, -73, -2208, -1918, -5054, 1954, -394, -3444, 3282, -5221, -8644, -3647,
  -2787, -4206, -1057, 4313, 2580, 220, 2755, -1125, -1253, 4253, 5944, -4547,
  749, 540, -3226, -1788, 1199, -6469, -822, -2558, -369, -336, 3741, -2476,
  -1688, 3918, -1993, -1867, 1001, -1074, 1456, 1176, 820, 909, -1857, 866,
  2004, 726, -1394, 1419, 1466, -1897, 1891, -2194, -667, 147, 526, 1960,
  1322, 736, -118, -776, -2437, 1268, -473, 462, 1239, -520, 1094, -2818,
  1699, -2404, -1884, 1895, 1855, -1177, -1495, -3, 247, 182, -939, -514,
  -2476, -1769, -109, 619, 1300, -791, -630, -776, 617, -1287, -1431, 1316,
  -951, 2200, 1578, -2797, 930, 798, -1128, -1252, -2415, 946, -2115, -1181,
  201, -1699, 886, 937, -640, -606, 1564, -1076, -2227, -677, -2254, -1798,
  -1857, 2047, 826, 138, -63, -867, -1532, 14, -276, -653, -1412, 1735,
  -1659, -26, -2500, 918, -465, 1780, -355, -51, -2025, -2726, -845, 976,
  641, -159, -745, 292, -1807, -495, -1889, -1707, -388, -2329, 1659, 1362,
  699, -85, -1769, 238, 1427, 1816, 114, -2039, -1979, -1586, -1931, -1498,
  935, -2591, 586, 1842, -2502, 776, -978, -699, 1295, 1026, -1315, -2116,
  -738, 203, 361, -418, 1088, 1097, -977, 646, 665, 2030, -1370, -2696,
  800, -1206, 1521, -912, 2059, 1766, 428, -2191, -1570, 1354, 1272, -1020,
  -1091, -684, 1677, -1071, 1484, 1809, -1798, -2552, -2736, -1493, 1118, -1043,
  -490, -406, 1371, -370, 1540, 140, -2649, -2642, -2217, 157, 1636, -642,
  -560, -2426, -1310, 1388, -2110, -1418, -1874, -1498, 438, -1999, -2389, 196,
  2001, 1107, -1862, 1704, 416, -836, -1686, -1325, 1435, 238, -861, 182,
  -774, -2247, -608, 1182, 393, -2245, -1120, -2569, -2191, 1421, -1035, -1722,
  -436, -1209, -1472, 1920, -1975, 1605, -1424, 257, -221, 330, -2534, 301,
  -128, -247, 492, -3887, -1146, 975, -214, -1266, -894, -199, 878, -3248,
  -1360, -1972, -1059, 1017, -1143, 582, -249, -2478, -772, 31, 1724, 1515,
  1361, -139, -1633, -1929, 30, -2618, -1345, 1490, 874, -2541, -329, 1081,
  71, -1618, -1892, -1303, 780, 1928, -810, -1238, -730, 1606, -2132, -2574,
  -137, -270, -1749, 613, -1681, -2258, 1597, 644, 1027, 1361, -2135, -2125,
  644, -1255, -2465, -639, -519, 457, -1703, 428, 1180, 267, -262, -2522,
  -2451, 523, 1575, -2297, -1820, 357, -1240, -854, 1796, -2352, -923, 691,
  -1967, -897, -2553, 949, -1610, -421, 1818, 992, 1565, 809, 584, 1361,
  439, 350, -2467, -2293, -2452, 137, -2757, -1290, -2187, 642, 1692, -1909,
  -2117, 1881, 108, -905, -1671, 933, 2188, 909, -2270, 1266, -542, -307,
  -2169, 1268, -2112, -2129, 1612, 479, -724, -2879, -86, -1678, -918, -909,
  -1492, -1419, -2028, 1452, -2310, 70, -88, 1849, -3157, -291, -1478, 804,
  1261, -1014, -1813, -2474, -351, 419, -2059, 105, 2254, -2221, -1003, -662,
  -487, -1653, 1119, -1534, -2406, 968, -140, -654, 216, 707, 1424, -1657,
  -2513, -2576, -2149, -2616, 1153, -525, 445, 1113, 939, 1353, -422, 1165,
  -1194, 1111, -2219, -977, -544, -459, -798, -2374, -676, -2279, -52, 1523,
  -1348, 158, 785, 1054, 1010, -225, -2592, 1313, -2509, 1052, -723, 1467,
  1509, 293, 59, -880, -2345, -343, 124, -1750, -1792, -2575, -591, 1177,
  -2440, 1184, -418, -1164, 261, 351, 843, 443, 1581, 1495, 389, 422,
  989, -729, -1954, 1186, 1098, -561, -249, -1459, -1695, -1404, 1577, -2182,
  276, 1077, -845, -1190, 1928, -511, 217, -2111, -1228, 302, -1058, 1019,
  106, -2386, -1379, 1229, -889, 126, -447, -1541, -2563, -772, -3587, -3366,
  -2742, -726, -2404, -1536, -1946, -4621, -2800, -2155, -1323, -3992, -2275, -754,
  -1839, -1271, 1875, -460, -927, -1799, -623, 1566, -1735, 1045, -744, -635,
  1228, -1012, 1828, -1423, -2647, -4060, -224, -2606, 1031, -1549, -1334, -265,
  913, -1564, -1577, 1130, 135, -1481, 355, 171, -2245, 214, -619, -462,
  -2753, -1423, -166, -965, 1302, 1886, 1771, -1207, -1272, 490, -1672, 457,
  1428, -1919, -1368, 407, -216, 925, -350, -2498, -2537, 1107, -1912, 1782,
  999, -2392, -1479, -2351, 895, -1669, -690, -1002, 669, 698, -1035, -234,
  659, 1716, -817, 1898, -297, 1367, 637, 1354, 168, 1442, 78, 1895,
  361, 354, 1469, 1781, 691, 1887, -2572, -1538, -1278, -2390, -1586, 985,
  -1927, -42, 898, 611, -524, -1981, -8, 782, -1250, 670, 1312, -462,
  -2416, -1830, -1668, -1033, -61, 1057, -1257, 688, -1223, -1990, 1132, -1694,
  -441, 1862, -2523, 1511, 926, 747, 1339, 277, -140, 1136, 1037, 413,
  1052, 77, -2292, -1603, -1759, 1751, 1069, 852, 641, -1872, -2049, -259,
  1445, -2575, 1426, -1253, -2141, -1207, 323, 138, 1466, -2198, -203, -2323,
  -72, 922, -2598, 664, 931, 801, 932, 1366, -725, -541, -117, -685,
  -2307, 1135, -7, -1955, 804, 1822, -1696, -2310, -1779, 1506, -2341, 645,
  467, -2224, -1688, -1800, -1080, -1834, 1346, -194, -1612, 164, -1917, -477,
  -887, -1742, -687, 1382, -1877, -206, -640, -548, -861, -2571, -2362, 1469,
  -1917, 1319, -1095, -2594, -973, -545, 1662, 163, -917, 608, 156, -2340,
  -2457, 1544, 1031, 906, 888, 2029, 1253, -2427, 683, 818, 1217, 734,
  -631, -1677, -1771, 675, 567, -1756, -163, 1546, -2602, -825, -216, 1714,
  -1001, -660, -927, 643, -1017, 700, -521, 479, -1921, 993, 1265, -2583,
  -1559, -982, -1659, 719, 623, -2682, -1978, -1150, -557, -2245, -754, 142,
  990, 685, -2683, 1308, -1491, 279, 1637, -205, -1864, -2252, -2062, -1467,
  -2014, -422, 1180, -1870, -1513, 726, -1806, -100, -2677, -1677, 1612, -2665,
  -1390, -728, -2300, -2402, 403, 416, -2556, -254, -1133, 564, 1269, -1405,
  -333, -1383, 1162, -918, -415, -1946, 92, 1061, -1263, -308, 506, -1296,
  -2380, 684, -603, -2197, -2023, -1842, -569, -2084, -3393, 657, -2604, -528,
  -1978, 554, -2890, -1580, 792, -1688, -2303, -42, -564, 596, 608, -2072,
  -937, -2001, -3093, -3026, -2637, 754, -1340, -2303, -656, 21, 932, 928,
  -703, -2381, -1091, -1651, 621, -838, 1379, -632, -654, 1319, -330, 1707,
  -1982, -517, -1018, -664, -1393, 150, 63, -362, -1662, -1718, -881, 1382,
  -293, -1565, 145, -1352, -609, -2002, -887, -833, -2386, 575, 711, -2742,
  -1204, -1965, -91, -2651, 448, -528, -2340, -2798, -1007, -1624, -1829, 1215,
  1121, -3999, -2795, 1384, -430, 631, 1380, -770, -2738, 111, 1675, -154,
  845, -1944, -1971, -2998, -684, 955, 1351, 1043, 1351, -1735, 1091, -186,
  -2003, -2312, -2634, -1835, 1693, -2479, -421, -2042, 1074, 1941, 1574, -488,
  -2569, -1883, 893, -440, 674, -2903, -2482, -2011, -2132, 105, 719, 382,
  1352, -2937, -1359, -1225, 311, 981, -2677, -602, 136, -3038, -887, 850,
  -2062, -1685, -2070, -1380, -2320, -735, 1209, -1848, -2336, 1326, -1251, -1621,
  -1883, -170, -426, -1042, 2729, -2317, -1265, -1913, -1629, -4166, 934, -843,
  -2106, 4448, -3971, -4834, -1743, -1033, -3127, -1978, 1284, 1899, -3183, 885,
  -430, -1100, -247, -2458, 1840, -2146, 597, 1366, -4453, -5670, 1569, -2874,
  -526, 655, -1735, 1150, 4081, -3844, 436, 2888, 378, 932, -1476, -1862,
  -537, 1625, 736, -1031, -1955, -1418, -473, 1630, 197, -376, -244, -424,
  -3623, -1882, -1551, -647, -1784, 536, 1621, -2276, -32, -1534, -790, -1689,
  1286, -1391, -2656, -1859, 620, 1169, -85, -1200, -2420, -316, -2455, -345,
  -1976, -923, -1275, -169, 170, -99, 42, -1343, 1027, 1686, 1800, -2474,
  -2743, -1358, 946, -19, -2440, -2168, 299, 417, 1339, -1755, 1632, -946,
  1510, -709, 705, -1124, 91, -2373, -3092, 1325, 1142, 1283, 506, 585,
  -1129, 1669, -470, -2487, -775, -192, -1559, -2191, -515, -342, -1549, -420,
  -136, -2329, -2263, 800, -1796, -1783, -1379, -2535, 214, 767, -1493, -1090,
  877, -2248, -2039, -235, -60, 1311, 1352, -527, -1715, -817, -2522, -3464,
  -3038, -2538, -504, -1616, 1156, -314, -986, -1694, 1109, 310, 852, -3296,
  -1635, 892, 786, -3236, -438, -3798, -4669, 1182, -1978, 1754, -1174, -391,
  340, 999, -1390, -2524, 370, -2427, -697, -283, -1257, -357, 221, 1549,
  -66, 1084, 244, 1597, 1922, -2846, -3691, -2653, 1211, -1932, -1874, -3384,
  -2383, -298, -3093, -147, -556, -2628, -2192, 184, -2729, -1450, -1189, -779,
  1960, 1008, 1898, -606, -656, 1865, -2102, 745, -2380, -358, -918, 540,
  -598, 1085, 1472, 3718, 422, 5212, -2732, 380, -2804, 96, 1904, -333,
  -1138, 1449, 943, 168, -1731, 107, -805, -1112, -298, -2727, -1066, -3335,
  -610, -4292, -409, -766, 362, 503, -1860, 1139, -497, -2369, 748, -299,
  1869, -399, -732, 182, -2237, -2187, -1364, -1712, -1112, -1454, -589, -437,
  118, 1648, 1474, -151, -2403, 687, 323, -190, 369, -468, -1181, -1564,
  -1034, 714, -397, 300, -1120, -2136, -3922, 452, 61, -1189, 798, -3690,
  -1362, -4748, -3904, -3659, -3963, 453, -3985, -2800, -2016, -92, -930, -393,
  -2055, -1476, 3495, 2510, 317, -3025, 409, -1532, 4114, 5072, 2953, -3040,
  -3305, 1409, 3601, -3409, -1088, -72, -2666, 826, 1445, -1620, -2023, 1143,
  -593, 829, -828, -2694, 377, 1940, -300, -968, -2594, -4021, 1056, -1519,
  -2013, -2215, -3175, -3109, -2777, -690, -4291, -1756, -4211, -917, -2947, -380,
  -227, 1374, 57, -1436, -356, -939, -89, 731, 703, 1930, 798, -1091,
  -2741, -306, 1352, -2285, -2157, -975, 1889, -2205, -955, -666, 528, -2795,
  -3583, -1983, 719, -1254, 1525, 670, -1823, 665, -1644, -2157, -533, -2737,
  -69, -1120, 832, -1671, -2117, 1500, -1249, -1229, -34, -2889, -881, 1298,
  -1742, -2321, -2122, -2641, 1217, -1687, 1660, -338, 1575, -1668, 1837, -2401,
  -349, 1324, -1819, 1653, 729, -964, 469, 659, -1100, -35, -1948, 840,
  -1415, 793, -330, -443, -219, -959, -2630, -782, 265, -2177, 1329, 427,
  -2272, -856, 620, -1165, -344, 825, -815, 188, -3149, 1247, -1399, -477,
  -84, -2182, 404, 557, 180, 1176, -1723, -795, -1608, 584, -1636, 1192,
  -178, 1689, 1530, -1369, -2386, 1657, -1272, -2685, -355, 143, -2364, -1654,
  611, 244, -3025, -52, -1841, -2228, -765, -1655, -1982, -2579, 1085, -582,
  -770, -267, -1056, -2539, -1792, -531, -2031, -948, -710, -386, -3058, -435,
  293, 618, -1119, 124, -163, 810, -1344, 1035, -225, 1630, -1885, -467,
  -756, 975, -1839, -1492, 1806, -3012, -2806, 1013, 12, -921, 529, 1177,
  142, -1849, -1489, 216, -4048, -2121, -1567, 15, -2302, 2589, -2556, -607,
  200, -257, -1983, 1831, 1759, -2113, -2542, -2436, -2907, -244, -4001, 684,
  451, -1956, 900, 146, 346, 651, -2316, -1178, -462, -1657, 761, 1155,
  -1506, -1478, -479, -389, -329, 77, -2714, 1329, 1204, 1230, 669, 114,
  -2139, -2510, -2749, 1029, 1707, -46, -2420, -1477, 7327, 3037, 8504, 359,
  1466, -1937, 983, 2879, 10444, 769, -6336, -2974, -447, -1086, 3746, 791,
  -6978, -3918, 2529, 3617, 3220, 6801, -4257, 3221, 853, 1476, -1061, 2339,
  -3599, 8069, 4571, -2452, -1495, 9469, 3682, -9033, -6862, 2963, 3573, -3224,
  -8332, 21941, 1860, -3973, -2223, 2947, 1343, 3339, 12079, 4487, 1658, -656,
  4303, -2472, 1839, 3363, 3179, -10861, -824, -5521, -650, 4224, 2702, -840,
  -2127, 289, -7330, -7505, 601, 3369, -4052, 229, 9956, 9, 3245, -4010,
  -5685, -2839, -3872, 6468, 10403, 2253, -15224, 10693, -1345, -3844, 6351, 4372,
  217, 4643, 1665, 512, -2207, -2905, 2938, 1545, -339, 5126, -8014, 5195,
  3388, 1208, -1320, -4923, -6816, 752, -4270, 5963, -163, -5332, -4538, -487,
  7785, 201, -1147, 5094, 7865, 4045, -9576, -723, -4322, -6156, -6604, 406,
  3975, -9482, -7456, -7442, -11740, 462, -3469, -4672, 2663, -7181, 6204, -2814,
  -223, -5294, -1214, -729, 729, -5587, -3929, -8881, -3628, 14, 4066, -7867,
  1318, 2803, 815, -3506, -33, 284, 475, -890, -5272, 2342, -1539, 1034,
  7492, -1684, -4801, 752, -1348, -4285, -1282, -1487, -4267, -7674, 6616, -2529,
  3321, 3229, 941, -12055, -8433, -131, -3259, 8023, -4302, -7935, -11981, -6801,
  -2888, -1537, -4692, -3679, -2722, -96, -6913, -8524, -378, -4657, -6878, 344,
  6247, 5032, 2545, 1704, -1907, 2930, 3775, 5344, -7186, -4020, -11944, 1185,
  1210, -3639, -5109, 8166, -1394, -4513, 2408, -7555, -1823, -9666, 13158, 4889,
  12032, -4010, 7893, 4500, -5849, 13727, 5656, 811, 188, 5743, 9804, -3969,
  9683, -1154, -340, 1136, -5498, 1696, -1823, 7832, 122, -2635, -6411, 3435,
  3758, 6850, -4965, 3532, 727, -7669, -10525, -7269, -5321, 5030, 4781, 913,
  5077, 10718, 3928, -3721, 4021, 5026, -3754, 3112, -7134, -10373, -8060, 5410,
  3421, 1544, -3494, -2546, -5394, -7857, 435, 890, -6548, -7823, -327, -2995,
  -543, -3079, -146, -1905, -5264, -6471, 3801, -3250, -236, -5707, 1802, -10184,
  -1251, 4549, 2714, -4505, 831, 448, -3931, 3042, -981, -4690, 2109, 3604,
  -3275, 60, -5131, -1940, 7771, -2583, 9953, 7916, -1435, -5340, -2587, 398,
  846, 7349, 2490, 1572, 21, 1031, -8292, -7251, 4482, 3014, 750, -6743,
  -2949, -5164, 387, -910, -5713, -5413, -3984, -1675, -890, -5501, -3570, -4971,
  -2481, -7701, 962, 980, 5498, -955, -10088, -8111, -758, -4120, -2603, 8336,
  7640, -5163, -1682, -540, 922, 1733, 2250, -1386, -3139, -6883, -4290, -3004,
  886, -3752, -2648, 4234, -7802, 4425, 10390, -8895, -2912, -5092, -2198, -585,
  1778, 2657, -10588, -4410, -2820, 5342, -47, 2661, 1429, -3964, -10245, -3317,
  -3933, -1001, -274, 4726, 2757, 3849, 8103, 1697, -1802, -4725, -1640, 6594,
  1098, 3649, 4040, 6182, 3335, -5413, -1072, -1246, 1584, -4118, -4210, 1750,
  -11295, -6695, -9657, 5781, -6734, 11792, -5329, -5033, -5765, 8084, -8639, 4989,
  8438, 5355, 3844, -3121, 2163, -319, 262, 4735, -3119, 10201, 9016, -5758,
  12488, -14904, -7006, -1560, 12450, -3502, 9966, 4014, 4030, -2124, 388, 3550,
  -4619, -5437, 4897, 6194, -7922, -5139, -3520, 3966, 2069, -3611, 849, 8995,
  2105, 2700, 2264, -6989, -3395, -8315, 2870, -890, 6075, -7319, -10454, -7983,
  253, 1477, -1894, 6655, -6792, -1626, 3714, -3533, -4996, 10420, 11373, 7489,
  -8025, 4002, -4439, 585, 7150, -1481, 5090, 563, -2753, -5024, 541, -2387,
  -3519, 4688, -9929, -5061, -1787, 3279, -931, -6994, -3037, -7890, 8139, 7938,
  8819, 2081, -5521, -4822, 8809, 11940, 10016, 6627, 12617, -9076, -4959, 2972,
  13887, 12785, 1682, 1706, -8967, 3117, -2124, 8361, -13410, -12204, 375, -464,
  814, 599, 10171, -17127, -6889, -9917, -492, 1432, 2078, -2699, -847, -4889,
  -4293, -4387, 6332, 2401, -1105, -10290, -4482, -521, -4403, -658, 1270, -8061,
  -3136, -8180, -4779, -3892, 5738, -5631, 2579, -5059, 4797, 3751, 4945, -8675,
  -9027, -5028, -1013, 5662, 4339, 4322, -1437, -1746, -1878, 2180, 373, 7348,
  2943, 3329, 2586, 1943, 145, -7707, -667, 1469, 2603, -4689, 6186, 4880,
  1418, -4567, -1732, -88, 365, -134, 3389, -5823, -2503, 1620, 1238, -3900,
  -1711, 3072, -824, -5440, 1412, -1765, -2522, -620, 3180, -876, -374, 11255,
  -8370, 2549, 1705, -4475, -2773, -5177, 5968, -10016, -1798, 4023, -3857, 395,
  -2692, 5638, -1997, -5957, 2917, -3260, -845, -1527, 1402, 3326, -789, -1446,
  -395, -1165, 659, -447, 845, -1698, -2724, 692, -3889, -195, 4193, -4643,
  2858, 695, 1945, 1691, -2798, -5501, 3569, -2098, -5555, -598, -7456, -4866,
  4166, 812, -7111, -8737, 786, -1923, -3312, 2347, -5111, -2287, -653, 334,
  4013, 9790, 1991, 2145, -1954, -9180, 2788, 840, -5082, 8852, 8192, 6075,
  -3299, -8003, 1103, -1722, 8842, -1321, -94, 3693, 268, -4404, -4106, -4076,
  -4532, -2404, 9163, 2925, 533, -2974, -783, 415, -4406, 1585, 3021, 2759,
  4987, 7827, -11370, -9479, 1736, 88, -2149, -2277, 7010, -4011, 363, -5132,
  -2042, 3430, -2581, 6577, 1129, 1742, -4720, -3121, -1064, -8077, 3765, 7136,
  -1623, 2558, 167, 2830, -4500, -2226, -315, 3488, -3674, 1377, 1367, -2587,
  -4627, -7948, -858, 1106, 5792, -849, -767, -4740, -2309, -727, -5443, 4162,
  -2472, -5187, -5239, -5642, 14682, -8274, -1591, -3628, -9665, -3232, 1673, 8461,
  -4328, 1527, -656, -9778, 1325, 2014, -7367, -2383, -2121, -2942, -5906, -2265,
  5983, -4629, 2567, -2500, -2890, -4647, 472, 891, -1941, -364, 2893, 1685,
  -841, -476, -2097, -5870, -1334, 687, 2064, -89, 2926, -4057, -3671, -4323,
  -1287, -2208, -4745, 1782, -3340, -5962, 801, 1372, 384, -4117, 4327, -4138,
  -3631, 283, -640, -1570, -918, 1779, -6540, -4315, -3940, -776, 1738, -1403,
  -3268, 1798, -873, -333, -2856, -588, 102, -2272, 786, -6152, -1514, -4039,
  1806, -2158, 2070, -3854, 2003, 3545, 1675, -5208, 3952, -125, -538, 1781,
  3323, -2822, -1350, 1182, 1352, -951, -3009, -2642, -2971, -3595, -3409, -2404,
  2225, -3669, -1138, -534, -881, 1873, -1246, -1090, -787, -908, -3935, -1956,
  -3411, 1645, 1605, -1059, 2267, 1223, -1142, -1360, 1054, -3060, 902, -2649,
  2, -2066, -238, -3830, -3319, -892, -1160, -1723, -1528, -1898, -4189, -4781,
  -2559, -2459, 466, 851, -900, -781, -2510, -4526, 56, 1029, -4085, 1303,
  -921, -881, -1631, -986, -1906, 195, -1655, -2567, -287, 1161, -1530, -2221,
  -425, 311, -2149, -1662, 20, -1775, 3595, -1406, -2778, -3612, -1888, -1165,
  -1164, -2205, -4022, 1582, -2917, 204, -5008, 2784, 1276, -1380, -2917, 1593,
  -3436, 1960, 2452, -653, -3298, -5493, 2713, -4216, 3454, -3842, -2865, 1655,
  -559, 447, -3408, 155, -1795, -4485, 3293, 3066, 78, 863, 251, -1708,
  -1165, 1017, -1812, -388, 3770, -1402, -968, 2768, -1289, -466, 1915, -3388,
  -4514, -852, -4973, 727, 1745, 297, -3068, 691, -3069, 458, 380, -3078,
  -2641, -2846, 1006, 628, 1351, 569, 645, -1278, -3406, -4005, 2235, -1713,
  -2226, 572, -229, -171, -1488, 2352, 549, 1522, 1088, -928, 920, -4721,
  -4076, -750, 1137, 219, -460, 763, -5583, 4020, 792, -1827, -2279, 1939,
  729, -2630, -1338, -1861, 1571, -2377, -6005, -2055, -3825, 478, 2966, 1306,
  4972, -3083, -4539, 380, -2317, -5100, -2556, 2915, 2361, -4606, -4501, -970,
  -4629, -1641, -611, -1270, -3902, -4696, -261, 1719, -2516, 5587, -1022, -1574,
  167, -1137, 1980, 1585, -2051, -2712, 4250, -5818, 5180, -184, -559, -3545,
  2849, 285, 2497, 1086, 871, 327, -1471, -2075, -1077, -1596, -1814, -1899,
  -4638, -2220, -3099, -2924, -2498, -412, -5132, -4705, -1726, -1121, -258, -2311,
  -822, 609, -3578, -1701, -1619, -72, -3424, 769, -2473, -4877, -1116, -4085,
  -1877, 17, -1327, -3631, 1346, -4032, -819, 264, -3469, -296, -362, 606,
  69, 964, -2284, 2723, -1084, -1471, 3453, 2166, -1531, -399, -4902, 1051,
  -3588, -5340, 1112, 909, -1948, -2952, -3662, -2410, 526, 1604, -298, 681,
  -4206, -517, 362, 2306, -767, -3700, -3424, 469, 71, -681, -2665, -3012,
  -1828, -1513, 347, -1432, -1567, 361, -413, -1772, -573, -510, 2968, -2799,
  -4127, -1367, -600, -197, -2878, 1666, -3480, -4382, -8118, -4428, -371, -6020,
  764, 89, 4187, 3064, 1395, -1042, -2108, 1096, -2935, -827, -2995, -5213,
  -1624, -1301, -3914, 1098, -2493, -50, -1146, -4452, -1996, 1503, -1031, -2199,
  2429, -522, -636, -1720, 67, -1924, 2289, -146, -912, -282, -2742, -1628,
  1206, 877, -1003, -3220, -987, 615, -3099, -2593, -7144, -1764, 1451, -119,
  2875, 3514, -116, 1681, 2907, -4189, -3818, -4030, -992, -4173, 3734, -892,
  -3883, 162, -5637, -1135, 420, 1229, 655, 1899, -2673, -3783, 2148, -6441,
  2668, 1990, -4621, -3521, -1550, 519, 379, 49, 53, 164, 1611, -3964,
  -232, 197, -1356, -4548, 2555, 112, -1080, 261, -5828, -398, -354, 2363,
  -2006, 2196, -1605, 1885, 2366, -2968, -3036, -5490, 133, 2681, -168, -4802,
  364, -3148, -5823, -3117, -3211, 470, 30, 3069, -3540, -3032, -4941, -463,
  422, -863, 1413, -3573, -214, -549, -574, -2237, -1639, -2173, -1539, 1120,
  1609, -4320, -4028, 331, 3097, 1077, 2017, -5002, -4120, -2367, -4054, -2215,
  2403, -2859, -1902, -5567, -592, 3404, -2233, -107, -2043, -3000, -4286, -1908,
  -1841, -2819, -2277, -2158, -4188, -4824, -1278, -2888, -2026, -4827, -4929, -2309,
  1394, -782, -1684, -1483, 569, 929, -276, -917, -3166, -4158, 1018, 1022,
  -2168, 1277, -4257, -4618, 2972, -2337, 703, -502, -2498, -1053, -1062, -3469,
  -2195, -2649, 622, -5942, 21, -5602, 44, -273, 582, -713, -3303, -4694,
  -517, -159, 1906, 2246, -2655, -848, -2578, -2829, -731, 1794, -2665, -2681,
  -1524, -4905, -2732, -1940, -1559, 1701, -5570, -3149, -2770, -2224, -261, -1290,
  -1765, -154, 310, -2687, -3088, 2367, -1046, -1079, 867, 332, 413, 1756,
  -1122, 1447, -164, -882, -712, -3447, -2384, 576, -4823, -2167, -1232, -1288,
  94, -1729, 571, -1751, -1959, -111, -5121, -142, -3964, -4175, 3035, 1721,
  -435, -2249, 1265, -1926, 188, -2986, 1409, 1294, 1127, 647, -889, 2056,
  1552, -1026, 3097, 3270, -897, 19, 1686, -388, 481, -305, 331, -666,
  388, -4310, -9, -466, -3103, -1280, -11, -796, 465, -1684, 813, 1029,
  -2354, -68, -2349, 1622, 53, 394, 566, -5913, -578, 1461, -1491, 461,
  1141, -4295, -703, 1002, -1117, -2012, 441, 814, -3293, 855, 2111, 1462,
  -16, 983, 531, 594, -2730, 2838, -4385, -2855, 1213, 626, -1166, -2880,
  -2791, -1106, -2414, 888, 1617, -2234, -975, -1329, -3027, -6346, -4398, -2248,
  -3310, 395, -783, -5682, -3585, -4412, -1552, -4267, -3624, 1183, -3549, -3618,
  -411, -1787, 53, -3204, -2651, -4031, -1123, 1308, -2509, 1839, -2232, -778,
  1162, 245, -338, 847, 4855, -2928, 1660, 1498, 2754, -2776, -2517, 1706,
  3405, -1307, -123, 638, -2729, 220, -5979, -961, -2608, 2104, 1406, 1914,
  -2144, -1984, -968, 380, -358, -1422, -656, -1355, -3205, -2599, -2091, -3627,
  2528, -1284, 3238, -433, -2243, -534, -837, 41, 3603, -3028, -1185, 92,
  781, -4693, -4791, -4102, 4018, 724, -1339, 1199, -1450, -3609, -1037, -366,
  -2068, -4140, -1426, -2574, -1002, 1314, 1376, -3610, 411, -925, 706, -2117,
  2220, 16, -63, -6315, -1797, -5208, -2335, -918, -420, -621, -2993, -261,
  -540, -1452, -2379, -4754, 2879, -450, -1009, -1867, -401, 540, 764, -1800,
  -337, 276, -3031, -6109, -2270, 2875, 1541, 1222, -4769, -543, 41, -1544,
  -2965, -878, 561, -919, 91, -1256, -4286, -404, 1119, -1094, -1735, -1195,
  -2613, -3788, 931, 120, 431, 2460, -2774, -300, 1151, -806, -1618, 1896,
  1816, -126, -821, 1178, 821, -424, 1855, -1207, -669, 1482, 767, 4158,
  -144, 1147, -1086, -1587, 540, 472, -1252, -704, -2769, -3817, -1599, -973,
  -190, 448, -1106, 124, -1604, -4269, -819, 782, 271, 4736, 3649, -3074,
  3546, -381, -639, -2398, 5194, -347, -3730, 2486, -2531, -422, -794, -2140,
  -1461, -929, -814, -808, -2750, 3159, -1975, -3373, -425, 248, -462, -3281,
  2039, -2737, 136, -1858, -192, -722, -4566, 1078, -1205, -2048, 882, 2462,
  -2424, -1347, -1314, -2597, 1828, 1626, 2734, 2670, 1642, -854, 7791, 498,
  4231, 5621, 135, 1433, -3485, -9386, -1070, 2082, 1745, -2708, -3612, -2827,
  -6234, -8254, -2271, 9680, -1847, -1236, -5874, 823, -3245, -1749, -614, -6430,
  -4870, -2310, -1049, -2853, -5505, -7345, -9711, 3119, 1575, -2263, -2635, 2533,
  -4064, -1174, -1576, -5623, 2318, -2460, 172, -636, -2667, -2641, 539, -999,
  -522, 580, 1341, -2331, 4195, 127, -1881, 3026, 1384, -1381, 910, 146,
  5368, -5, 1362, 1160, -774, 2238, 661, -618, 2419, 1130, -144, -426,
  -1051, 3517, 1665, 2026, -3546, -2651, 2864, -2050, 3757, 1103, -2977, -1741,
  2517, -190, -4302, -1863, 331, 6018, -2152, -1663, -1020, -1671, -1493, -2977,
  -1958, 210, 419, -2162, -907, -2041, -1341, -3381, -3087, -2021, -265, 1426,
  -1808, -1276, 1346, -1771, 1253, 290, -531, -3122, -2297, 1081, 1200, -1904,
  1409, -2875, -582, -752, 182, -754, -225, -1869, -655, 821, 660, -987,
  -4198, 684, 4795, -98, -1634, -2412, 1036, 2519, 59, 2088, 61, -3573,
  -2671, -4407, -6739, 1613, -1715, -1202, -911, -1680, 2179, -6045, -6515, -6703,
  -1522, -1012, 1680, -563, -127, -1027, -904, -4036, -5250, -2891, -3318, -2058,
  -1442, -3151, -5531, -278, -851, 46, -715, -4467, -3530, -467, 1354, 2474,
  2020, 1575, -2465, 1339, 2979, -1717, -2373, -3415, -3722, -3285, -5316, -3545,
  -1079, -4827, 2405, -1402, -1831, -2625, 1910, -2431, -4023, -497, 3201, -2332,
  3975, -4422, -424, -1792, -5153, -2029, -1206, 166, -4463, -1040, 92, -664,
  -1591, 150, -1976, -951, 4501, 1300, -2725, -4530, -3955, -6903, -2496, 3188,
  2420, -1695, -3030, -1311, -682, -5453, -2694, 1298, -2275, -2924, -1482, -1408,
  1002, 583, -5121, -3262, -2278, -1976, -312, -120, -2436, -5876, -566, -2571,
  -1144, -3246, -2719, -21, -4084, -419, 3048, 2126, -1207, 860, -2211, 2451,
  830, -2254, -1986, -3327, -700, -1801, 1966, -1162, 425, 1284, 3675, -114,
  6322, 4653, -5559, -1110, -1035, -7035, -2503, -5390, -3212, 2811, 1833, -4489,
  -369, 1777, -928, -2908, 3516, -1965, -4282, 3985, -4222, 391, -2055, -787,
  -7042, 1332, 183, 3946, -759, -6090, 61, -3656, -5684, -5532, 4592, -1691,
  -1713, -455, -5418, -5871, -2115, 1617, -4736, 2300, -4141, -531, -2113, -1232,
  -5340, 5492, 2615, -2122, -3544, -1649, 9, 1233, -1407, -1193, -1573, -3957,
  -11, 1570, -1365, -3131, 81, 2578, 1399, -165, -863, -3838, -3000, -76,
  -1242, 2168, 334, -5859, -5587, -3876, -2486, -1363, -3634, -3790, -2890, -3563,
  -62, -537, 503, -1093, -1162, -4518, 365, 2511, -325, -2985, -2233, 973,
  -3630, 1055, 683, 21, -1491, 362, -2388, 287, 997, -1144, -353, 476,
  -2027, -301, -2151, 77, -1963, -2384, -897, -2095, 901, -1551, -2772, 33,
  -925, 1100, -1968, -81, 3356, -2765, 310, -1270, -1862, -422, -1612, 2204,
  2838, -125, -1203, -3015, -3431, -2012, -1446, 626, 2609, 900, -471, 635,
  -667, 1198, 2093, -418, -1970, -3434, -56, -1457, 1271, -1305, 946, 1329,
  1780, -603, 1159, -1196, -2065, 933, 1391, 374, -2117, -1049, -4385, -700,
  1019, -2075, -1609, -398, 2443, 907, -1663, 925, 557, 3090, -2045, -3489,
  -1587, 685, 3257, 975, -1483, 1829, -1565, -2474, -2603, 487, 43, -139,
  -257, -2148, 358, 1217, 958, -1154, -2950, -1004, 1848, -1301, 397, -3009,
  917, 1879, 2586, 3480, 50, -1287, -265, -2349, 4774, -3559, 441, 484,
  -548, -710, -2869, -3079, -2182, 116, -2625, 575, 1101, -1374, 1553, 4850,
  280, 742, -326, 748, 454, 3707, 867, 2758, -696, -1209, -2020, -1071,
  -784, -1548, 2781, -3662, 1157, -3849, -842, -207, -6829, 412, -72, 726,
  -940, 102, 4524, -2823, 122, -147, 334, -5622, -300, 589, -387, -1582,
  -3102, 687, -1431, -143, -3738, -41, -1517, -2036, 2502, -2737, 42, -106,
  -1245, -2705, 2153, -1341, -2193, -3390, 91, -1101, 2012, -902, -2207, -2962,
  1273, -1700, 448, -2484, -2406, -30, 1712, -575, 965, -4888, 6371, 346,
  -2376, 5611, -381, -16254, -11368, 1829, -6287, -5692, 5281, -734, 2459, -4875,
  -5050, 28, 4335, 16035, 9959, -4304, 3550, -6773, 133, -4368, -8746, -1533,
  4058, 1215, -5937, 1789, -11278, 1890, -3462, 3184, 2794, 2119, -2182, 3962,
  -9900, -13286, -2729, 2368, 3490, 2094, -3881, 6409, -7970, -6663, 644, -3956,
  4775, 9248, 5408, -5008, -2103, -418, 653, -2809, 3362, 5244, -4700, 262,
  5892, 99, -3764, -1417, -7463, 1740, 1610, 5370, -2177, -8623, -1462, -4362,
  -1567, 2233, -3182, -10615, -10417, 1825, 3243, -6493, -993, 1766, -644, 7442,
  -6041, -363, -3664, -5971, -10033, 171, 2724, -47, 8489, 6774, -9333, 6684,
  -1865, 1571, -800, -2060, 190, 1671, -2515, 265, 4632, 2073, 3000, 1263,
  167, 3569, 4050, -5381, 1869, -2291, -3944, 9371, 3373, -1126, -11232, 3833,
  1162, -1975, -7005, 1536, -4060, 565, 2925, 138, 3529, -7462, 3548, 480,
  -2893, 3152, 1281, 9996, 2941, 304, -7165, -997, 3178, -964, 12218, 3829,
  2289, -1856, -3972, 1489, 1057, -9614, -6404, 4151, 8500, 7748, 6953, 3080,
  -3322, -4361, 9764, 8806, 1454, 8008, -2394, -551, -691, 2511, 608, -10992,
  -3516, -9256, -6544, 3666, 935, -4020, 2958, -4253, -1998, -9433, 4033, -1084,
  164, 3362, -1265, 2288, -12288, -4922, 188, -608, 4262, 4491, 1731, -8219,
  10804, 1022, 3588, 2598, 14008, -8134, 1410, -4983, -3103, 6242, 11253, 5077,
  3841, 2623, -6838, 8017, -1595, 11884, -3935, -1083, 90, 9812, -20772, -13235,
  -259, -1312, -2958, 2121, -19799, -14945, -22284, -353, 2911, -2221, -137, 2007,
  12250, -3477, 3408, -1119, 1445, -4171, 13231, -1459, 3024, 3846, -116, 2538,
  5925, 158, -3124, 14113, -1194, -2958, -1839, -1584, 2620, -2388, -9284, -7985,
  -916, -11145, 898, -279, 10048, -6986, -1083, -6644, -18276, -9528, -2800, -4394,
  -20967, -17238, -8871, -11752, 13630, 4342, -6093, -19353, -17865, -13594, 9127, -19863,
  4373, 107, 1190, 913, -1052, 5236, -3455, -4634, 2075, 1058, 13143, 192,
  7431, -4871, -5713, -1538, 1481, 2574, -524, 2580, 8445, 2467, 5952, 11257,
  5087, 1755, -992, 8772, -265, 5650, -1397, -2638, -3002, -3368, -5446, 4425,
  -16702, -14475, -7498, 3053, 2293, 710, 5853, -1892, -12900, 5149, -2509, -515,
  7246, 496, 434, -6903, 1354, -803, 4940, 5632, -2281, -4758, -142, 760,
  255, 1727, 3895, 7969, -4379, -1216, -980, -1032, 1598, 3181, 2575, -9610,
  -7115, -12248, 5120, 10768, 4646, -7027, -17623, -13573, -1261, 7139, 12296, 6229,
  -1358, -5399, -164, 4516, -5235, 8450, 6241, 6805, 7968, 7118, 11533, 569,
  -482, 1258, 7577, 2568, 2068, 3720, -1057, -2007, 4891, -4816, -4929, -3714,
  -5090, -1725, -601, 6709, 172, -10358, 6815, -714, -1144, -921, 1120, -4530,
  -931, -6249, 1596, 2154, -2175, -2402, 5823, -6956, 670, 3819, -2072, 7120,
  9476, 2158, -2151, 801, -2954, 9196, 639, -671, 2132, 5041, -5115, 3372,
  126, -8000, -4419, -4304, 5327, 1436, 2547, -9333, 4858, -615, -3439, -4634,
  -4135, 1843, 1389, -1761, 840, -2372, -3085, 138, -1, 3273, -17, 4733,
  -760, -3806, -699, 1947, 6772, 5971, 5250, -5986, -3043, 269, -1004, -2788,
  -856, 3910, 1806, -3758, 6066, 4496, 10091, 3318, 6893, 624, 6543, 4248,
  -1621, -348, -1538, 6267, -5011, 4262, 2656, -3998, -11468, 5372, -4612, 929,
  5133, -9984, 965, 24315, 605, 1138, -6840, 3408, -2193, 3434, 2668, 187,
  -2365, -1216, 6060, 7178, 5176, 2193, 3288, 1158, 1634, 8052, 7720, 4401,
  2131, 1338, -918, 3307, 2385, -5705, -570, 853, 4490, 4498, -438, -1342,
  -530, -8974, -6964, 1505, -2151, -2342, 4062, 813, -5460, -12396, 1338, -1217,
  2626, -7562, -8587, 12406, 8437, -4747, 222, -671, -5632, -1669, 2868, -1579,
  3700, 245, -4283, -3444, 3573, -2284, -3357, -4639, 150, -754, -479, -436,
  3158, 5878, 2005, 2473, -7110, -4492, 699, 3667, 248, 3884, 5750, -2398,
  1836, 2405, 190, -715, 357, -4375, -1113, -4315, 2273, 5071, -4603, -1692,
  -3948, 965, -7561, -6159, 99, -5363, -2466, 496, 2230, -3480, 4188, 1530,
  644, -209, -536, -3032, -166, 1028, 4862, 6443, -4732, 1466, 988, 1720,
  -907, -93, 367, 2873, -1601, 5855, 2064, -1651, 1245, 648, 2285, -1584,
  1560, 733, -6315, -371, 3230, -2833, -416, -1660, -3784, -8498, -4879, 3889,
  2339, -829, -7103, -5679, 864, 1531, 2506, 8960, 2845, -5105, -44, -2176,
  -358, 5299, 3571, -6905, -5414, 2013, -3734, -3942, -1310, 3891, 4759, -1862,
  2429, -711, -8354, -2736, 2940, 18921, 8689, 8214, 7072, 3672, 4094, -1560,
  20508, -418, 2507, -48, -5210, -2157, 5267, -2542, -1136, 4399, 5271, 1302,
  1344, 753, 2527, -28, -3983, 1763, 3373, 9213, -1960, 7991, -1212, 3210,
  135, -1783, 1203, 1910, 8960, 4595, 3097, 3408, -9977, -1447, 2940, -4097,
  -6731, 8245, -3943, -2825, 10864, 5023, 11265, 2086, 2731, 2231, -4010, 2418,
  3143, 3075, 3277, 5261, -392, -3867, -3470, 225, 2974, 768, 7706, -11801,
  -9918, 5924, 556, -2148, 5345, -4016, 83, 7873, 3010, -939, 687, -909,
  -2980, 10177, -3867, -20, 405, 1835, -607, 1608, 2697, 3436, -2920, 899,
  -5338, -952, 11790, 7536, -2594, -4074, -4174, -2324, 9451, -3339, -2447, -5204,
  3542, 5959, -1943, -6583, 5817, -3975, -7832, -1562, 2544, 2272, -2056, 6271,
  2965, -30, 464, 212, 5436, 5375, 1859, -3289, 4925, 962, -2792, 2776,
  73, -241, -2333, -2137, 516, 235, -2372, -1431, 1467, -480, 1313, -1806,
  -1217, 685, 757, -495, -2494, -494, -2402, 1949, -1732, 1641, 1186, -1027,
  675, 1562, 721, -2513, 1713, -196, 607, -2244, -1939, 66, -2604, -2282,
  1573, 868, -1249, -1433, -1143, -735, 306, 1617, -1976, 698, 1860, -2458,
