#include <stdint.h>

// fc1.weight
const int16_t fc1_weight[100352] = {
-10, -7, 30, -17, -14, -29, -33, 25, 17, -34, -24, -13, 28, 26, 19, -29, -10, 17, 16, -8, -2, -8, -35, 11, 0, 19, 23, 15, -32, 4, 18, 15, -6, 11, 24, 48, 86, 77, 74, 67, 118, 92, -100, -7, 247, 286, 180, 117, 119, 120, 66, 27, 25, 15, -27, 18, -4, 26, 64, 137, 114, 64, 81, 124, 46, 126, 46, 33, 42, -158, -54, -51, -131, -51, 51, -61, -38, 155, 139, 88, 123, 93, 34, -27, -29, -23, -148, 46, -154, 34, -14, -16, 30, 79, 29, -17, -203, 165, 194, 137, 22, 11, 8, 48, -7, 203, 127, 363, 49, -295, -213, 25, -2, -29, -184, -242, 79, 2, 98, 285, 304, 326, 36, -68, -13, 59, 69, 20, -37, -75, -72, 81, 69, 43, 20, 12, -2, -236, -72, 363, -25, -3, -168, -159, -172, -303, -120, 225, 224, -38, 111, 58, 92, 1, 64, 67, 17, -13, -215, 7, 94, 20, -154, -142, -164, -9, 305, 237, -15, -106, 76, 41, -123, -253, -52, -9, 28, -67, -176, -108, 21, -43, 11, 140, 89, -23, -168, -114, -180, -58, 123, 164, -109, 38, -23, 100, 16, -149, 42, -157, 70, -174, -57, -12, 45, 53, 4, 99, -40, 65, -49, 109, 104, 150, 108, -172, -352, -92, 54, 53, 225, 133, -184, 149, 155, 1, 214, 48, 114, -250, 3, 76, 17, 137, 31, 32, 39, 11, 10, 100, 151, 123, -107, -283, -269, -78, -89, 65, 122, 75, 45, 4, 31, -48, 60, -139, -49, -55, 42, 8, 126, 12, -49, -212, -170, -48, -101, -184, -125, 54, -154, -65, -172, -103, -79, 101, 108, 68, 67, -69, -28, -15, -62, -50, 83, 120, 41, 104, 93, -61, -109, -187, -107, -71, 82, -85, -108, 114, 66, -204, -250, -103, -19, 305, 74, -366, 30, 40, -14, 197, 13, 140, 162, 45, 13, 159, 45, 71, -153, -25, -124, 80, 197, 15, -98, 121, 95, -70, -191, 3, -124, -186, 125, -35, 123, -218, -13, -10, 94, 157, 60, -158, 60, 150, 56, 86, -141, 44, 13, 170, 60, -104, -154, 27, -46, 52, 39, 126, 43, -250, 32, -158, -86, -186, 15, 23, -108, 110, 89, -53, 149, 82, 88, 29, -1, 70, 126, 17, -215, -153, -255, -128, -1, 126, 166, 85, 160, -92, -218, 82, 315, 306, 57, -131, -111, -172, -100, 237, 202, 129, 66, 42, 64, 179, 69, -92, -283, -277, -127, -29, 5, -127, 134, 307, 72, -222, -8, 218, 413, 147, 65, -42, 7, -132, -80, 205, 36, 291, 258, 158, 68, 13, -20, -70, -88, -183, 10, -11, -91, -28, 101, 131, -3, 23, 124, 347, 109, 211, -15, -105, 125, -65, -56, -8, 56, 275, 319, 231, 152, -43, -78, -95, -5, 35, -108, 1, -142, -43, 229, 85, -95, 80, -87, 448, 375, 180, 16, -82, 151, -12, 101, -45, 103, 350, 254, 307, 116, -175, -58, -54, -109, 10, -83, -108, -233, -121, -7, -5, -12, 70, -27, 25, -130, 372, -100, -85, -73, -80, -52, -8, 173, 292, 253, 199, -60, -153, -53, -81, -46, 54, 1, -189, -11, -114, -7, -16, 3, 75, -72, -144, -125, 113, -54, -39, -120, -8, -4, 147, 33, 111, 267, 190, 92, -170, -91, -57, -99, -17, -7, 47, -56, -58, 99, 171, 130, -107, -281, -262, 287, 60, 14, 58, 9, 214, 197, 200, -39, 128, 160, 234, 181, 32, 4, -77, -192, -32, -36, -31, -148, 16, 148, 98, -60, -307, -528, -246, 6, -96, -40, 26, 0, 486, 364, 51, -9, 72, 202, 263, 184, 161, -91, -189, -49, 47, 19, 9, -248, -71, -21, -64, 5, -232, -541, -183, 302, -13, -36, -29, 125, 271, 57, 146, 166, 102, 53, 226, 245, 179, 10, -99, -51, 19, -65, -37, -14, 67, 10, -72, -73, -192, -476, -231, 31, 53, 2, -21, 160, 64, -125, -40, -132, -115, 160, 20, 88, 2, 21, 51, 63, -37, 3, 107, -12, -308, -411, -340, -161, -167, -462, -192, -84, 26, 15, 1, -177, -26, -146, -246, -274, -250, -3, 43, -33, 161, 232, 160, -195, -191, -281, -332, -214, -532, -557, -483, -306, -261, -261, 40, 45, 25, 30, 31, 140, -40, -253, -181, -60, -103, -180, -194, -72, -172, -217, -159, -190, 48, -197, -235, -356, -352, -372, -513, -340, -29, -83, 63, 146, 29, -1, 35, -15, -54, 124, 62, -10, -188, -34, -125, -118, -20, -47, -83, -92, -286, -264, -264, -303, -279, -193, -210, -272, 5, 91, -96, -25, -9, -16, 11, -16, 18, -83, -197, -92, 10, -56, -27, -109, -31, 60, -99, -112, -118, 41, 33, -31, 67, 31, -168, -184, -105, 33, -15, -31, 22, -32, 18, 24, 31, -20, -34, -31, -17, 11, 5, 28, -22, -35, -15, 10, -19, 21, -26, 22, -13, 7, -1, 10, 15, -7, 29, -11, -28, -30, -34, 26, -18, -16, -25, -86, -64, -30, -44, -96, 59, -40, -148, -44, -9, -29, -156, -227, -50, -108, -64, -89, -53, -11, 7, -7, -30, -31, -3, -70, 333, 240, -11, -37, -93, -173, -333, -488, -560, -708, -605, -509, -466, -249, -198, -452, -609, -226, -261, -218, -260, 10, -60, 20, 7, -22, -35, -51, 268, 195, -261, -387, -547, -415, -272, -410, -366, -412, -643, -698, -29, -360, -242, -181, -320, -314, -297, -242, -294, -104, 1, -26, 0, 18, 38, -208, 336, 235, -387, -440, -272, -508, -421, -396, -463, -481, -486, -446, -139, -91, 19, 93, -334, -253, 28, 79, -36, 62, 83, 282, -54, -11, 20, -261, -200, -398, -238, -108, -335, -287, -169, -371, -232, -93, -228, -192, -278, -235, -38, 44, -166, 114, -71, -121, -192, 15, 144, 328, 285, -34, -38, 244, -6, -77, 82, 33, -230, -176, 92, 257, 90, 75, 41, 38, 54, -102, 4, -60, -109, 174, 60, -65, -132, 105, 295, 124, 327, 21, 48, 106, 109, -47, -35, 110, 22, 79, 233, 209, 180, 200, 179, 68, 74, -15, 49, -24, -12, 20, 24, -192, -155, -13, -42, -68, 379, -193, -177, 12, 136, 109, 70, 113, 47, 157, 123, 76, 205, 138, 153, 226, 244, 269, 175, 238, -93, 73, -157, -107, -280, 33, 79, 13, 46, 143, 133, 188, 91, 219, -34, 86, -67, 85, -85, 29, 47, 237, 249, 279, 218, 182, 188, 276, -58, -95, -77, -195, -342, -21, 297, -201, 123, 165, 133, 199, 323, 353, -47, -70, -57, 25, 94, 79, 41, 85, 93, 92, 183, 266, 52, 58, 2, -107, -249, 23, -505, -300, 85, -212, 112, 116, -182, 321, 33, 168, 52, -13, 28, 128, 85, 52, 45, -112, -82, -204, 104, 155, 102, 73, -83, -107, -161, 184, -208, -179, -402, 78, 248, 95, 97, 182, 41, 203, 142, 139, 114, 69, 101, 124, -111, -221, -106, -202, 60, -73, -17, 191, 57, -75, 78, 75, 14, -172, -150, 131, 160, -13, 129, -9, 1, 89, 131, -41, 109, -14, 128, 52, -8, 16, 45, -14, -17, -188, -27, 159, -145, 73, 124, 125, -77, -50, -70, -416, -325, -56, 90, 168, -63, -6, -1, 48, 143, 76, 138, -34, -31, 88, 63, -49, -65, -322, -90, 134, 88, 177, 33, 0, -3, 366, -32, -278, -136, -62, 58, -94, -126, 163, 63, 246, 115, 202, 115, 99, 163, 26, -5, -10, -20, -348, -102, 88, 133, 174, 52, 19, 100, 226, -163, -53, -286, 70, 13, -2, -104, -142, 39, 101, 31, 247, 166, 216, 246, 317, 159, -84, -19, -317, -112, 208, 195, 153, 12, -17, -65, -39, -458, -335, -179, -15, 16, 7, 2, -381, 60, 24, 83, 101, 23, 109, 178, 210, 91, 12, -3, 19, 110, 71, -9, 8, 9, 60, -47, -41, -390, -60, 34, 174, 35, 235, -289, -375, 49, -131, -161, -163, -205, -3, 245, 81, -89, -122, -74, 44, 178, -59, 64, 168, 87, 4, -133, -448, -358, 204, -292, 30, 311, 317, -335, -453, -246, -287, -328, -353, -267, -237, -102, 50, -186, -196, -169, 9, 125, 150, 183, 265, 115, -215, -406, -346, -328, -187, -210, 12, 235, 278, -189, -363, -568, -400, -252, -185, -329, -320, -449, -312, -91, -74, -53, 119, 137, 88, 186, 205, 9, -152, -94, -93, 39, -176, 59, 25, -18, 149, -39, -39, -398, -449, -198, -321, -463, -254, -379, -394, -290, -90, 76, 103, 44, 97, 56, -15, 84, -33, -145, -113, 159, 158, 11, 31, 59, 187, 281, 84, 55, -71, -129, -204, -310, -95, -145, -191, -209, 50, 70, 48, 42, 12, -19, -44, -147, 26, -135, 50, 161, 225, 60, 15, -10, 98, 263, 100, 257, 265, 53, -61, -167, 125, 158, 2, -117, -10, 4, -2, -29, -26, -155, -256, -254, -44, 37, 150, 185, 58, 10, 5, -18, 89, 278, 289, 275, 270, 205, -72, -73, -26, -90, -59, 236, 123, 90, -5, 31, -174, -90, -37, -80, -15, 339, -63, -317, -253, 21, 11, 24, 181, -60, 149, 362, 258, 422, 302, 161, 90, -139, -66, -54, -169, 152, 204, -88, 88, 322, 166, 152, 227, 238, 357, -168, -155, 21, -21, 24, 26, 60, 88, 218, 178, 116, 123, 218, 211, 171, 164, 207, 168, 105, 344, 208, 101, 284, 518, 210, 226, 59, -112, 104, 7, -1, 18, -27, 2, 11, 8, 31, 116, 158, 181, -57, 29, 147, 116, 97, 356, 178, 306, 132, 206, 173, -39, -37, 1, 40, 35, 8, -32, -27, 22, 31, 32, 1, 32, 14, -8, 24, 32, 33, 26, 24, 6, 23, 53, 19, 4, 30, 34, 19, 14, -35, 7, 0, 12, 0, -19, -29, -21, -32, 14, -16, 24, 1, 11, -6, 20, -14, 23, 27, -270, -34, 53, -54, 4, -121, -103, -152, -195, -6, 7, -23, 10, -4, -16, 30, -6, -31, -18, -32, -60, 11, 28, 6, -37, -7, -22, -57, 196, 303, 129, 159, 297, 315, 212, -34, -133, -77, -140, 43, 24, -71, 29, 0, -33, 1, 186, 81, -90, -172, 8, -31, -77, 26, 42, 59, 161, 88, 79, 219, 424, 300, 143, 102, -23, -103, -8, -547, -385, 200, 199, 0, -18, -3, 80, -20, -124, 32, 200, 72, 100, 274, 108, -81, -87, -66, 140, 277, 239, 31, -59, 0, 161, -72, -45, -366, -351, 214, 58, -246, -29, 3, 78, 25, 57, 258, 295, -49, 63, 154, 164, 148, 62, 2, 74, 7, 84, -90, -185, -170, -117, -63, 169, -15, -81, -92, -338, -280, -11, 60, -106, -54, -348, -103, -118, -113, -69, 146, 192, 268, 196, 36, 179, 93, 163, 140, 105, 8, -36, -92, 123, 4, 30, -365, -160, -100, -27, 126, -87, -10, -66, -58, -175, -17, 43, 25, 144, 229, 61, 4, 100, 168, 224, 209, 101, 158, 1, 27, 227, 54, -259, -476, -13, -49, -31, 5, -357, -303, -53, 56, -115, -18, -1, 13, -32, -78, -205, -349, -132, 249, 131, 155, 6, 112, -10, -100, 2, 19, -412, -497, 57, 50, -18, -5, -309, -170, 31, 82, -147, -6, -111, -124, -46, -205, -258, -465, -409, 71, 186, -18, 41, -30, -149, -104, 16, -50, -233, -283, 22, 120, 3, -58, -223, -84, -211, -178, -38, -263, -248, -176, -231, -241, -400, -487, -419, -107, 249, 152, 28, -73, -147, -85, 85, -55, -9, -79, -196, 108, -3, -59, -107, -157, -403, -155, -107, -476, -292, -39, -41, -177, -224, -211, -296, -3, 94, -121, -113, 15, -59, -72, 102, 156, 137, 58, -242, -87, -11, -58, -106, -408, -494, -346, -193, -382, -339, -97, 22, -113, -34, -87, -139, 1, -47, -133, -152, -112, -124, -34, -123, 156, 91, 213, 167, -85, -2, -67, -87, -141, -381, -429, -289, -305, -398, -65, 70, -36, -143, -78, -140, 27, -91, -127, -66, -197, -125, -77, -118, -270, -228, -79, 297, 124, -14, -134, 34, 53, -147, -228, -8, -42, -258, 17, -69, -153, -260, -399, -131, 8, 139, 1, -9, -62, -293, -11, -45, -178, -187, -182, 219, 144, 6, -37, 164, 237, -45, -130, -104, -152, -189, -86, -79, -128, -365, -212, -60, 109, 83, -24, -150, -138, -351, 83, -170, -219, 22, 126, 120, 185, 26, -52, 159, 91, -27, -11, -10, -50, -201, 136, 79, -35, -71, -11, -78, -83, -64, -168, -339, -257, -284, -16, -129, -149, 52, 217, 242, 239, -28, 7, 105, 90, -7, -2, 144, 60, 126, 159, 271, 217, 140, -75, 38, -33, -238, -393, -257, -251, -289, -352, -269, -388, -37, 317, 193, 286, -5, 75, 71, 36, 38, 17, 115, 280, 316, 239, 259, 258, 225, 35, 24, -105, -169, -130, -60, -66, -10, -181, -69, -131, 20, 216, 70, 110, -57, 9, 57, -134, -70, -112, 102, 155, 113, 296, 310, 381, 323, 234, 32, 88, 25, 58, 80, 81, 189, 92, 36, -81, 1, 207, -191, -41, -15, 3, 86, -14, -185, -22, 31, 171, 240, 237, 362, 366, 269, 88, 76, 48, 285, 419, 331, 207, 153, 148, 206, 209, 87, -71, 64, 23, 45, 24, 13, 61, -7, 141, -38, -6, -48, 123, 158, 80, 19, -86, -72, 41, 186, 266, 202, 143, 73, 291, 284, 512, 52, 31, 273, -26, 1, 17, -4, -55, 13, 295, 12, 36, 6, -55, -6, -37, -184, -189, -77, -187, -137, -2, 59, 92, 154, 237, 235, 260, 221, -10, -96, 3, 4, 35, -79, -348, -273, -113, 140, 42, -143, -70, -25, -20, 23, -181, -118, -222, -255, -346, -335, -225, -193, 79, 200, 331, 129, -45, -23, -12, -14, -32, 166, -395, -33, -28, 45, -75, -74, -30, -151, -154, 35, 96, 32, -122, -268, -221, -212, -386, -167, 80, 21, -49, 228, 182, 182, 34, 20, 35, -37, 163, 367, 342, -24, 6, -109, -143, 34, -64, 267, 402, 156, -50, -106, -290, -558, -405, -84, 139, -116, -209, 83, 150, 155, 34, 1, 30, -17, 25, 209, 262, 313, 334, 246, 254, 492, 508, 253, 76, 46, -117, -244, -191, -171, -65, -136, -60, -28, 7, 34, 1, -26, -34, 10, -5, -33, -30, -7, 39, 15, -24, -26, 32, 26, -26, 1, -32, -31, 15, 25, -44, -20, -29, -30, -41, 20, -4, -23, 9, -21, 16, -17, -23, -29, -8, -4, -32, 15, 5, 31, 4, -1, -8, -2, -11, -20, -22, 9, 30, -25, -5, 19, -16, -28, 26, 22, -16, -12, 17, -16, -5, 12, -24, -16, 11, -16, -65, 9, -34, 66, 165, 223, -8, -171, 108, 142, 289, 229, 286, 305, 81, 0, -26, 2, 16, -5, -7, 25, -11, 5, 279, 254, 41, 43, 94, 76, -2, 110, 168, -134, -372, -128, 215, 198, 273, 128, 160, 116, 157, 135, 2, 184, 209, 34, -19, 24, -5, -42, 192, -95, 33, 204, 45, -259, -126, -231, -16, 22, 375, 323, -211, -501, -402, -378, -318, -211, -177, -11, -29, -25, 173, -4, -18, -2, -49, 15, -361, -40, 221, 360, 18, -112, -105, -132, 58, 339, 425, 154, -90, -510, -627, -384, -277, -169, -348, -318, 170, -95, -106, -55, -18, -33, 33, -4, -251, 96, 206, 121, -262, 125, -51, -74, 40, -33, -25, -221, -62, -230, -379, -473, -391, -213, -295, -360, -64, 56, -64, -133, -16, 32, -90, -162, 148, 219, 52, -127, -104, 149, 65, -113, 84, 129, 85, -11, 17, 84, 23, -213, -348, -363, -223, -282, -253, -314, -256, 30, -25, 42, -78, 24, 312, 311, -73, 70, -36, -32, -52, -94, 45, 125, 64, 91, 115, 144, 64, -58, -267, -383, -211, -409, -501, -294, -187, 16, -55, 395, 226, 275, -26, 62, 106, -4, -154, -22, -31, 136, 85, -89, -138, 96, 257, 25, -59, -71, -181, -388, -234, -436, -416, -264, -286, -109, -39, 147, 257, -137, 32, 321, 165, -61, -26, -105, -25, 117, 190, -14, -140, -45, 95, 40, -23, 76, -64, -138, -114, -75, -135, 84, -295, -458, -11, 148, 247, -78, 41, 253, 282, 99, 81, 45, 11, -15, 140, -200, -205, -166, 68, 8, -93, 94, 96, -107, -247, 92, -24, -146, -195, -566, -43, 183, 543, 181, 81, -91, 111, -1, 148, -87, -88, -9, 135, 58, -221, -113, 93, 197, 334, 180, 270, 220, -176, 31, -152, -344, -102, -375, -62, 124, 229, 135, -229, -40, -63, -52, -144, -117, -18, 28, 113, 35, -311, -285, 99, 336, 262, 330, 228, 205, 12, 96, -46, -193, -163, -296, 10, -12, 120, 216, -115, -63, -126, 59, 26, -99, 58, 230, 43, 33, -360, -343, 46, 216, 240, 172, 136, 158, 51, 111, -75, -159, -196, -348, -120, -70, 84, 277, 231, -83, -130, 60, 46, -83, 98, 199, 91, -58, -248, -217, 50, 201, 272, 271, 248, 260, -47, 71, 62, -163, -64, -343, -42, -67, 30, 40, 263, -71, -17, 167, -41, 45, 242, 185, -95, -173, -252, -408, -38, 110, 357, 211, 203, 202, 3, -28, -261, -231, -135, -338, 23, 135, -19, 46, -44, 167, 75, 230, 171, 124, 80, 44, -54, -101, -315, -223, 24, 240, 302, 160, 43, 91, -93, 0, -112, -8, -156, -241, 320, 18, -15, 102, -229, 25, -21, 228, -39, -44, -14, 140, -25, -213, -225, -104, 48, 286, 279, 125, -168, -147, -25, 77, -15, 20, 455, 200, 282, 240, -12, 86, -290, 90, -289, -25, 112, 6, -66, -27, -177, -149, -240, -34, 13, 148, 273, 160, -65, -169, 83, 65, -228, -160, 484, 316, 99, 17, 265, -143, -43, 61, -275, 66, 131, 19, -83, -179, -299, -181, -225, -56, -6, -27, 35, -73, 60, -63, -89, -109, -321, -184, 131, 213, 67, -10, 199, -114, -160, -93, 2, 13, 137, -47, -163, -158, -170, 34, -193, -119, -190, -84, -135, -185, -24, -165, -229, -245, -240, 15, -196, 207, -3, -40, 17, -305, -316, -100, 55, -229, -269, -224, -25, -64, -124, 15, -61, -148, -231, -44, -179, -137, 29, -111, -133, -186, -155, 5, -138, 285, 10, -1, -16, -148, -8, 63, -141, -130, -313, -259, 0, -41, -63, 25, 67, 114, -33, 34, -24, 17, -77, -44, -121, -307, -369, -140, 28, 37, 23, -21, 8, -96, 112, 0, -198, -125, -301, -427, -294, -189, -166, 63, 138, 162, 3, -199, -116, -159, -141, 163, 178, -173, -268, -60, 4, -209, 31, -23, 34, 139, 104, 114, -138, -152, -267, -255, -108, -111, -151, -139, -65, -211, -94, -61, -41, -149, -56, 217, 208, 90, -88, 51, 79, 133, 24, -16, -4, 169, 49, -68, -52, 36, -64, -55, 13, -198, 29, -98, -107, 28, -187, -212, -192, -81, 38, 106, 89, -67, -226, -266, 141, 109, 27, -17, 6, 1, 52, 50, 65, 57, -105, -119, 263, 70, -22, -45, -173, -25, -175, -13, -111, 52, 382, 102, 224, 248, 238, 227, 70, -22, 11, 2, -18, 18, 13, 92, 177, -62, -160, -116, 255, 299, 235, 239, 144, 216, -54, -31, 597, 379, 195, 292, 316, 354, 150, -7, -19, 22, -24, -7, 21, -30, 25, -9, -7, 0, -28, -12, -20, -4, 25, -10, -32, -22, -22, 27, -14, -2, -23, 13, 2, 12, -27, -19, -6, 22, 8, 21, -26, 6, -5, 11, -14, 17, 14, 4, -34, 10, 4, -32, -3, -3, 21, -28, 6, -17, -31, 7, -18, -32, -8, 23, 26, 9, -32, 14, -19, -12, -1, -9, -22, 21, 13, -14, 25, 24, 15, -9, -11, 23, -39, 14, 8, -33, 26, -34, 20, 29, -20, 19, -9, -31, -1, 29, 4, 14, 31, -3, 0, -23, -8, -31, -20, 23, -20, -37, 6, -17, -3, 0, 21, 13, 14, 26, -20, -36, 23, 1, -30, -24, -15, -14, 26, -5, -11, 13, -4, 13, -33, -33, 19, 15, -30, -17, 1, -15, -16, -31, -35, -6, -12, 9, -14, 34, -9, -2, -1, -23, 33, -18, -4, -13, -22, -24, -38, -14, -20, 9, -26, -20, 25, 10, 0, 21, -42, 11, -7, 26, -9, 20, 29, 33, -4, 28, -9, 15, -22, -14, 15, 2, 20, -24, 24, 19, 0, -4, -1, 20, 3, 22, -22, -16, -8, -31, 14, -22, 24, -34, -3, 0, 24, 23, -12, 32, 7, -18, -11, 0, 32, -9, -14, -6, -29, -8, 5, -9, 19, -40, -36, 3, 5, 2, 8, -40, 12, 13, 15, -19, -5, 19, -19, 30, -27, 12, 20, -3, 27, -5, -10, 8, 0, 11, 23, -36, 14, -4, 8, 17, -30, 9, -30, -5, 19, -18, -31, -12, -4, -6, -4, 35, 35, 21, 1, -12, 32, -29, -10, 8, 7, 12, -29, 7, 12, 19, -31, -23, 19, 1, 14, -35, -9, 29, -25, 0, -10, 14, -19, -28, 26, -2, 14, -17, -15, 8, -37, 19, -9, 18, -7, 23, 22, -4, -18, 29, -25, -19, -26, 15, -39, -14, -4, -17, -7, -17, 20, -25, -8, 15, -8, -23, -17, -5, -41, -14, 31, -4, 11, 19, -22, -16, 0, -32, -30, -14, -31, 6, -34, -3, -18, -4, 10, -7, 0, 16, 19, 6, -27, -35, 32, 12, 2, -15, -27, 12, -36, 12, 2, -22, -1, -25, -7, -31, -30, 5, -9, 1, -28, 4, 3, -21, -22, -15, -30, -25, -19, -8, -12, -41, -31, 0, 21, 14, 16, -24, -11, -28, -11, 2, -37, -5, -43, -39, -4, 7, 0, -33, 18, 16, -17, -19, -23, 35, -18, 30, 6, -2, -4, 17, -6, -18, 17, -11, 24, 24, -13, 26, 2, 5, 12, 14, 11, 17, -18, -4, 17, 15, 18, -1, 32, -28, -14, 14, 32, 3, -7, -32, 26, -13, 15, -35, -38, -43, -9, -31, 26, -43, 17, 18, -28, 11, 22, 5, 27, 19, 27, -27, -31, 21, 2, 24, 31, -36, 0, -30, -28, -1, -12, -19, 17, -26, -26, -16, -13, 8, -15, 9, 19, 9, -20, 29, 4, 23, 20, -19, 25, -33, -3, 3, -1, -6, -2, 12, -8, -1, -13, -29, -12, 0, -5, 25, -29, -19, -28, -23, -24, -17, 23, 5, -41, 9, -31, 20, 15, 14, -7, -21, -36, -42, 15, 6, -33, 24, -5, -3, -11, 17, -37, -13, 2, -20, 12, -17, -26, -42, -30, 8, 17, 6, -43, -25, 12, 10, 21, -27, 18, -4, -33, 23, 7, 3, 18, 21, -1, -24, -39, -10, 13, -30, 6, 19, -16, 12, 4, -41, -1, -16, 9, 21, -30, 8, -1, 0, 15, -27, -11, -22, 5, 28, -36, -5, -1, 23, -17, -5, -16, -5, -40, 3, 28, -13, 17, -40, 1, 20, -11, -9, 15, -11, -16, 15, -16, -23, -25, -4, 19, 12, -14, -37, 12, -6, -14, -41, 7, 3, 5, -6, 0, 27, 11, -34, 0, -7, 10, 20, 32, 27, 10, 5, 2, -5, 4, -38, -24, -19, -39, 19, 22, 3, -5, -1, 10, -33, 16, -13, -25, -38, -40, -2, -25, -9, 30, 10, -9, 26, 6, -27, 16, -20, 22, -40, 6, -11, -36, 10, -43, -31, 21, 17, -37, -23, -9, 6, 19, -30, 16, 0, -31, 17, 7, -15, 8, -15, 28, 32, -1, -37, -7, 0, -38, 17, -23, 22, 11, 24, 6, -28, -15, 14, 15, -13, -8, 26, -37, -18, -12, 22, 6, 16, -32, 33, 7, 35, 5, 19, -4, -44, -1, 26, -27, -3, -4, -1, -13, -13, 4, -22, 28, -16, -19, 13, 35, 17, 29, -29, -34, 31, -26, 34, 34, 34, 25, -27, -10, 12, 19, 30, -4, -10, 21, 42, 16, 3, 10, -26, 8, -17, -27, 21, 18, 26, 0, 24, -23, -29, -14, -2, -19, -8, 8, -34, -6, 18, -29, 5, -28, 3, -16, -14, 6, 9, 13, 15, -35, -12, 13, 27, 27, -14, 1, -34, 26, 6, 17, -10, 21, -5, 5, 3, -8, 5, -1, -31, -35, 17, -3, 7, 0, 34, -9, 7, -33, 21, 0, -7, 6, -34, -1, 24, 25, -25, -32, 11, -32, 19, 15, -38, 3, -27, -17, -7, -36, -55, 78, 100, 90, -29, 30, 24, 33, -132, -30, -46, -32, -64, -55, -6, 11, 34, 18, 21, -3, 5, 334, 364, -33, -71, -51, -211, -265, -138, -79, -160, -525, -526, -339, -108, -202, -259, -178, -130, -204, -111, -75, 39, 87, -2, -18, 11, -13, 15, 308, 261, 41, 101, 171, 194, 127, 46, -49, -20, 14, -157, -219, -370, -204, 36, 91, 74, 247, -237, -103, 246, 357, 339, 24, -3, -15, -13, 106, -91, -26, 31, 77, -12, 315, -99, -38, 47, 4, -74, 15, -206, -128, -67, -214, -120, -88, -319, -210, 185, 280, 83, -266, 17, 10, -74, -18, -264, -142, -47, -145, 121, 272, -65, -27, -224, -297, -523, -414, -472, -414, -373, -572, -255, -205, -269, -169, -104, -46, 135, -105, -18, -23, 344, -47, -35, -46, 15, -155, -104, -203, -282, -192, -273, -172, -444, -383, -339, -130, -368, -336, -211, 172, 47, -51, 147, 92, 57, -16, 26, 59, 338, -49, 98, 20, -50, -113, -3, -95, -98, -134, -20, 0, -92, -27, -5, -155, -183, -158, -159, -143, 36, 192, 119, -52, 40, -77, 37, 22, -20, 82, 56, 14, -16, 100, 153, -85, 56, 132, 79, 198, 161, 121, 123, -46, -13, 78, 51, -144, -67, 19, 298, -74, -86, 323, 88, 337, 118, 221, 278, -132, 129, 72, 3, -41, 289, 264, 268, 462, 373, 218, 133, 108, 113, 78, -28, -61, 26, -16, 455, 93, -218, 155, 120, 254, 219, 289, 103, -66, 141, 86, 15, 296, 279, 184, 123, 434, 374, 215, 406, 145, 150, 69, 40, -38, 127, -25, 272, 218, 17, -21, 143, 0, 445, 339, 170, 105, 131, -51, 106, 171, 78, 117, 58, 138, 155, 124, 257, 207, 144, 20, -56, -320, 113, 177, 268, -35, 290, 332, 81, 4, 316, 183, 173, 203, 244, 141, 53, 42, 43, 2, -66, -33, -25, -23, 33, 52, 111, -73, -215, -352, 81, 133, -47, -265, 552, 265, -5, -9, 241, -8, -174, 74, 78, 91, -145, -104, -87, -106, 62, 8, -39, -74, -8, -162, -77, -223, -257, -23, 31, -123, 67, -26, 4, -303, 39, 31, 188, -3, -193, -118, 3, -42, -182, -101, -97, -31, -14, -143, -67, 84, -85, -147, 9, -336, -124, 72, 96, 28, 441, 9, -248, -84, 19, -16, -307, -162, -57, 73, 62, 22, -21, -107, 8, 97, -156, -177, -207, -51, -268, -172, 25, -13, -145, -40, -57, 122, 441, -68, -88, -300, 0, -5, -208, -229, -173, 90, -12, 24, 49, -22, 31, -76, -147, -246, -247, -269, -342, -414, -179, 48, -112, -134, -11, 118, 178, -334, -192, 0, 11, -32, -21, 177, -119, 236, 59, -12, 119, 10, 152, 196, -38, -157, 71, -71, -298, -248, -136, -26, -7, -179, 61, 270, 316, -452, -504, 190, 433, -7, 111, -11, -100, 159, 178, 261, 90, -14, -45, 211, 47, -30, 210, -43, -240, -42, -100, 104, 98, -105, 220, 260, -72, -349, -272, -229, -4, 401, 315, 45, -80, 20, 158, 180, 59, -68, -93, -19, 252, 18, 239, 34, -162, -62, -118, 1, -24, -80, -39, 2, 54, -234, -12, -7, -30, 115, 78, -110, -86, 120, 34, 23, 218, -3, -53, -26, 30, -83, 6, -119, -150, -76, -221, -49, -94, -123, 34, 154, 333, 72, -34, -5, 4, -10, -124, -96, -189, -52, -42, -28, -98, 50, 69, -66, -195, -256, -282, -183, -79, 5, 43, -2, -132, 12, 91, 172, 87, 15, -29, 38, 14, -22, -97, -104, -370, -250, -56, -127, 47, 160, 99, -80, 3, -52, -106, -97, 149, 182, 153, -114, -44, 44, 182, 274, 170, 40, -19, -20, -26, 16, -49, 158, -51, -41, -136, -134, -43, -173, -11, -45, 156, 52, -74, -10, 162, 99, 121, -3, 65, 63, 144, 504, 145, -47, -67, 34, 23, 32, -3, 196, 185, 78, -280, -148, -218, -393, -43, -255, 52, 90, -82, 70, 343, 232, 31, 78, 193, 33, 153, 405, 295, -341, -288, 32, 6, -17, -37, 244, 36, 28, -7, 271, -136, -302, 56, 79, 60, -128, -351, -76, 304, 261, 83, 326, 319, 316, 274, 238, 408, -137, -169, -35, -11, -17, 28, 82, -126, -74, -153, -16, 207, 249, -44, 176, 469, 481, 140, 118, 363, 329, 37, 288, 257, 181, 332, 85, -108, 72, 3, 31, -35, 0, 35, 31, 129, 131, 149, 183, 202, 71, 388, 284, 65, 329, 499, -144, 132, 439, 279, 55, 70, 117, -19, 104, 13, 29, 9, 27, 3, 3, 27, 28, 2, 5, -17, -2, -5, -25, -13, 21, 33, 76, 45, 60, -30, 9, -3, -9, -11, -4, -26, 18, -9, 0, -28, 27, 5, -26, 26, -5, -31, 18, -29, -21, -2, 17, -39, -46, -153, 3, 2, -71, -52, -31, 194, 14, 0, -34, -35, 5, 24, -34, 3, -10, -8, 0, 11, 1, 19, -84, -128, -152, 114, 225, 212, 5, 415, 265, 194, 106, 325, 468, 259, -190, -130, -134, -141, -98, 64, 5, -17, 5, -13, -11, 292, 75, -390, 95, 159, 180, 201, -9, 96, -38, -76, 47, -74, 69, 186, 333, 507, 395, 169, -136, 70, 158, 14, 82, -154, -1, 14, 52, 268, 143, 190, 134, 55, 149, 274, 140, 156, 77, 162, 120, 212, 70, 127, -5, -108, 23, 107, 7, -125, -433, -176, 56, 108, -56, 21, 19, 313, -104, 444, 331, 218, 209, 41, 113, 127, 59, -80, -143, -17, 127, 19, -213, -86, 131, 263, 122, -190, -226, 35, 405, 222, -10, -29, 81, -188, 125, 67, 89, 54, 138, 47, 8, -30, -25, -47, 0, 60, 117, 101, 114, 1, -100, 13, -3, -312, -131, -70, 185, 228, 72, 3, -33, -150, 82, 241, -21, -68, -53, 93, -127, -145, -160, 75, 76, -43, 86, 81, -38, -22, -4, 81, -74, -164, -244, -57, -91, -197, 53, -421, -268, -82, 276, 285, -189, -149, -253, -140, -195, 31, 69, 69, 64, -93, -261, -52, 66, 167, 339, 36, 6, -129, -393, -312, -230, 48, -217, -110, -442, 326, 316, 121, -211, -323, -235, -4, 40, 116, 68, -39, -101, -193, -80, 17, 56, 155, 393, 345, 149, -223, -480, -559, 252, 398, 199, -144, -285, 240, 169, -20, -316, -191, 20, 77, -4, 74, 11, -162, -294, 2, 32, 241, 301, 457, 458, 80, -109, -392, -484, -718, -71, 296, 287, -116, -1, -365, -173, 148, -357, -113, 72, -51, 28, 87, 30, -113, -126, 65, 55, 376, 422, 570, 507, 102, -424, -368, -337, -428, 71, 293, -7, -91, -125, -184, -141, 117, -85, -79, -142, -122, 14, -62, 29, -67, 64, 184, 216, 310, 438, 303, 243, -412, -669, -500, -551, -362, -67, -62, -46, 143, -124, -235, 24, 45, -56, 203, -45, -32, 43, -81, 26, 70, 161, 450, 290, 207, 82, 25, -218, -628, -959, -593, -346, -385, -381, 86, 102, -26, -55, -272, -80, 49, -232, 169, 202, 137, -76, -142, 74, -12, 213, 412, 133, 41, -9, -179, -423, -467, -261, -316, -265, -232, -129, 197, 83, -17, 124, 46, -29, 222, -95, 81, -76, 129, 0, -79, 49, -79, 297, 335, 6, 35, -122, -245, -318, -323, -280, 57, 230, 44, -62, -123, 63, 9, 104, 244, -10, -26, -210, 53, 78, -30, 82, -27, 37, -3, 165, 90, -227, -153, -308, -225, -255, -116, 135, 272, 393, 249, 56, 101, 208, 25, 102, 52, 75, -36, -75, -129, 142, 288, 85, -86, -129, -24, 108, -99, -292, -171, -175, -255, -17, -12, 172, 83, 192, 178, -27, 20, 485, -95, 217, 12, 296, -138, 191, 68, 2, 117, 224, 14, -274, -266, 56, 49, -53, -24, -228, -143, 28, -70, 61, 153, 266, 176, 244, 56, 319, 34, -355, -284, 321, -2, 83, -79, -98, -15, 163, -44, -387, -247, 56, 68, 24, 6, -92, 8, 82, 48, 28, 127, 224, -61, 197, 482, 236, 22, -68, -52, 337, 57, 38, -106, -17, 25, -25, 21, -183, -179, -67, -50, -41, 86, 9, -39, 22, 54, -69, 137, 176, 76, 210, 388, 73, 70, 88, 181, 293, 24, -68, 54, 23, 50, 3, 97, -167, -100, -28, -71, 41, 79, -17, -3, -74, -126, -118, 156, 62, -91, 89, 257, -3, 53, 116, 273, 562, 181, 32, 111, 191, 26, -136, -72, -113, -109, 88, -12, -73, -12, -90, 20, -62, 203, 198, 228, -202, -236, 23, -81, 7, 4, 15, 371, 484, 129, 38, -127, 138, 64, -13, -124, -117, -25, 106, -83, 0, 6, 138, 163, 165, 212, 225, 29, 19, -86, 45, 25, 20, -34, 3, 222, 393, 157, 104, 108, -3, 34, -168, -47, 20, -38, -9, -118, 127, 184, 14, 52, 4, 8, 88, -118, 25, -111, 296, 210, 7, 30, 30, 184, -279, -495, -448, -272, -227, 27, -31, -137, -263, 107, 33, 103, 73, 228, 223, -135, 183, 249, -5, -215, -265, -231, 245, 158, -4, 15, 18, 26, 105, 205, -294, -419, -233, -140, 53, 173, 66, -7, -131, 381, 253, 41, 80, -125, -206, 225, 371, -45, 221, 138, -37, -24, 35, -3, -19, -16, 34, 15, -52, -94, -181, -33, 116, 268, 247, -92, -19, 334, 380, 57, -328, -142, 169, 129, 43, -100, -26, 19, 14, 13, -26, 4, 10, 17, -16, 29, -34, -26, -3, 7, 17, 0, -4, 40, -21, 42, 11, -5, 34, 2, 25, -27, 34, 28, -32, 16, 24, -9, -8, 26, 23, 31, -23, 35, -6, 69, 77, 26, 8, 11, -7, -43, -261, -240, -174, 140, 272, 162, 40, 0, 52, 12, 42, 0, 0, -32, 28, -8, -28, 30, -31, -51, -23, 77, 46, 205, 265, 86, -40, 141, -352, -289, -364, -276, 205, 231, -81, -219, -125, -35, 12, -11, 22, 33, 21, 23, 0, 279, 210, -44, 179, 123, -276, -109, -33, 55, 29, -77, -37, -246, -97, -158, -298, -380, -160, -321, -459, -266, 109, 218, 214, -31, 25, 11, 34, 321, 37, -256, 17, -16, 3, 203, 64, 105, -160, -125, -96, -182, -46, 56, 15, -117, -262, -240, -209, -315, -287, 111, 224, 216, 28, 25, -19, 200, 49, 209, -136, -205, 179, 185, -75, -92, 39, 89, 73, 4, -23, 8, -68, 129, 20, -52, 153, 116, 236, 266, 244, 193, -6, -1, 0, -186, 136, -30, -241, -68, 155, 102, 111, -11, -12, -1, 56, 26, 103, 36, -59, -74, -18, 42, 356, 67, 223, -116, 80, 47, 196, 47, 137, 116, 362, 171, -6, 78, 63, 40, -54, -184, -211, -64, 156, 55, 58, -37, -98, -48, -104, 15, 229, 54, 34, -153, 96, -111, 173, -293, 255, -15, 43, 133, 166, 149, 51, -68, -103, -63, -113, -29, 175, 154, -99, -97, -157, -40, 30, 55, 6, -87, 21, -166, 63, 193, -76, 123, -181, -224, 113, -13, 320, -10, -111, -79, -60, 41, -38, 52, 119, 43, 80, 7, -17, 47, -24, -71, -2, -44, 141, -62, 177, 432, 37, 118, -147, -176, 2, -135, 175, 218, -3, 39, 83, 167, 87, -89, -40, 32, 92, 205, 98, 163, 2, -41, -15, -81, 250, 111, 125, 120, 197, 84, 88, -75, 127, 121, 109, 281, 206, 87, 189, 174, 11, -137, -46, 29, 47, -17, 94, 162, 204, 222, -55, -68, -185, -115, -210, 39, -29, -51, 211, -96, -61, 215, 280, 181, 57, 8, 63, -187, -295, -199, -77, -13, 4, 78, 170, 186, 198, 3, -70, -129, -372, -206, -498, -372, 69, -156, 43, -53, -300, 8, -68, 56, 10, 9, 143, -151, -244, -407, -150, 10, 84, 3, 99, 243, 63, -36, -9, 84, -101, -436, -258, 48, 148, -63, 28, -10, -229, -370, -365, 17, -39, -222, -188, -311, -253, -224, -5, -61, -66, -164, 91, 221, 200, -106, -123, -245, -28, -156, -26, 183, 80, -26, -11, -220, -101, -351, -510, -13, -32, -197, -346, -306, -25, -76, 5, 31, 8, 0, 88, -1, 19, -27, -311, -336, -198, 199, 217, -36, 225, 54, 2, -119, -150, -231, -444, -191, -261, -474, -530, -137, 265, 117, 2, 102, -43, 177, 23, -35, -62, -96, -172, -126, 37, 98, 423, 283, 245, -26, 30, 125, -120, -304, -319, -456, -631, -652, -358, 180, 293, 115, 55, 59, 74, 152, 19, -56, 34, -23, -119, -231, -96, -94, 235, -65, 266, 139, -67, 6, 86, 61, -135, -324, -558, -583, -80, 383, 301, 143, 108, -100, 95, -66, 26, 12, -21, -41, -89, -144, -125, 57, 29, -93, -91, -88, 105, -193, -27, -86, -376, -571, -279, -244, 25, 412, 371, 137, 127, 10, -64, -10, 78, -17, 17, 68, -52, -148, -96, -28, -128, -13, -155, 21, 35, -264, -2, -303, -563, -342, 0, 43, -10, 233, 359, 282, 38, -12, -53, 70, 22, 19, -54, 83, 22, -218, -142, -89, 146, -73, -81, -45, -12, -363, -356, -253, -365, -184, -90, -33, -116, 65, 151, 198, 2, -1, -11, 28, 55, 35, 154, -38, -96, -134, 117, 9, -46, 201, -28, -59, -83, 87, -202, -20, -65, -103, 146, 94, 7, -18, 41, 95, 39, 54, 102, 20, 2, 51, 17, 59, 65, 178, 237, 162, -129, -12, -38, -2, 27, -58, -336, -178, -138, 116, 103, 74, 276, -17, -78, 23, 50, 10, 99, 226, 145, 77, 152, 190, 25, 317, 333, 118, 124, -16, -19, -5, -33, -19, -389, -159, -175, 150, -172, -62, -33, -149, -6, -82, -153, -83, 125, 35, -196, -24, 194, -16, -188, 96, 239, 405, 87, 74, -18, -24, -22, -218, 24, -31, -287, 166, -29, -206, -204, -133, -69, -147, -376, -16, 27, -26, 152, 3, -5, 36, -132, -268, -142, 1, 133, 201, 31, -28, -21, 24, -47, -181, -148, -77, 319, 425, 299, 64, -93, -37, 91, 313, -221, -382, -94, 354, 473, 556, 115, 66, 172, -41, -49, 19, 8, -13, -29, -10, -12, 70, 129, 253, 229, 190, 205, 596, 411, 159, 370, 655, 602, 553, 240, 137, 225, 43, -161, -122, 61, 22, -33, 28, -31, 8, 35, 11, -25, 18, -3, 33, 24, -7, 0, 20, -2, 16, -5, -59, -32, -3, -23, 0, 34, -34, 3, 0, 10, -20, -17, -31, 8, -24, 10, -30, 13, -36, 7, -12, -64, 6, 25, 23, -73, -47, 127, 54, -290, -174, -35, 184, -16, 29, 18, -22, -44, -12, -3, -3, -22, 17, -28, 9, -216, -213, 30, 70, 30, 285, 267, -45, -24, -103, -163, 166, 47, 49, 291, 160, -132, -53, 175, 62, -62, -104, -211, 21, 22, 10, 0, -225, -254, -181, 218, 175, 238, 311, 102, 44, 31, -247, 11, 54, 182, 133, -37, -127, -102, -193, 137, 74, 178, 3, -193, -127, 22, -16, -11, -220, -234, 54, 128, 169, 234, 78, -42, -102, -444, -296, -88, -172, -139, 89, 97, -8, 215, 252, 385, 157, -25, -8, -36, 12, 377, 19, -34, -110, 52, 375, -240, 93, 175, -111, -179, -278, -226, -67, -111, -68, -217, -208, -102, 61, 175, 250, 136, -7, 80, 89, 62, 135, 359, 31, 33, 14, 200, 358, 115, 239, 390, 205, 124, -99, -117, -242, -398, -340, -201, -199, -113, -89, 26, 117, 28, 74, 332, 56, 80, 31, 269, -17, -153, -23, 166, 439, 385, 258, 190, 201, -54, -152, -62, -162, -156, -123, -196, -139, -101, -40, -16, 4, 43, 179, 13, 341, 299, 7, 177, -360, 14, 233, 275, 229, 96, -96, -30, -223, -318, -360, -263, -150, 185, 115, -18, -40, -95, -153, -99, -145, -53, -34, -74, 240, 209, 81, -123, -31, -246, 324, 285, 20, -150, -231, -80, -198, -264, -325, -175, 56, 206, 102, 63, -48, -128, -282, 28, -52, 49, 21, -116, -98, -60, -161, -161, 6, -112, 104, 276, 113, 23, -35, -88, -193, -240, -173, 78, 185, -15, -36, -234, -206, -76, -240, -129, -159, -62, -46, -14, -118, -368, -243, -167, -30, -430, -167, -33, -123, -24, 59, -84, -45, 0, -4, -44, 7, -313, -326, -235, 40, -56, -72, -20, -45, -48, -17, -22, -52, -39, -63, -445, 10, -54, -6, -65, -122, -3, 128, 23, -200, -110, 16, -93, -146, -270, -255, -141, 56, 14, -6, 15, 182, 216, -12, 57, -92, -428, -478, -457, 121, 7, -102, -221, -221, -71, 126, 79, 55, 35, -87, -173, -34, 99, 86, 198, 78, 89, 98, 141, -3, 29, -50, -65, -416, -412, -291, -34, -56, -34, -239, -267, -192, 54, 287, 282, 249, 118, -48, 64, 114, 345, 326, 252, 122, -28, 52, -104, -149, -76, -108, -261, -386, 393, -8, -14, -66, 13, 14, 126, 51, -9, 27, 195, 154, -11, 2, -20, 143, 353, 351, 57, 82, -72, -53, -78, -179, -106, -25, -88, -294, 316, 30, 179, -5, 26, -57, 140, -32, 50, 60, 61, 32, -48, -75, -59, 181, 80, 106, 34, -13, 29, 133, 27, -73, 61, 21, 18, -102, 273, 182, -27, 25, -50, 144, 90, 24, -70, -8, 160, 163, -49, -55, -68, 38, 16, 110, 89, 76, 17, 23, -27, -166, 65, -37, 1, -202, -235, -37, 8, -51, 18, 44, 163, 163, -85, 82, 107, 132, 32, -49, -83, 210, 218, 178, 143, 109, -33, -22, -52, -101, -71, -1, 120, 79, -60, -131, 206, 12, -188, -258, 82, 123, 168, -25, -31, -9, -18, -51, 21, -63, 93, 156, 38, 126, 107, 19, -21, -36, 9, 235, 213, 35, 128, 417, 96, 25, -116, -169, 87, 89, 254, -22, -117, -113, -124, -219, -144, -108, 56, 113, 71, 109, -21, 95, 20, 75, 116, 176, 84, -141, -6, 347, -36, 28, 24, -92, 71, -48, -43, -51, -117, 120, -13, -91, -38, -61, 43, 156, -11, 44, 214, 145, 39, 51, 68, 168, 131, 13, -140, -238, -12, 45, 43, -1, 252, 8, -60, -115, -102, -68, -98, 94, 85, -34, -63, -72, -130, -62, 78, -70, 38, 81, 243, 203, 82, 14, -41, -163, 7, 4, 2, 196, 350, 84, -150, -33, -13, -77, -71, 17, 30, -104, -78, 23, -11, -167, -243, -129, 13, 136, 293, 202, 11, -199, -27, -58, 6, 3, -31, 177, 152, 66, -158, 20, -82, 55, 217, -143, -22, -144, -9, 159, 84, 19, -293, -227, 20, 100, 134, 21, -16, -293, 16, 0, -23, 31, 33, 212, -232, -235, -201, -34, -122, 232, 203, 37, 70, 105, 265, 182, 82, 32, -166, -167, -307, -271, -211, -138, -94, -299, 105, 66, -34, 24, 22, 17, -40, -43, -320, -149, 156, 232, 18, -129, -40, 87, 52, 40, 18, -83, -59, -204, -442, -453, -198, -280, 57, 70, -35, -31, 34, 12, 6, -21, -9, -3, -36, 143, 165, 127, 129, 52, 104, 93, 26, 104, 69, -69, -113, -57, 157, 125, -83, -106, -150, 1, 34, 17, -17, -8, 29, -4, 26, 33, -19, -18, 1, 0, -32, 17, -1, -14, -14, 17, 16, 8, 12, -15, 21, -12, -32, -33, -21, -2, 13, -8, 21, -2, 1, 31, -23, 1, 14, -1, 23, 26, -14, -14, -28, -68, -2, 6, -18, 10, -7, -91, -44, -49, -22, -31, -59, -34, -31, 30, -25, -32, -15, -60, 16, -19, -37, -36, -2, -33, -68, -148, -171, -315, -262, -208, -278, -275, -221, -241, -136, -63, -47, -22, 16, 132, 91, -31, -20, 5, -11, -50, 13, -6, 83, 26, -112, -228, -326, -144, -309, -564, -750, -526, -125, -136, 8, -60, 15, 8, 105, 114, 48, 234, 104, 140, 6, -31, 22, 51, 171, 63, -229, -204, -141, -345, -248, -53, -34, 60, 2, -37, -183, -358, -206, -24, 101, 29, -46, -9, 198, 333, 265, 118, -59, 28, 12, -65, -174, 11, -170, -192, -166, -56, 175, 129, 283, 352, 289, 284, -92, -228, -87, -91, -119, 129, 92, -1, 99, 352, 299, 192, -21, 7, -16, 118, -224, -97, -274, -150, -92, 107, 385, 441, 308, 282, 183, 104, 232, 138, 157, 135, -97, -87, 122, -6, 184, 200, 200, 205, 75, 9, -187, 167, -369, -277, -134, 20, -187, 125, 157, 215, 62, 136, 130, 104, 297, 235, 78, 127, -56, -29, 143, -42, -73, -17, 51, 278, 128, -15, -80, 49, 111, -1, -150, 280, -79, 11, -73, 57, 108, 111, 60, 201, 217, 109, 99, 146, 131, 65, 59, 391, 120, 35, 266, 289, 134, -62, -81, 168, 178, -221, -39, 153, -207, 18, -80, -41, 29, 12, 67, 89, -125, -110, 116, 52, -59, -63, 57, 286, 160, 360, 378, 178, -212, -59, -105, 96, 101, -71, 112, 101, -45, 104, -1, -16, -90, -59, 24, -26, -268, -48, 101, 9, -190, 4, 45, 111, 165, 369, 341, 355, -147, -108, -206, -341, -173, 115, 8, 36, 106, 101, -51, -181, -175, -145, 25, -4, -27, 103, 79, -87, -70, 30, 111, 92, 15, 370, 378, 480, -55, -11, -197, -253, 99, 237, 90, 48, 47, -19, -128, -251, -189, -201, 117, 17, -34, 61, -69, -96, 58, 93, 273, 58, 175, 74, -111, 52, -58, -29, -66, -142, 75, 160, 45, -92, 23, -124, -76, -36, -97, -54, 120, 41, 76, -51, -188, -22, -14, 174, 187, 189, -34, -69, -120, -159, -60, 2, -7, -224, -18, -43, -125, -33, 134, 53, -33, -22, -113, -134, 51, -97, 110, -49, -163, -64, -273, -75, -26, 141, 94, -61, 49, -225, -79, -65, 65, -138, -77, 21, -143, -37, 29, 82, 75, -5, -61, -54, -49, -31, 145, 24, -28, -24, -186, -235, -102, -40, 31, 28, -14, -128, -143, -83, 61, 77, -139, 122, -320, -207, -137, 71, 26, 68, -1, -16, 100, -50, -19, -60, 43, 127, -140, -226, -287, -16, -121, -231, -321, -281, -119, 21, 19, 52, -85, -10, -162, -161, -200, 29, -68, 1, 69, -11, 13, -153, -114, 25, 79, 31, -83, -120, -287, -325, -192, -173, -299, 128, -154, 44, -82, 82, -88, -133, -28, -147, -212, -8, -148, 10, 235, -7, -183, -248, -228, -111, 47, 87, 170, 61, -118, -320, -83, -14, -93, 254, -27, -30, 104, 4, 20, -136, 67, -295, -72, 124, -105, 28, 33, 92, -183, -371, -197, -56, 138, 251, 223, 192, 24, -198, -20, 118, -199, 171, 50, -17, 97, 4, -326, -151, -224, -279, -81, 282, -31, 23, -52, -153, -114, -98, -47, -90, -47, 205, 252, 178, 93, -145, -61, 162, 201, -1, 10, 2, -26, -58, -301, 13, -299, -145, -24, 75, -11, -4, -191, -333, -227, 44, 75, -108, -4, 124, 132, 67, 16, -184, -25, 86, -2, 65, 38, -38, 19, -63, -66, -128, -313, -237, -178, -121, -11, 60, -56, -142, -148, 162, 166, 29, 85, 81, -41, -90, -225, -12, 57, 217, 62, 116, 47, -20, 4, 88, 92, -172, -107, -285, -182, 14, 70, 108, 190, 156, 68, 141, 131, 138, 86, 33, -122, -158, -155, 169, 312, 281, 203, 4, 3, 14, 31, -253, -58, -278, -154, -89, 44, 143, 5, 217, 124, 191, 411, 312, 271, 38, -127, 66, -54, -43, -34, 316, 421, 2, -283, -262, 7, -10, -22, 248, 76, -227, -43, 259, 86, 132, 152, 304, 28, 227, 201, -15, 231, -26, -245, -98, 298, 288, 314, 337, 37, 77, -102, -145, -22, -17, -21, -28, 26, -61, 236, 225, 0, 66, 141, 133, 209, 535, 569, 410, 183, 218, 264, 149, 167, 433, 250, 263, 209, 32, 4, -26, -11, 14, -4, -8, -23, -59, -166, 37, 39, 78, -65, -7, 47, 50, -61, -39, 23, 191, -138, 2, 144, -45, -148, 29, -64, -34, 20, 21, 14, -9, 10, 0, -34, 11, -35, -11, 33, -19, 28, -10, 2, 4, 6, 45, 44, -12, 21, -29, -14, -11, -27, 7, 19, 18, -25, -15, 24, 35, -4, -23, -29, -4, -7, 51, 77, 79, 113, 49, 78, 318, 325, -21, -58, 96, 300, 189, 230, 236, 19, 30, 7, 8, -32, 10, -12, 3, 3, 9, 75, 123, 153, 66, 64, 182, 383, 204, 503, 284, 12, 89, 127, 17, 232, 212, 49, 104, 233, 124, 80, 152, 34, -29, 8, 22, 27, -287, -124, 304, 360, 104, 82, 54, 23, 154, 205, 55, -2, -175, -470, 29, 208, 258, 72, -134, 105, -47, 135, 72, -207, -114, -4, 19, 31, -273, -277, 24, 303, 68, 57, 216, 172, 344, 345, -33, -121, -470, -389, 0, -170, -218, -144, -134, -335, -335, -201, -255, -188, -254, 334, -21, 14, -120, 223, 148, -159, -242, -118, -173, 49, 305, 69, -106, -186, -245, -129, -35, -133, -91, 134, 280, -24, -113, 107, 83, 70, 323, 223, -9, 92, 221, 373, 192, 19, -12, -167, 14, -106, -114, -217, -108, -98, -39, 20, 102, 63, -104, 77, 30, -103, -115, 11, 199, 130, 43, 53, 26, 246, 153, 275, 237, -3, -243, -282, -28, -62, -185, -107, -103, -36, 81, 55, -40, 5, 31, -35, -61, -36, -22, 1, -24, -79, 369, 326, 52, -54, -311, 111, 139, 33, 39, 97, 101, 89, 129, -19, -120, -33, 110, -24, -94, 24, -108, -111, 152, 108, 173, -85, -63, 69, 114, 202, -15, 130, -282, 82, 199, 109, 50, 265, 95, 54, 68, -202, -316, -152, -83, -39, 98, 6, 65, -3, 42, -62, 128, -81, 146, 144, -457, -310, -26, 134, 60, 191, 125, 258, 155, 187, -44, -37, -157, -310, -263, -78, -10, 32, 41, 79, -2, -113, -3, -102, 96, -34, 360, 15, -171, -315, 16, 118, -130, 61, 55, 5, -8, -75, -194, -156, -209, -140, -75, 237, 247, 237, -100, -209, -138, -289, -302, -150, -14, -204, -182, -225, -181, 39, 23, -35, -95, -123, 0, -40, -75, -252, -405, -191, -128, -155, 22, 277, 481, 163, -102, -235, -373, -432, -301, -66, 19, -152, -106, -71, 63, 128, 167, -27, -201, -25, 65, 137, 83, -215, -32, -105, 26, 132, 11, 368, 303, 59, -116, -196, -215, -372, -249, -246, -144, -46, 40, 127, 348, 168, 133, -33, -179, 195, 125, 201, -67, -322, -9, 79, 123, 187, 107, 4, 82, -113, -11, -28, -103, -231, -163, -149, -126, -72, 52, -149, 90, 141, 103, 29, -45, 110, 246, 300, -22, -199, -119, 31, -3, 119, 67, -162, -102, -263, 44, -13, 7, -23, -38, -37, -43, 116, 179, -67, 29, 208, 11, 96, 37, 288, 258, 198, -73, -76, -247, -67, 101, 126, 155, -11, -79, -117, -27, 42, 98, 175, -69, 62, 194, 202, 47, 63, 211, 17, 7, 30, 28, 310, 70, 55, -80, -29, -130, -201, 46, -63, -21, -17, -148, 22, -36, 77, 207, 130, 37, 62, 139, -307, -506, -131, -27, -28, -451, 172, 6, 459, -30, -89, 32, 77, 21, -47, 26, -172, -112, -89, -87, 202, 209, 285, 221, 97, -259, -53, -141, -166, -323, 86, -136, 412, 68, -108, -87, 111, -46, 24, -65, -49, -162, -3, 31, -106, -36, 20, 215, 246, 250, 332, 221, -80, -125, -40, 257, 92, -318, 203, 400, 323, 17, -117, -51, 231, -50, -111, -185, 15, -114, 50, -14, -59, 39, 182, 252, 352, 197, 263, 254, -225, -264, 97, 238, 9, -261, 164, 115, 101, 88, 0, 66, 131, -162, -191, -47, 326, 120, -33, -75, 85, 165, 169, 133, 69, 163, 51, 64, -112, -26, 73, -16, 14, -1, 283, 372, -22, 89, 113, 134, 200, -34, 117, 39, 251, 61, 50, 171, 162, 141, 51, -101, -22, -120, -71, -261, -73, -73, 4, -60, -95, -29, 228, 131, 4, 29, -5, 357, 437, 154, 237, 317, 281, 251, 260, 191, 140, 0, -61, -78, -52, -119, -473, -455, -206, -75, 95, 20, 44, -29, 224, 133, -8, 7, -26, -106, 296, 47, 48, 365, 190, 117, 152, -167, -30, 16, -214, -220, -397, -245, -582, -393, -245, -164, -11, -336, -224, 29, 143, 124, 28, -25, -6, 33, -1, -121, -220, -104, -254, -392, 81, -86, 38, 8, -557, -578, -766, -506, -229, -146, -45, 117, -44, -342, -404, -64, 45, 48, 11, -17, -32, 5, -48, -69, -94, -232, -485, -233, -266, -34, -156, -394, -57, -289, -199, 406, 355, 204, -152, -304, 196, 23, -144, -62, 30, -15, 23, 31, 23, 10, 11, 31, -9, -39, -67, -84, -130, -220, -285, -95, -76, -77, -39, -95, -38, -38, -19, -45, -64, -15, 3, 34, 28, -28, 13, -30, 30, -25, -5, 4, 6, 18, 2, -27, -9, 19, 21, -1, -14, 2, -6, -25, -11, -23, 0, -22, -33, -10, -3, -14, 26, 7, -22, 0, -3, 28, -14, 39, -2, 10, 51, 54, 87, 52, 79, 122, 28, 75, 179, 98, -3, 13, 54, 120, 73, 45, 0, -29, 35, 14, 32, 32, 14, 17, 41, 77, -6, -17, 55, -50, 88, -39, -126, 399, 587, 209, -68, 151, 268, 257, 183, 108, 22, 85, 85, 174, 114, -25, 24, 5, 18, 40, 64, -37, -139, -241, -279, -228, 10, -52, 130, 238, 340, 39, -116, -102, -59, 168, -30, -121, 1, 259, 519, 376, -80, -313, 7, 13, 31, 123, 31, -126, -220, -199, 2, 218, 258, -19, -13, 79, -4, -106, -121, -5, 50, 76, -160, -164, -259, -138, -99, -90, -217, -100, 147, 22, 27, 164, -160, -188, -218, -135, 87, 72, -38, 50, -84, -105, -343, -290, -112, 29, -8, 56, 116, 112, 125, -80, -287, -334, -318, -27, 2, -19, 113, -219, -197, -586, -208, 262, 236, 35, -132, -92, 94, -83, -84, -114, -86, -32, 48, 83, 49, 66, 36, -169, -117, -216, -217, 43, -66, 30, 163, -227, -266, -301, -25, 166, -20, -430, -471, -131, -90, 25, 41, 3, -25, 36, 67, 160, 64, -101, 100, 45, -57, -306, -378, -109, 59, 35, 90, -271, -4, 145, 108, 171, -187, -457, -340, -38, -26, 60, 64, 122, 56, 107, 75, -47, 9, 49, -2, 179, 136, -124, -452, -171, 80, 55, 13, 59, 56, 82, 82, 21, -270, -172, 83, 160, 4, -46, 151, 123, 111, -18, -110, -136, -9, 99, -98, 59, 234, 190, -65, -65, -257, 27, 2, 171, 101, -323, -231, -130, -293, 77, 47, 192, 30, -63, 227, 273, 109, 153, 8, 24, -42, 131, -124, 54, 392, 213, -138, -89, -242, -39, 48, -48, -138, -137, -450, -250, 26, -53, -74, 126, 95, 40, 324, 279, -35, -6, 14, 109, 75, -1, -102, 101, 228, 33, -7, 138, 140, -61, -1, -53, -29, -96, -485, 22, 114, -105, 86, -66, 38, -64, 149, 194, -103, -142, -67, -61, -67, -132, 6, 72, 33, -160, -91, 136, 61, 90, 16, -14, -63, -140, -183, 26, -69, -29, 20, -138, -225, -276, 3, 123, -36, -159, -178, -78, -208, -107, -3, 0, -146, -244, -37, 47, 73, 106, -125, -27, -122, -88, -107, -50, 87, 10, 2, -76, -72, -109, -13, 168, 37, -253, -177, -134, -314, -144, 25, -94, -249, -200, -185, 0, 7, 41, -33, -128, -248, -141, -130, -55, 114, 175, 42, -56, 13, -32, -112, -23, -244, -162, -233, -239, -339, -245, -171, -146, -137, -95, -304, -105, 115, -96, 12, 35, -304, -283, -140, -33, 98, 185, 171, 153, -29, -146, -114, -106, -290, 15, -233, -306, -80, -211, -195, -188, -31, -147, -62, 99, 106, 0, 25, -10, -248, -292, -314, -112, 116, 27, -126, -189, -400, -132, -63, -25, -40, 75, 1, -120, 28, -12, -170, -37, 2, -47, 226, 59, -37, 162, 51, -112, -134, -419, -411, -151, 120, 112, 6, -55, -202, -185, -46, -161, 55, 5, 10, -27, -2, 33, -20, -177, -303, -138, -25, -51, -38, 33, 154, -40, -221, -350, -317, -149, -44, 83, 29, -99, -149, 8, 63, -13, 143, -30, 54, -137, 24, 143, 15, -28, -46, 190, 80, 9, -83, -4, 90, -85, 18, -170, -101, -76, -61, -43, 90, -35, -90, 159, 200, 218, 217, -84, 197, 238, 123, 175, 148, 168, 244, 351, 302, -77, 80, 61, -35, -26, 121, 96, -94, 97, 55, 11, 55, 51, 52, 118, 269, 65, -37, -99, 162, 356, 206, 142, -84, 79, 295, 131, 18, 111, -15, 61, 85, 113, 312, 287, 472, 250, 90, 54, 244, 10, -15, 11, 23, -91, 15, -99, 162, 207, -28, -25, -203, 142, 284, -102, -62, -53, 39, -15, -20, 281, 293, 98, 263, 309, 278, 214, 72, -118, -67, -81, -64, -132, 159, 158, 204, 35, -162, 38, -59, 91, 90, -179, -174, 5, -2, -25, 17, 46, 253, 126, 97, 332, 202, 332, 132, 50, -31, 138, -65, 31, 140, -15, 27, 72, -141, 57, 94, -71, -199, -147, 47, 110, -17, -26, 8, -44, -234, -306, -244, 205, 78, 28, 46, 128, -5, 20, 161, 85, 16, 229, 325, 267, 376, 6, -258, -262, -273, -85, 36, 7, -8, 0, 25, -22, -43, -169, -38, 61, 137, 93, -58, -210, -111, -221, 144, 42, -95, 38, 174, 165, -54, -141, -123, 7, 77, -11, -46, -10, -20, 0, -15, -19, 6, -5, -189, -104, -8, 5, -1, -51, -45, -5, 158, 142, 243, 387, 150, -115, -110, -191, -179, -59, -5, -14, 4, 31, -17, -29, -23, -7, -17, 0, 32, 35, -19, -1, -16, -33, -6, 51, 3, 86, 56, 24, 20, 30, 7, -2, -18, -33, 13, 25, 21, 1, 31, -10, 31, 0, -31, -20, 15, 8, 80, 64, 61, 55, -9, 218, 63, -184, 198, 175, 229, 129, 213, 280, 123, 95, 96, -3, 21, -11, 10, -3, -23, 67, -46, -64, 141, 12, 15, 201, 264, 131, 127, -236, -290, -369, -118, 114, 211, 312, 199, 290, 257, 340, 308, 189, 189, 7, 16, -11, 9, 272, 92, -38, 191, 57, -45, 146, 17, 87, -88, -119, -114, -332, -331, -110, 55, 273, 219, 87, 113, 39, 244, 452, 261, 25, -1, 24, 30, 294, 291, 75, 135, 11, 170, 183, 120, 236, 276, 85, -82, -87, -339, -161, -10, 30, -7, -78, -126, -123, -45, 154, 158, 242, 167, -6, -9, 370, 150, 245, 135, -102, -47, -150, 13, 134, 262, 112, -185, -242, -277, -94, -36, 85, 111, 117, -83, -100, -257, 24, 317, 331, 217, -7, 103, 89, -20, -139, -471, -395, -164, 37, 69, 96, 106, 49, -3, 69, 41, -30, 35, 77, -25, -55, -191, -178, 148, 134, 413, 162, 126, -30, 106, 22, -25, -41, -436, -286, -117, 119, -127, -31, 40, 79, 228, 118, -12, -82, -123, -42, -131, -199, -294, -183, -21, 224, 251, -16, 105, -305, 146, -39, -305, -168, -224, 62, 24, 35, -86, 35, 34, 58, 195, -112, -345, -124, -59, -53, -27, -209, -352, -145, -4, 15, -24, 264, 151, -46, -194, -304, -100, -7, -24, 80, -81, 104, 186, 75, 127, 26, 193, -50, -30, 59, 108, -40, -113, -198, -161, 27, -62, -71, 303, 180, -86, -57, -226, -388, 71, 92, 27, 35, -9, 250, 38, 129, -36, 133, 309, 290, -44, -73, -214, -77, -104, -153, -135, -279, -114, 42, 11, 230, 7, -94, -397, -59, 160, 322, 129, 0, 137, 114, -15, -22, 86, 263, 254, 187, -28, -209, -185, -144, -121, -75, -104, -92, 86, 119, 302, 498, -69, -60, -161, -84, 219, 257, 147, -18, 80, -30, -98, -12, 39, -71, 47, 171, -16, -37, 48, -25, -49, 33, -3, -139, -5, 203, -43, 188, -21, 16, -113, -370, 245, 70, 84, -147, -23, -106, -29, -257, -205, -79, 160, 129, -29, -70, -163, -65, 21, 187, 129, -78, -88, 35, -142, 340, 181, 18, -68, -229, 297, -98, -278, -87, 20, -148, -204, -242, -80, -86, 96, 73, -144, -99, -99, -35, -46, 225, 101, -92, -284, -116, 34, 324, 143, 5, 4, -50, 9, -238, -196, 52, -38, -38, -121, -76, -70, -70, 132, 27, -140, -49, -31, -29, 36, 106, 19, -285, -288, -96, 282, 219, 123, -106, 17, 26, 34, -21, -75, 61, -87, -73, 58, 45, -50, -5, 67, 61, -165, -68, -103, 93, 23, -64, -162, -376, -219, 0, 416, 181, 98, -12, 25, 23, 244, 55, 86, 235, 32, 46, -35, -69, -151, 9, 81, 42, 6, -41, 52, 51, 175, 85, -208, -371, -109, 35, 365, 47, 125, 183, 3, -41, 220, 44, 91, 429, 179, 8, -105, 59, -119, 15, 125, 207, 137, 75, 173, -4, 174, -23, -29, -240, 29, 267, 373, 209, 53, -29, -76, -234, -150, -145, 6, 167, 131, 4, 34, 245, -50, 0, 184, 28, 47, 151, 96, -35, 105, 36, 25, 70, 320, 155, 0, 316, -46, 32, -79, -162, -185, -103, 5, 111, 154, -32, 0, 176, -18, -70, 79, -35, 152, -59, -109, -44, -52, 110, 204, 222, 401, 304, 321, -3, -4, 14, 2, -5, -377, -130, -250, 103, 258, -86, 27, 93, 53, -22, 20, -114, -37, -290, -143, 41, -143, -59, 149, 187, 292, 220, -130, -257, 11, 1, 6, 113, 12, 110, -214, 6, 120, -6, 23, 14, -5, -97, -166, -222, -181, -329, -197, -158, -261, 121, 19, 122, 315, 241, -62, -97, -31, 12, 7, 182, 488, 247, 14, -171, 17, 26, -81, -138, -78, -66, -178, -278, -120, -31, -59, -22, -8, 326, 267, 465, 560, 281, 98, 93, -25, 20, -13, -187, 355, -122, -44, 11, -41, -49, -256, -359, -248, -129, -240, -105, -10, 62, -4, 137, 122, 376, 235, 31, 225, -39, 6, -126, -2, -33, 10, 205, -105, -427, -247, -22, 83, 52, -144, -158, -128, 111, 127, 201, 200, 363, 385, 239, 258, 136, -68, -233, -155, -84, -87, 17, -32, -12, -24, 22, 192, -46, -91, 9, 48, 61, -76, 40, 150, 250, 76, 270, 256, 268, 451, 289, -292, -89, 49, -19, 311, 190, -43, 17, 10, -18, 27, -27, 29, -107, -215, -24, 18, 75, -118, -183, 50, 57, -97, 91, 263, 198, -149, -170, -391, -239, -240, -125, -52, -5, 29, 31, 35, 23, -1, 4, -29, 1, -22, -6, 5, 2, -25, 20, -4, -25, -7, 4, 11, 27, -16, -4, -35, 34, 7, -10, 9, 3, -30, 8, -2, -15, -10, -10, -23, -18, -11, -12, -57, -65, -69, -37, -16, -54, -58, -78, -66, -75, -37, -15, -32, -49, -64, 0, -10, -30, -33, -23, 1, 10, -32, -15, -1, 9, -17, -28, -60, -65, -134, -105, -209, -244, -255, -181, -153, -235, 186, 264, 66, 125, -16, -3, -71, -64, -21, 1, 0, 15, 24, 6, -57, -47, 151, 92, 5, -70, -236, -456, -1, 195, 54, -2, -87, 87, 291, 450, -43, -92, -185, -333, -91, -24, -35, 27, -15, -35, 65, -58, 321, 362, 245, 57, -5, 215, 30, 162, 321, 94, 87, 32, 61, -36, -204, 31, -74, -321, -94, -119, -240, -7, 137, -114, -120, -19, 34, -48, 25, 166, 104, -49, -55, 19, 138, -13, -53, -18, -37, -40, 0, 52, -70, 35, -10, -286, -188, -212, -278, 269, 45, -345, -130, 10, -6, -24, -90, -204, -272, -321, -100, 148, 57, -4, 53, 76, 176, 61, -2, 43, 67, 0, -71, -299, -269, 92, -40, 154, 71, -190, 16, 25, 36, 126, -147, -244, -195, -127, -80, 104, -113, 56, 86, 41, 24, 22, -73, 0, 37, -147, 39, -65, -86, -8, -110, 228, 14, 0, -2, -14, -165, 250, 270, 146, 241, -24, 48, 116, -8, -43, -31, -229, -82, -66, 83, -9, 33, 61, 16, 37, -5, -11, -235, -25, -269, -169, 260, -14, -2, 344, 510, 104, -33, 42, 160, -9, 46, -12, -222, -200, -104, 15, 174, -66, 149, 124, 30, -10, -24, 109, -150, -154, -117, -253, 179, -1, -80, 267, 392, -29, 35, -86, 42, 107, -7, -217, -253, -75, 111, 261, 128, -27, 180, 151, -10, -28, 119, 194, -134, -96, 190, 120, 6, -2, -59, -212, -274, -231, -34, -105, 68, 97, -116, -128, -4, 124, 160, 109, -23, 77, 150, 106, -76, 143, 131, 244, -90, 42, 378, 139, 55, -49, 16, -94, -93, -86, -140, 65, 153, -11, -45, 38, -15, -6, 64, 65, 99, 79, -91, 115, -131, 173, 81, 23, 152, 181, 140, 37, 62, -163, 0, -83, -139, -15, 247, 237, 135, -53, -65, 23, -76, 41, -35, -36, 15, 16, 25, 91, -43, 19, 9, 58, 106, 334, -34, -560, -36, -111, 35, -119, -446, -234, 181, 346, 241, -88, 104, 18, 7, 105, 123, 72, 187, -31, 67, 163, -58, -49, 85, 51, -109, -50, -319, -409, 27, -93, 221, 16, -394, -263, -105, -3, -168, -268, -11, 202, 313, 265, 170, 91, 104, 32, 129, 128, -91, -2, 169, 100, -185, -345, -425, 12, 13, 10, 139, -13, -11, -324, -369, -599, -376, -472, -183, 113, 277, 378, 118, 20, 57, 53, 111, 95, -126, -127, -79, 34, -75, -255, -309, -260, -37, 21, 114, 91, -37, -480, -502, -755, -466, -629, -766, -464, -225, -213, -89, -149, -9, -57, 30, 84, -232, -195, -174, -54, 9, -166, 211, 248, 5, -128, 71, 163, 193, -382, -433, -427, -524, -809, -1044, -730, -697, -615, -418, -146, -184, -19, -55, -93, -197, -45, -5, 37, -43, -462, -89, 449, 64, 17, -240, 63, 378, -181, -9, -265, -312, -651, -481, -677, -666, -524, -452, -280, -227, -170, -46, 50, -138, -135, 26, -41, 21, -271, 183, -2, 51, 6, 15, 171, 324, -21, -112, -61, 43, -182, -11, -94, -295, -159, -100, 41, -204, -146, 7, 98, -143, 1, -34, -33, 5, -81, 74, 22, 71, -63, -20, 166, 151, 262, 101, 135, 308, 162, 156, 296, 156, 222, 241, 125, 78, -15, -142, -18, 9, -49, -79, -205, -168, -318, -183, -16, -7, -30, 45, -22, 297, 389, 473, 132, 164, 216, 113, 481, 398, 96, 35, 99, 31, -69, -220, -144, -121, -123, -183, -78, -273, -371, -249, -95, 40, 3, -21, 329, 523, 491, 569, 244, 211, 223, 36, 245, 285, -75, -12, 116, -75, -38, -290, -38, -51, 52, 53, -52, -202, -56, 50, 3, -22, -19, 2, 140, 433, 649, 564, 292, 271, 14, 16, 11, -69, 22, 107, 158, 101, -166, -40, -145, -194, 35, 17, -108, -13, -79, -2, 66, -5, -31, -21, 26, -161, 278, 479, 63, 325, 341, 253, 173, 0, 118, 268, 101, 14, -87, -278, -231, -165, -187, -234, -166, -8, -121, 116, 3, 14, -29, -11, 17, 280, 338, 400, 337, 162, 64, 145, 206, 123, 137, 74, 335, -31, 19, 65, 12, 102, -26, 185, -43, 160, -1, 3, -10, -10, 20, 0, -8, -16, -40, -85, 165, 168, 149, -160, -81, -29, -59, -122, -44, 70, -93, -184, -64, 48, -280, 12, -32, -14, 3, -19, 1, 5, 30, 30, 3, -18, -8, -18, -35, -19, 15, 6, 0, 23, 18, -22, -40, -35, -6, 14, -27, 31, -12, -29, 20, -34, -24, 21, 4, -14, -6, -4, -27, 17, 20, -46, 7, 7, 90, 87, 124, 131, -101, -58, 183, 61, -63, -90, 0, -21, -7, 32, -1, -24, 7, -28, -12, -8, 12, -26, -32, 17, -5, -24, -63, -58, 81, 144, 182, 181, -58, 192, 192, 383, 198, -55, -405, -420, -252, -128, -154, 11, 77, -146, -28, 8, -10, 22, 255, 123, -401, -103, -69, 73, -36, -113, -101, 275, 267, 130, -32, 7, 148, -76, -141, -86, -470, -636, -102, 38, -82, -51, -197, 1, -21, -26, 207, 139, 24, 41, -49, -110, 41, -47, 23, 183, 141, 85, 149, 153, 102, -86, -128, 167, -16, -139, -115, -603, -349, -540, -220, -35, 24, 21, 189, -187, -86, 55, -5, -47, -192, -146, -133, -185, -77, 52, 134, 232, 125, -17, 7, 72, -52, 18, -5, -410, -381, -358, -221, -65, -23, 32, -416, 41, -31, -63, -265, -86, -113, 0, -120, -15, 9, 50, 139, 105, 187, 196, 78, -89, -103, -59, -411, -812, -816, -499, -267, -23, 7, 38, -417, 178, 27, -23, -130, -141, -79, -119, -137, -109, -124, -190, -54, 47, 160, 203, 61, -42, -71, -168, -453, -604, -407, 45, -243, -99, -286, -308, -420, -120, 38, 69, -84, -161, -53, -64, -100, -219, -211, -79, 11, 94, 200, 233, 188, 88, -306, -518, -387, -441, -427, -13, -87, -302, -77, -297, -294, -100, 47, 128, 0, -75, -24, -191, 11, -18, 45, -59, 41, 330, 591, 480, 242, 5, -468, -486, -397, -224, -833, -121, -45, -413, -64, -153, 67, 61, -145, -48, 57, -106, -139, -172, -120, 24, 76, -48, 246, 506, 748, 697, 211, -222, -1004, -788, -361, -200, -434, 207, 410, 145, -57, 157, 93, 154, -183, -68, -70, -125, -64, -129, -64, -76, 25, 9, 193, 347, 559, 303, -69, -698, -759, -169, -159, -39, -38, 306, 298, -281, -29, 88, -23, 327, -134, -87, 73, 113, 37, -60, -56, 28, 30, 1, 50, 181, 328, 14, -417, -646, -433, -262, -310, 0, 448, 324, -366, -290, 119, 32, -178, 344, -138, -25, 104, 37, -45, 30, 44, 125, -3, 54, 58, 195, 287, 23, -26, -385, -249, -325, -241, 126, 109, 218, -151, 324, -47, 39, 11, 365, -131, -5, -55, -19, 23, 45, -57, 54, -3, 74, 130, 171, 172, 9, -216, -173, -270, 22, 89, 195, 7, 310, 435, 150, -48, 3, 260, 9, -119, -243, -83, -182, 78, -13, -119, -75, -172, 66, 235, 330, 293, -131, -364, -103, -35, 80, 151, 163, 48, 180, 387, 344, -24, 45, 245, -226, -67, -245, -127, 72, 129, 198, -190, -95, 30, 107, 207, 153, 124, -215, -345, -113, 44, 4, -34, 123, 102, 131, 403, 365, 7, 34, 130, -219, -49, -72, -134, -115, 81, 154, -127, -91, 41, 85, 128, -113, -155, -339, -222, -66, -27, 56, 46, 71, 94, 309, -31, 338, -453, 147, 32, 48, 49, -19, 113, 60, 156, 133, -45, -123, -127, 205, 75, -146, -128, -332, -188, -109, -31, 80, 178, 141, 328, 223, -213, 447, 61, -102, -108, 323, 108, -31, -38, 104, 77, 122, -206, -248, -207, 37, -4, -80, -39, -225, -240, 22, 149, 110, 174, 128, 131, 295, 164, 250, 24, 25, -45, 206, -120, -195, -5, 244, 15, 31, 16, 40, 27, -142, -11, -4, 112, -175, -53, 39, 217, -14, 44, 48, 141, 312, 405, 24, 44, 52, -89, 213, -216, -123, 128, 127, 154, 92, 148, -109, -125, -185, -56, -64, 54, -86, 69, -58, -125, -122, 80, 34, -25, 89, 399, -8, 83, 87, -145, 165, -30, -22, 164, 122, 211, 33, 61, -59, -237, -145, -56, -78, -31, -30, 70, 9, 80, 204, 283, -347, -276, 90, 261, 26, -32, 13, -84, -103, -167, -166, -254, 99, 58, 104, 36, -108, -73, -57, -157, -24, -20, 268, 206, 81, 99, 349, 104, -406, -435, -17, 301, -35, 24, -7, -72, -19, 116, -15, -43, 50, -41, -18, 127, 10, -100, 50, -10, -75, -63, -30, -39, 105, 134, 320, 158, -4, -283, 360, 314, 31, 31, -24, 33, 21, 220, 40, -256, -168, 186, 160, -326, -250, -125, 11, 214, -37, -215, -107, -227, -249, 102, 52, 71, -114, -428, 217, 199, -12, 26, -24, -25, -40, -20, -264, -217, 210, 91, 268, -26, -297, -367, -522, 109, 103, -103, 25, -13, -97, -453, -293, -278, -130, -7, -14, -27, 6, -24, 33, -9, -2, 24, 26, -21, 11, 23, 148, -30, -266, -23, 13, -69, 365, 502, -123, -26, 219, 203, 60, -76, 17, 30, -15, -17, -23, 8, 29, -27, -33, -19, -10, 8, 10, 20, 7, 9, -24, 7, -42, 0, 35, -8, -12, -17, -22, 28, 27, 8, 19, -23, 14, -7, 3, -25, 5, -10, 15, -15, -31, 1, 1, -8, 15, -37, -100, -43, 12, 260, 282, 132, -106, -26, -45, 18, 48, 12, -26, -15, 33, -16, -34, 7, -31, -32, 142, -62, -23, -138, -170, -295, -524, -210, 144, 42, 136, 56, 201, 315, 263, 413, 344, 292, -114, -12, 123, -35, 12, 34, -19, -20, 4, 204, 405, 454, -9, -20, 214, 569, 167, 37, -237, -21, -182, -113, 217, 105, -10, 135, 92, 176, 7, -260, -59, 279, -236, -79, -26, 15, 17, 235, 397, 49, 28, 8, 259, 424, 210, 130, 89, -58, -57, -47, 150, 114, 105, 19, -9, -70, 143, -29, -66, 161, 51, 199, -13, 5, -11, 288, 311, 1, 82, 224, 415, -10, 106, 125, -34, -195, -156, -48, 39, 100, 132, 161, 153, 61, 24, 126, 213, 116, -26, 64, -63, -21, 89, -310, -121, 49, 106, 26, 149, 57, 54, -94, -128, -12, 75, 118, 83, 112, 108, 18, 70, 18, -74, -142, 75, 189, 234, 232, 32, -19, 143, -221, -121, -132, 135, -124, -161, 137, 73, 20, 43, 42, 40, 178, 87, 67, -8, -108, 139, 186, -136, -232, -72, 33, 228, 97, 96, 0, -71, -236, -166, 121, 80, -69, -210, 149, 122, 121, 134, -1, -58, -127, -23, -102, -65, -97, -26, 77, 48, 177, -61, -2, 220, 42, 94, -108, -33, -506, -246, -61, 40, 89, -97, 192, 26, 100, 253, -5, -175, -84, -34, -62, -160, -247, -262, -91, -14, 356, -50, -191, 178, -29, 0, -58, -96, -225, 78, 33, -31, -2, -26, 150, 100, 165, 194, 90, 56, 203, -17, -50, -134, -147, 35, 17, -87, 29, -317, -394, -205, -61, -57, -97, -200, -209, 160, 66, -169, -295, -427, -249, -128, 84, -91, 175, 113, 135, 165, 193, 45, 136, 32, 33, -59, -191, -352, -362, -316, -89, -15, 28, -144, -299, 185, -330, -154, -573, -553, -336, -146, -11, 92, 29, 103, 262, 176, 76, 83, 18, -30, -116, -218, -246, -255, -465, -50, -4, 7, 124, -34, -268, -52, -530, -246, -439, -199, -236, -174, -203, -39, 122, 220, 256, 124, 252, 164, -3, -62, -121, -36, -297, -180, -248, -19, -164, -150, 29, 35, -137, -82, -464, -742, -330, -266, -325, -270, -282, -87, 91, 89, 185, 121, 218, 108, -19, -21, -16, -85, -75, -209, -230, 143, -82, -125, -12, 87, 120, -270, -120, -620, -422, -478, -508, -553, -385, -243, 0, 160, 117, 119, 92, 124, 148, 80, 194, 32, 108, 42, -193, 145, 130, -64, -95, 43, -25, 127, 37, -191, -144, -340, -400, -538, -445, -606, -355, -190, -96, 11, -187, -2, 310, 152, 159, 40, 108, -17, 86, -222, -9, -72, 29, 79, -184, 170, 178, 70, 31, -182, -123, -188, -420, -571, -568, -421, -287, -88, -302, 79, 110, 249, 188, 187, -102, 55, -8, -456, -38, -82, 59, 105, -43, 553, 316, 179, 249, -3, 83, 39, -184, -161, -374, -307, -64, -200, -82, -50, 65, 241, 200, 131, -103, -156, 180, 69, -393, -93, 105, -192, -204, 461, 253, 422, 396, 172, 160, 138, 166, 12, -53, -179, -211, -163, 65, -32, 173, 69, 62, 42, -97, 140, 308, 342, -130, -126, -13, -64, -258, 130, 322, 327, 243, 18, 72, 257, 180, 35, -85, -17, -37, -155, 12, -45, 85, 3, 101, 1, -73, -50, 109, -246, -38, 77, 41, -74, -162, -145, 45, 276, 112, -5, 46, 139, 229, 168, 3, 105, 78, -125, 0, 8, 102, 3, 101, -153, -233, -265, -167, -219, -72, 5, 32, 48, -96, -4, -51, -138, -257, -209, -149, -191, 86, 58, -44, -119, 68, -146, 83, 133, -43, 26, -135, -198, -183, -59, -184, -3, -95, 15, 23, 11, 297, 410, 201, 60, -215, -281, -175, -181, -32, 113, 96, 25, 44, 25, 100, 86, 229, 23, -100, -251, -319, -88, 165, -71, -20, -15, 9, 0, 112, 373, 94, 23, -96, 8, -72, -77, 72, 144, 77, -166, -152, -347, -13, -155, -337, -380, -403, -265, -308, -118, -115, -34, -79, 24, -1, 3, 28, -244, -80, 294, 233, 187, 181, 200, 176, -26, -170, -56, -116, -190, -416, -639, -698, -601, -101, -8, 8, 191, 110, -45, -35, -8, -32, -18, 28, 183, 32, 121, 48, -203, -223, -288, 94, 114, -154, -461, -231, -166, -310, -490, -308, -366, -225, -94, -54, -16, 12, 35, 1, -1, -32, 34, 34, -4, -8, 16, -28, -59, -195, -246, -343, -308, -381, -299, -45, -236, 4, -15, -288, -301, -267, -29, -33, -20, -14, -25, -1, -9, -1, -1, 33, -27, 30, -1, -33, -33, -1, 8, -20, -24, 22, 28, 6, 1, 1, 28, -18, -2, -30, 33, 16, 27, -26, 1, 6, 3, 24, 11, -26, 10, 13, 13, 15, 31, -29, -8, -53, -46, -11, 19, 192, 297, 122, -19, -15, -5, -19, -10, -23, 30, 26, 16, -18, 25, -35, -5, 4, -54, -15, -21, -74, -71, 117, 55, 206, 112, -146, -375, -151, 46, 271, 272, 444, 310, 293, 113, 63, 121, -34, 31, -8, -12, -17, -6, 296, 257, -5, 20, -63, 104, 486, 173, 204, -63, -18, -76, -38, 125, -66, -74, 98, 171, 312, 55, 106, 312, 391, 19, -16, 15, 20, 56, 314, 363, 49, -111, -86, 205, 355, 287, 320, 106, 134, 139, 196, 309, 326, 215, 235, 226, 77, 129, 1, 46, 254, 244, 327, -24, 5, -27, 261, 344, 90, -164, 85, 379, -85, -97, 42, 100, 9, -52, -33, 58, 215, 268, 182, 194, 175, 98, -71, 46, 197, 355, 381, 27, -17, 87, -6, 201, 22, -38, 185, 279, 37, -49, 57, 121, 131, 37, -5, 119, 134, 126, 33, -101, -145, -86, -209, 123, 226, 371, 229, -18, 23, 187, -99, -5, 27, 31, 40, 44, 138, 29, 146, 217, 204, -20, -57, 15, -66, -165, -155, -98, -94, -133, 86, 139, 149, 436, 50, -92, 9, -42, -336, 110, 275, 98, 38, 51, 130, 60, 201, 119, 3, 71, -89, -124, -74, -244, -20, -39, -17, -152, 191, 67, -81, 186, 159, 27, -149, -43, 114, 60, -165, 159, 143, 70, 209, 1, 9, 40, -89, 42, 41, -44, 85, -5, -86, 45, -119, -41, 95, -64, -636, -90, 450, 37, -83, -117, 194, 196, -115, -58, -11, -74, 79, 10, 84, -57, -55, 0, 37, -137, 154, 58, 152, 153, 267, -10, -122, -105, -616, 71, 206, -38, -151, -113, -156, 54, 167, -441, -358, -299, -340, -373, -104, -46, 248, 149, 83, 140, 245, 152, 234, 73, 141, -154, -321, -408, -106, -103, 36, -157, -118, -149, -182, 324, -158, -539, -454, -323, -463, -390, -107, 193, 102, 235, 369, 164, 47, 113, 53, -9, -60, -191, -353, -205, -148, -186, -103, -95, 90, -53, -181, -1, -380, -536, -599, -387, -288, -462, -493, -77, -27, 120, 222, -31, -64, 16, -138, -104, -48, -197, -160, 41, 154, 115, -137, -58, -56, 14, -104, -221, -404, -709, -537, -352, -331, -386, -497, -283, -204, 10, 81, -34, -161, -45, -137, -107, -37, -105, 36, 92, 260, 211, -113, -106, -145, 66, 99, -102, 112, -316, -212, -247, -210, -209, -311, -391, -190, 164, 214, 70, -62, -171, -123, -94, 80, -199, -46, 187, 263, 293, 44, -48, -100, 109, 245, 173, 113, -107, -5, -121, -162, -140, -230, -452, -178, 75, 258, 173, -135, -26, -17, 0, -11, 12, 55, 282, 284, -38, -142, -6, 24, 92, 213, 134, -42, -66, 49, -71, 53, -123, -273, -198, -220, -30, 82, 79, -155, 116, 89, 83, 26, 42, -111, -30, -222, -297, -184, 45, 119, 104, 124, 310, -185, 166, 167, 37, -74, -115, -58, 94, -265, -153, 25, 67, 128, -29, 7, 210, -50, -123, -349, -266, -275, -110, -314, -167, 41, -211, -173, 93, -45, 121, 186, 95, -47, -50, 29, -61, -189, -166, -89, 13, 57, 7, 36, -1, -146, -121, -220, -224, -386, 126, -87, -134, -9, -61, -109, -88, 45, -14, 169, -23, -161, -61, -74, -63, -144, -39, -86, -103, -99, -29, 151, -63, -6, -35, -84, 36, -166, -217, -80, 69, 40, -37, -60, -188, -32, -36, 198, 119, -77, 0, -25, 71, 2, 70, -54, -37, -37, 37, 227, 59, 20, -118, -42, -58, -241, -185, -136, -27, 21, 115, -29, 96, 25, -252, 48, 150, -23, -114, 90, 160, 20, 24, 55, -108, -16, 158, 172, -43, 90, -50, -39, -99, -140, -67, -152, -51, -1, 20, 227, 402, 125, -89, -204, 204, 259, -3, -13, 52, -22, 129, 30, 124, 168, 127, 140, -23, 100, -156, -137, -232, 46, 11, -96, 15, 26, -17, -249, 257, -208, -210, 190, 142, 105, -13, -256, -182, -26, -114, -65, -135, 181, -136, -20, -146, -156, -93, -134, -246, -164, -108, -217, 26, -8, -26, -2, -206, -322, -4, 198, 12, 25, 17, 110, -156, 173, 325, 189, -60, 152, -51, 17, 271, 282, 144, 11, -399, -178, -45, 21, -30, 26, -10, 22, -59, -207, 63, -14, -451, -355, -30, 237, -19, -79, -190, -348, -494, 25, 62, 157, -3, -22, 21, 29, -30, -33, 11, 28, -21, 7, 26, -29, 0, 20, 8, -31, 26, -26, -146, -351, -275, -282, -285, -139, -395, -212, -308, -282, -263, -293, -26, -41, -1, 8, 1, 4, 0, -33, 26, -32, 6, 26, 8, -24, 1, -28, 30, 35, -2, 27, -11, 95, 67, -15, -34, 9, 30, 32, 23, 22, 11, -16, -22, 30, 21, 27, 29, 32, 18, 3, 44, 22, 17, 16, 43, 8, 31, 24, -45, -147, -90, 109, 167, -6, -14, 18, -25, 57, 67, 17, -29, -20, 6, -9, 8, 51, 124, 156, 33, -44, -33, -53, 131, 237, 192, 85, -193, -188, -124, -169, -36, -173, -247, -59, 213, 213, 149, 80, 79, 15, -1, 0, -20, 311, 256, -55, 60, 134, 142, 168, 160, 122, 264, 97, -97, 39, 55, 93, 169, 300, 171, 139, -38, 79, 283, 241, -31, -192, -13, 5, -16, 300, 176, -119, -96, 117, 91, -27, -44, 64, -76, -155, -158, -24, 12, 55, -2, 43, -60, -122, -88, -34, 46, 87, -120, 53, 188, 6, -4, 406, 50, -14, -241, -268, -137, -324, -230, -101, -94, -194, -169, -156, -11, 66, -62, 14, 60, -111, 120, 60, 219, 225, 312, 220, 129, -2, 126, -117, 138, 70, -31, -193, -275, -317, -45, 127, 76, 15, 5, -43, 59, 75, -127, -187, -106, -177, 72, 119, 121, 6, 168, 39, 159, -33, 149, -65, 169, 237, 33, -17, -46, -40, 188, 352, 228, 123, -117, -108, 4, -25, -221, -193, -109, -3, 17, -21, -97, 215, 234, -100, 149, 181, -35, -71, 249, 383, 87, 13, 87, -46, 95, 284, -76, -198, -138, -76, -31, 103, 28, -56, 3, -46, -164, 49, 35, -77, 49, 48, -9, -12, -214, 163, 146, 206, 101, 29, 85, 101, -17, -168, -393, -209, -77, -18, 16, 281, 186, 8, -42, -29, -170, 112, 299, -207, -116, 119, -131, -68, -235, 63, 172, 126, -2, 103, 10, -41, -189, -223, -261, -68, 53, 49, 45, 119, 154, 5, -53, -103, -18, 107, 249, -207, -340, -6, 45, -151, 187, -169, 26, 185, -65, -55, 14, 3, -268, -217, -75, 71, 85, 137, 58, -32, -65, -116, -65, 113, 68, 67, -174, -207, -164, 59, -294, -107, -97, -225, -127, 122, -121, 43, -51, -147, -196, -74, 16, 101, 93, 95, -52, -11, -7, -118, 41, 166, 71, -40, -274, -33, -108, -277, -341, 107, -23, -243, -96, -31, -87, 36, -217, -52, -100, -201, -31, -108, 21, 44, -79, 22, -17, -7, 75, 264, 169, -43, -256, -187, -258, -93, 79, -74, -29, -136, -80, -258, -55, 18, -148, -51, -236, -257, -143, -38, 42, 49, -76, -15, -61, -124, 60, 214, 267, 44, -167, -68, -143, 156, 45, -46, 115, 6, -98, -226, 71, 81, 13, -212, -212, -121, -74, -83, 139, 123, -60, 17, -146, -119, -181, 63, 1, -60, -26, 5, -162, -2, 209, 17, 41, 60, 0, -111, -68, 10, 218, -127, -93, 21, -21, -61, 106, 65, -109, -153, -134, -173, -97, -82, -16, -68, 132, -82, -28, 25, 252, -4, 76, 41, 34, -49, -126, -144, 72, -184, -309, -252, -109, -4, 194, -47, -248, -102, -225, -174, -28, -68, -95, -26, 141, -213, -59, -137, 314, -161, 177, -5, 106, -115, -60, -50, -78, -63, -118, -39, -13, 33, 184, -114, -115, -18, -115, -21, 69, 81, 28, 61, 149, -16, 32, -180, 194, 11, -146, -37, -64, 12, 173, 10, 21, -76, -166, -39, -5, -14, 272, 20, -86, -100, -30, -5, 112, 106, 69, 213, 148, -240, -76, 273, 124, 34, -105, 236, 117, -33, -30, 38, 141, -150, -312, -166, -93, 18, 229, 190, -18, -160, 2, 227, 136, 209, 147, 102, -107, -238, 79, 151, 10, 61, 28, 408, 235, -41, -113, 49, 114, -62, -279, -239, -116, 53, 190, 101, 7, 100, 134, 207, 200, 17, -139, 133, 250, -139, 187, 217, -18, 11, 120, 259, 49, 53, 162, 177, 200, 30, 34, 0, 45, -22, -75, -74, 62, 89, 73, 118, 170, -168, -248, 59, 291, -47, 97, 0, -28, 24, -19, 233, 126, -177, -18, -80, 143, 144, 150, 74, 44, -91, -111, -142, 89, 112, 25, 7, -184, -378, -212, 179, 333, -133, -38, 39, -31, -18, 33, -166, 215, -92, -194, 43, -13, 75, 64, -114, -103, -204, -135, -1, -71, 55, 81, -57, -324, -258, -49, 173, 123, -57, 90, 40, -23, -6, 1, 3, -271, -110, -82, 65, -134, -14, -19, -51, 35, 317, 345, 217, -95, -41, 340, 60, -244, -114, -156, -188, -47, -150, -28, 58, -33, 0, 6, 28, -154, -111, -88, -59, -83, 193, 146, 229, -73, 23, -38, -136, -188, 189, 339, 304, -79, -67, 212, -5, 95, 42, -58, 32, -15, 30, -23, 31, -34, -90, -209, -29, -1, 2, 11, -194, -73, 29, -162, 103, -10, -53, -147, -398, -162, 0, -30, -75, -9, -15, 26, 15, 12, -21, 17, -7, -14, 11, 20, 15, -2, 17, -14, -5, -22, 39, 30, 1, -22, -3, 3, 23, 24, -26, 21, -28, -6, -29, 13, 15, 6, -15, -18, -14, 14, 19, 7, 24, 100, 48, 69, 126, 250, 398, 330, 93, 78, 228, 392, 242, 157, 76, 68, 62, 77, -2, 35, -25, 3, 4, -24, 33, 16, 152, 164, 130, 170, 269, 502, 347, 527, 35, -123, 190, 405, 276, 400, 420, 76, -143, 5, 9, -4, 99, 25, -33, 22, 27, -30, -225, -118, 358, 260, 347, 286, 133, 366, 259, 86, -159, -3, 104, -63, 121, 0, -119, -134, -124, -39, 314, 425, 276, 32, 33, 0, -24, 28, -213, -377, 147, 282, 235, -6, 107, 203, 140, -41, -69, 57, 291, 116, 137, 18, -200, -153, -248, -318, -226, 20, -15, -62, 420, 399, -35, 20, -118, -159, 429, 85, 12, 38, 153, 62, 17, -183, -124, -115, -18, -80, 73, 11, -166, -103, -347, -369, -51, -33, 49, 328, 581, 371, -11, 13, -253, 15, 166, -47, -76, -141, -235, -139, -109, -98, -85, -45, 65, -7, -84, -81, -53, -144, -421, -280, -185, -164, 96, 505, 146, 276, 1, 68, 67, -68, 104, 50, -189, -82, -82, -92, -122, -160, -73, -43, -136, -152, -106, -63, 59, -53, -138, -90, -194, -359, 204, 280, 26, 270, -12, 199, 27, 220, 252, 155, 68, 67, -13, 65, -54, -107, -81, -74, -251, -271, -179, -60, -92, 88, -49, -321, -212, 53, 83, -124, 142, 143, 39, -235, 342, 351, 206, 162, -9, -17, 40, 80, -64, -71, -193, -211, -25, -106, -11, 21, -61, -80, -141, -331, 148, 146, -128, -330, 231, -120, 17, 14, 210, 162, 114, 21, 61, 8, 181, 90, 80, 42, -46, -63, -35, -96, 29, 9, 57, -99, -109, 202, 76, 211, 71, -60, -62, -153, 39, 279, -47, 89, 141, 151, 118, 144, 215, 80, 132, 192, -147, -62, 294, 49, 4, -23, 173, -59, -59, 119, -111, 7, 203, 340, -325, 223, -16, 118, 45, 147, 116, 30, 68, 183, 191, 8, -31, 21, -40, 1, 403, 67, 63, 28, 41, 89, -3, -3, -74, 45, 470, 208, -25, 288, 74, 194, 139, 226, 263, -2, -40, -98, -6, -200, -296, -288, -149, 210, 320, 65, -13, -92, 214, 336, -8, -66, 164, 269, 427, 269, 195, 257, 3, -6, 243, 383, 158, -123, -92, -222, -333, -611, -461, -262, -85, 284, 278, 31, 40, -102, 68, 136, -93, -86, 265, 199, 30, 35, 251, 127, 6, 6, 269, 40, -235, -218, -150, -298, -544, -446, -162, 234, 251, 479, 262, -22, -50, -195, 0, -11, -134, -162, 38, 168, 187, 299, -108, 241, 51, 4, 328, -149, -210, -102, -112, -182, -467, -282, 212, 345, 431, 349, 182, -131, -61, -9, 42, -1, -26, -34, 99, 314, 249, 160, -124, 325, -16, 24, 137, -207, -221, -239, -33, -146, -309, -67, 208, 214, 322, 178, 27, -154, -23, -18, 37, 85, 241, 51, 96, 37, 4, 326, -107, 514, 10, 26, -11, 210, -178, -246, 2, -21, -149, 40, 139, -69, 92, 46, -105, 4, -29, 188, 262, 137, 69, -1, 13, 46, -70, 150, -78, 258, 73, 4, 241, 70, -74, -457, -261, -201, -134, -39, 50, 49, 60, 232, 107, 124, 26, 217, 187, 9, -51, -74, -42, 58, -150, 187, 286, 204, -10, 0, 147, 128, -222, -267, -344, -177, -54, -106, -5, 190, 255, 385, 146, 170, -38, 231, 270, 60, -38, -68, -76, 10, -96, 318, 148, 65, 33, 36, -50, 2, -65, -167, -89, -65, -25, -2, -152, -85, 165, 379, 201, -34, -155, 44, 16, 142, -74, -70, 15, -10, -276, 159, 387, -11, 42, 34, -52, -111, 6, 39, 41, 5, 16, 172, -50, -97, 42, 98, -91, -233, -225, -29, -11, 165, 14, 35, -75, 125, -178, 35, 126, -9, 29, 8, 6, -127, -135, 63, -81, -193, -249, -114, 103, -8, 55, -39, -3, 12, 207, -85, -245, -32, -129, -183, -66, 104, -323, 47, 263, 28, 24, 19, -20, -72, -321, 17, 24, -273, -382, -564, 43, 0, -39, -119, 87, 24, 163, -153, -112, -201, -416, -257, -152, -74, 157, 281, 280, 3, -29, -27, -10, -27, -44, 78, 117, -135, -393, -426, -28, 68, -212, -209, -73, 93, 235, 222, -124, -344, 6, -153, -197, -74, -5, 95, 162, 19, 0, -12, -27, 8, -149, -138, -80, 152, -109, 12, 197, 57, -237, -208, -185, 49, -173, -228, -128, 164, 300, -126, -35, 0, -37, 29, -1, -12, -6, -23, -31, 21, 39, 86, 52, 24, 84, 178, 238, 8, -84, 288, 438, 451, 445, 121, -35, 276, 321, -38, -54, -14, 22, -17, 26, 23, -21, -16, 30, 0, -30, -2, 25, 21, -3, -34, -22, 34, -27, 10, 10, -21, -23, 0, -25, -30, -14, 22, 1, -25, -18, 17, 13, -32, 6, -3, 10, -33, 27, -8, -22, 12, 18, -6, -13, 52, 44, 42, 13, 56, 68, 20, 26, 28, 13, 23, 5, 16, -26, 22, -4, 12, -11, -28, -10, 346, 375, 6, 7, -10, 0, 33, 130, 114, 52, -122, -1, -28, 7, -59, 21, -72, -146, -137, -121, -73, 4, -10, 5, -15, 6, 33, -52, 378, 233, -180, -151, -144, -25, -29, 63, -199, -92, 1, 90, -53, 164, 244, 133, 22, 49, 208, 16, 194, 96, 326, 144, -9, 6, -21, -23, -45, -108, -101, -202, -105, -251, -325, -424, -133, -40, 12, 63, 204, 168, 317, 338, 31, -122, -92, -14, -35, -248, -105, 88, -291, 18, -35, -167, -148, 220, 208, -26, 23, -30, -215, -240, 5, 78, 126, 85, -47, -163, -84, -84, 104, 16, -106, -63, -336, -277, 117, -177, -204, -2, -80, 219, -46, 86, 58, 190, -20, -221, -1, 49, 130, 40, 150, 29, -85, -95, -63, 68, 166, 177, 311, -14, -190, -359, -9, 156, 39, 14, 67, 180, 84, 236, -50, 190, -4, -167, -2, 91, 39, 157, 123, -102, 185, 159, 346, 328, 260, 214, 315, 69, 129, -223, -384, 173, -92, 275, 3, 261, 16, -10, -42, -42, 7, 22, -186, -51, 27, 95, -107, 12, 115, 309, 456, 426, 269, 320, 196, 45, 319, -238, -413, 215, 32, 60, 205, -177, -170, 129, 132, -29, -69, -23, -109, -7, -61, 73, 66, 26, 81, 171, 147, 84, 131, 264, 138, 73, 94, -136, -43, 142, 94, 109, -5, -109, -158, -102, 258, 123, 123, 41, -12, -42, -66, -60, 56, 57, -58, -213, -43, 0, -172, -12, 35, 151, 159, 198, -28, 136, 108, 55, 458, -15, -141, 7, -146, 33, 217, -7, -49, 39, 82, -60, 20, -58, -529, -340, -51, -71, -43, 159, 41, 104, 309, 259, 116, 360, 51, -1, 117, -104, -164, -30, -195, 138, 43, -15, 156, 184, 137, -46, -244, -565, -357, -148, -7, -21, 208, 87, -98, -9, 195, -34, -162, -30, -32, -30, 21, 61, -211, -76, -155, -49, -117, -107, 76, 335, 140, 1, -287, -410, -113, -57, -99, -30, 78, -23, 51, -2, -10, -153, -71, -64, 1, -29, 58, 174, -261, -147, 52, -104, -132, -196, -161, 118, -17, -89, -45, 56, 177, -172, -198, -163, -21, 6, 207, 200, 25, -157, -271, 163, 60, -25, 1, -7, -365, -116, 42, 0, -50, -138, -19, 34, -56, 14, -17, 23, -31, -271, -223, -235, -137, 68, 79, 5, -50, 119, -123, -108, 234, 46, -45, -137, -379, -168, 76, 42, -48, -12, 133, 128, 177, -13, -87, -215, -266, -142, -59, -210, -235, -203, -215, -137, 8, 131, -34, -114, 243, -31, -112, -22, -251, -2, -22, -52, -136, -50, 179, 180, 149, -133, -268, -193, -191, -77, -31, -197, -194, -208, -269, -187, -21, 248, 9, -36, 36, 111, -85, -42, -277, 19, -103, -104, -147, -40, 89, 207, -8, -220, -326, -316, -262, -140, 52, 65, -242, -139, -124, -9, 41, 137, 174, 59, -65, -69, 159, 157, -223, -152, -128, 37, 77, 228, 330, 262, -60, 46, -45, -123, -186, -175, 13, -70, -57, -241, -209, -26, 54, 79, -111, 24, 24, -9, 203, 159, 38, -394, -82, 34, 102, 304, 165, 137, 139, 175, 168, 16, -136, -91, -1, -70, -54, -209, -87, 8, -26, -65, -116, -202, -84, -73, -8, 56, 141, -239, -233, -77, -52, -33, 45, 239, 179, 123, 108, -81, -9, -109, 61, -51, -134, -377, -261, -77, -162, -101, -111, 362, 20, -74, -83, 94, 90, 102, -55, 56, 77, -3, 136, 61, 39, 91, 53, 13, -150, -101, 42, 49, -258, -281, -315, -69, -138, -130, -221, 200, 10, 20, 13, -275, -103, 188, 182, 259, 170, -151, 30, 96, 30, 102, 124, 14, -127, 68, 203, 14, -152, -268, -258, -129, 14, -54, -252, -173, 17, -10, 27, -32, -107, 200, 261, -11, -103, -124, -133, 318, 217, 347, 176, -173, -123, 85, 131, -21, -33, 41, -144, -159, -112, 98, -99, 6, 25, 33, -21, -215, 339, -109, -235, 35, 4, -174, 18, 222, 253, 210, 26, 42, 259, 359, 126, 25, 151, 269, 308, 73, -131, -115, -16, -46, 18, 5, 18, 35, 312, -249, -251, -266, 145, 282, 291, 168, 147, 95, 488, 561, 255, 258, 20, -63, 133, 23, -34, -43, -112, -84, -7, 15, -8, 8, -30, 4, 32, 106, 116, 248, 158, 136, 139, 383, 387, 187, 445, 444, 244, 253, 6, -112, -16, -41, 11, 18, 71, 23, -6, -24, 29, 28, 22, -4, 31, 14, -3, 20, 2, -19, 32, -30, -15, -20, -40, -19, 14, -27, -29, 7, -33, -2, -7, 28, -14, 7, -19, -35, -30, -22, -33, 32, -15, -12, -36, -28, -34, -36, -50, -37, -1, -42, -25, -5, 1, 8, -38, 14, 12, -6, -43, -7, -24, 3, 26, -13, 22, 27, -3, -12, 1, -47, -7, -3, -32, -16, -106, 54, -177, -302, -312, 45, 63, -146, 149, 241, 61, 94, -16, -60, 20, -38, -33, 33, 17, -4, -13, 72, 44, 12, -113, 15, 10, 19, -144, -60, 176, 284, 86, 42, 135, -13, 8, -103, -221, -207, -324, -373, -307, -71, -55, 14, 20, 9, 30, 73, 333, 330, 20, 116, -56, -89, -133, -63, 123, -95, -97, 68, 47, -185, -56, 326, 266, -56, -5, -64, 88, 56, 237, 285, -10, 0, 1, 39, -67, -12, 327, 191, -112, -59, 38, -137, -198, -260, -111, -119, -100, 60, -32, 100, 136, 130, 2, 51, 169, 190, 427, 375, -45, -29, 97, 279, 115, 68, 21, -88, 67, 125, 6, -74, 21, -46, 147, 48, -2, 73, 105, 86, 142, 176, -51, -29, 66, 224, 314, -81, 19, 47, 162, 188, -80, -265, -312, 41, 135, 48, 78, 43, -60, 2, 91, 131, 142, 202, 202, 126, 270, 343, 53, -217, -299, 176, 203, -121, 52, -16, 32, -177, -215, -71, -67, 124, 0, 101, 62, 54, 108, 142, 139, 171, 274, 99, 60, 246, 67, 29, -55, -130, -559, -326, -113, -119, 96, 75, 11, -126, 63, 41, -166, 166, -35, -56, -42, 42, 96, 217, 187, 96, 1, -231, -123, -8, -151, -106, -136, -72, -592, -259, 184, 114, 263, 74, 30, -52, 291, 163, 178, 99, 11, 21, -37, 67, 31, 90, 43, -38, -52, -231, -199, -220, -185, 23, -82, -135, -316, -3, 316, 293, 295, 120, 70, 77, 89, 242, 290, 110, 129, 15, -85, -181, -128, -157, -83, 28, -6, -77, 52, -37, -247, 105, -34, 169, 15, -64, -35, 229, 91, 157, 132, -65, -58, 413, 329, 63, 158, 97, -122, -166, -221, -188, -90, 83, 47, 10, -111, 71, -279, 14, 0, 213, 315, -354, -372, -72, 41, -142, 32, -15, -75, 352, 243, 59, 94, 1, -65, -40, 95, 84, 34, 157, -88, -39, -36, -81, -319, -95, 39, 52, 183, 142, -274, -500, -28, -28, 81, 139, 16, 165, -96, 67, 88, -54, 0, 42, 138, 237, 164, 104, 30, -38, -68, -7, -212, -27, 36, 188, 328, 28, -321, -445, -57, 6, 84, -13, -237, -230, -399, -193, -181, -96, 31, 226, 243, 255, 165, 39, 37, -45, 15, -1, 5, 142, 143, 218, 169, 12, -400, -60, -42, 14, 130, 125, -163, -454, -468, -431, -343, -75, -19, 259, 266, 265, 258, 54, -7, -78, -4, 88, 46, 137, 14, 43, -74, 89, -474, -482, -86, -32, 91, 139, -47, -524, -485, -395, -404, -367, -541, -329, -168, -98, 24, -46, -26, -180, -52, 16, -90, -54, -82, -66, -59, -113, 104, 73, -98, 227, 88, 179, 183, -193, -255, -81, -425, -591, -670, -560, -636, -573, -267, -106, -193, -130, -72, -52, -91, 94, 66, -58, -333, -510, 272, 290, -11, 41, 185, 47, 388, 150, 95, 47, -259, -395, -360, -480, -527, -384, -214, -141, -117, -69, 106, 76, -40, -64, -233, -368, -264, -393, 120, -45, 14, -31, 71, -160, 161, 176, 144, 125, 36, -46, -73, -32, -146, -113, -160, 28, 66, 116, 180, 81, 25, 7, -217, -244, -248, -35, -77, 10, 27, 5, 26, -138, -170, -7, 65, 161, 190, 103, -16, 155, 81, 191, 146, 126, 109, 159, 49, 1, 41, 93, -131, -496, -345, 28, -171, -39, 3, 9, 49, -252, -245, -81, 11, -3, -13, -13, 17, 168, 160, 49, 53, 75, 98, 89, 70, 14, 12, 11, -352, -498, -346, 149, -184, -131, -1, 34, 24, -29, 166, -135, -178, -320, -313, -130, 28, 204, 173, -29, -16, -33, 2, -21, -143, -102, -115, 5, -212, -265, -105, 89, -43, -71, 14, -31, 25, 0, 232, -4, -182, -277, -161, -85, 51, 207, 90, -57, -8, -214, -156, -398, -206, -200, -59, 68, -44, -127, -151, -269, -152, -49, 12, 1, 30, -33, -174, 171, 224, 182, 309, 290, 135, 155, 46, 155, 13, -145, 4, 42, -42, -110, 203, 82, -45, 55, -92, 82, 16, -25, -9, -9, 16, -19, 9, -62, 131, 191, 182, -143, 75, 87, -33, 24, 296, 373, 109, 237, 418, 466, 609, 447, 153, 141, 162, 21, -13, 9, 31, 23, 27, 2, 31, 25, 124, 58, -15, -41, -57, 140, 158, 197, 141, 260, 4, 328, 258, 298, 337, 6, -66, -15, 25, 0, 20, 23, -18, 12, 31, 19, -23, 1, 33, -12, -21, -28, -22, -4, -26, -32, 19, -10, -28, 15, -17, 28, -2, -28, -9, -25, 16, 10, 4, 8, -32, 12, -12, -28, 25, 30, -12, 97, 89, 14, 56, -11, 14, -43, -3, -129, -139, -123, 34, -20, 8, -73, -8, -10, 23, 20, 13, 0, -1, 22, -12, 7, 27, -53, -33, -28, -80, 93, 88, -130, -162, -400, -162, -224, -259, -99, 41, 155, 44, -158, -233, -186, -3, 49, 45, 32, -25, 3, -22, 187, 186, -19, 37, 65, 28, 167, 190, 111, 49, -101, -276, -454, -172, -500, -571, -213, 65, 60, 204, 307, 46, -50, -155, -33, -8, 6, -15, 212, 151, 132, 12, -90, -32, -62, 136, 206, 36, -164, 48, 53, 66, -35, -43, 12, -85, -3, 233, 309, 119, -131, -41, 259, -18, 6, 12, 212, 233, 168, -131, -60, 240, 186, 13, -124, -66, 0, 105, 50, -79, 200, 47, -128, -145, -44, 184, 178, 12, -166, 208, 503, 271, 31, -14, -304, 309, 120, -172, -45, 0, 10, -67, 3, -115, -108, -174, -125, -343, -261, -84, -15, -2, -86, 13, -124, -148, 124, 287, 277, 375, 25, 247, -199, 227, 149, -131, 21, 108, -135, -241, -170, -463, -234, -175, -203, -321, -99, -12, 63, 47, -130, -21, 86, -106, -52, -27, 303, 362, 76, 440, -80, 205, 43, -121, -113, 82, -146, -267, -305, -257, 14, -43, -84, 40, -33, 7, -1, -26, -45, -89, 79, 110, -18, -306, -10, 281, 85, -26, 187, 282, -67, 145, 155, 120, 60, -20, -32, -32, 201, 222, 232, 213, 128, 98, -13, -85, 9, -129, -15, 285, 87, 100, -73, -42, 30, -25, 140, 233, -151, 215, 401, 155, 116, 44, 297, 222, 353, 510, 280, 263, 95, 58, 108, 155, 189, 65, -132, 12, 75, -20, 88, -99, 71, 298, 166, 255, 197, 369, 312, 234, 54, 120, 192, 187, 171, 13, -7, 112, -50, -46, 136, 202, 145, 2, -261, 108, 61, 65, 537, 54, -70, 232, 125, -42, 43, 160, 107, 298, 251, 197, -67, -218, -168, -634, -350, -232, -172, -15, 71, 119, -54, -170, -169, -39, -173, 97, 516, 49, 8, 97, 147, 70, -76, 51, -8, 28, -41, 11, -146, -224, -499, -506, -294, -345, -144, 65, 154, 0, 37, -135, -45, -168, -253, -270, 362, 153, -33, 25, 170, 206, -57, -379, -347, -348, -263, -451, -319, -432, -344, -221, -129, -159, -145, -107, -106, 100, -9, 66, 27, 142, -297, -246, 224, 78, -2, 79, 195, -87, -333, -682, -469, -398, -589, -501, -501, -204, -52, 77, 118, 40, -147, -293, -179, -70, -5, 59, 156, 296, 140, -147, -149, -74, 0, 33, 195, -223, -537, -732, -649, -501, -489, -339, -206, -27, 68, 238, 78, 99, 36, -68, -7, -94, -75, 141, 147, 307, 69, 68, 91, -87, 6, 44, 308, -251, -561, -458, -359, -225, -56, -155, -23, 63, 61, 378, 183, 157, 246, 77, 148, -10, 68, 133, 31, 106, 16, 280, 61, -41, 363, 104, 196, -211, -232, -117, 75, 122, 75, -47, 54, 38, 259, 211, 111, 354, 139, 28, 99, -172, -44, 0, 38, 6, -150, -128, -28, -45, 41, 349, 431, 8, -15, 40, 74, -20, 161, -141, -276, -111, 36, 208, 241, 242, 66, 71, 82, -60, -189, -164, -1, -77, -220, -212, -19, 7, 6, 27, 383, 327, 102, 132, 272, 241, 234, 171, -7, 59, -35, -30, 178, 200, 56, 143, 260, -59, -167, -89, 29, 230, -24, -89, -64, 16, 24, 47, 378, 310, 380, 331, 293, 153, 253, 191, 185, 139, 90, 66, 164, 247, 94, 232, 314, 154, -138, -89, 117, 167, 50, -121, -12, 3, 46, 99, 188, -150, 178, 251, 191, 250, 154, 199, 158, 107, -35, -54, 29, 142, 88, 233, 257, -46, -130, -151, 23, 127, 80, -20, 288, -16, 10, 11, 70, -35, -145, 55, -10, -39, -78, 18, 90, 199, 96, 94, 129, 193, 215, 263, 158, 72, 26, -9, -109, 340, 122, 234, 261, -20, -22, -11, -54, 177, -172, 73, 50, -289, -201, -78, -76, 134, 142, 177, 182, 65, 0, 352, 265, 182, 235, 33, 245, 317, 342, 107, 44, -34, 11, 20, 0, 6, 73, -16, 320, 177, 38, -173, -274, -121, 237, 232, 147, 68, -239, 133, 219, 335, 269, 279, 313, 166, 136, -33, 28, 24, 4, -15, -21, -35, -411, -260, -116, 141, 12, -218, -143, 80, 34, 161, -305, -354, -408, 24, 164, 422, 207, 72, 32, -34, -62, -4, -10, -13, -20, 14, -6, -34, 136, 280, 277, 89, 161, 169, 19, -103, -61, 265, 157, -133, -116, 270, 91, -5, 4, -168, -158, 64, -31, -8, 1, -3, 23, 20, -8, 12, -17, -34, 33, 17, 7, 20, -32, -20, -9, -12, -9, -6, -23, 11, -7, 11, 23, 12, 31, 9, -5, 28, 8, 22, -29, 5, 9, -23, -3, -2, 13, -17, -41, -52, -30, -7, 3, 8, 11, 29, -13, -10, -43, -58, -44, -23, 6, -30, -15, 0, -2, -28, 7, -8, 7, 27, 15, -57, -13, -71, 45, -43, -161, -224, -279, -315, -311, -5, 119, -95, -137, -177, -75, -38, 17, 38, 26, 18, 16, -8, -1, 34, 0, -5, -7, 126, 225, 295, 370, 87, 3, -140, -275, -232, -64, -144, -376, -531, -267, 50, 88, 79, 64, -36, -25, -29, -42, 14, -16, 10, 8, 293, -75, -232, -171, 71, 65, 24, 123, 104, 52, -190, -241, -219, -68, -171, -17, 330, 179, 98, 71, 132, 217, 98, -19, 29, -24, 17, -55, 155, 188, -215, -54, -13, -14, 69, 105, 176, 5, -93, 172, -56, -23, -33, 101, 81, 308, 189, -230, -447, -17, 176, 88, 29, -34, 26, 199, 204, 1, -294, 114, 57, 60, 237, 281, 240, 193, 437, 269, 322, 112, 177, -27, -511, -144, -101, -661, -493, -191, -98, 114, 113, 1, 15, 12, -86, -52, 53, 146, -93, 199, 64, 253, 252, 287, 582, 457, 304, 54, -164, -148, -258, -101, -29, -353, -617, -439, -244, 85, 141, -15, -27, 12, 145, 69, 26, 53, -73, 27, 50, 121, 136, 200, 238, 158, 19, -45, -49, -27, -92, 55, -10, 145, -156, -177, 69, -10, 88, -62, -81, 151, 54, -251, -89, 2, -106, 112, 218, 76, -11, -61, -52, -55, -36, -48, 248, 135, -129, -111, 42, 207, -48, -57, 310, -64, 114, -18, -186, 131, 101, -355, -73, 48, 0, 161, 156, 85, -148, -159, -93, 35, -50, 244, 388, 243, -62, 47, 43, 103, -20, 4, 262, 115, 74, -116, -140, -191, -54, 9, -67, -91, 52, -19, 102, 7, -125, -22, 141, -99, 136, 302, 205, 131, 90, 146, -118, -134, -5, 106, 334, 149, -150, -77, -199, -112, 103, 58, -183, -42, -1, -135, 53, -62, -64, -88, 48, 15, -74, -48, -13, -36, 142, 158, -82, -229, 51, -88, -151, -93, -157, -11, -152, -172, -31, -106, -160, -273, -44, -164, 9, -48, -126, -68, 37, -39, -145, -184, -267, -136, -66, 96, -8, -194, -146, -104, -219, -172, -68, -10, -115, -214, -63, 18, -269, -145, 63, -112, -191, -198, -74, -115, 22, -122, -28, -142, -265, -167, -352, 85, -5, -156, -196, -104, -42, -269, -84, -54, 33, -59, 4, 47, -186, -10, 57, -25, -142, -120, 55, 59, 7, -33, -6, -84, -173, -106, -222, -67, 42, -61, 32, 67, -96, -215, -80, -107, -3, 34, 168, 246, -309, -99, -42, 12, -78, 80, 180, 131, 31, -107, -155, -136, -253, -101, -199, -135, 10, 232, 76, -93, -85, -211, -48, -1, 11, 14, 346, 267, -256, -317, 54, 131, -30, 98, 143, 143, 105, -86, -120, -194, -78, -212, -220, -265, -39, 33, -17, -63, -50, 13, 210, -10, 0, 24, -22, 225, -39, -191, -189, -62, 41, -6, 178, 221, -242, -326, -112, -36, -105, -209, 22, 24, 44, -13, 23, 122, 62, 635, 47, 12, 153, 54, -90, 39, 13, -300, -95, -214, -235, -160, -106, -1, -422, -329, -90, 86, -27, 67, 24, 61, 120, 77, 125, 32, -25, 517, 98, -6, 77, -6, -157, 36, -77, -194, -99, -170, -301, -290, -362, -375, -344, -215, 15, 69, -49, 70, 103, 277, 188, 77, 151, 206, 190, 450, -51, -14, 61, 58, -105, 241, -100, -39, 54, -174, -415, -259, -279, -435, -385, -138, 78, -36, -29, 24, 93, 269, 68, 46, 253, 401, 207, 277, 9, -1, 51, -39, 162, 259, 230, 248, -39, -138, -211, 8, 24, -29, -234, 95, 43, -68, 50, 48, -116, 206, 130, 228, 269, 417, 151, 206, 31, -17, -16, 4, 279, 11, 177, 312, 188, 92, 31, 240, 453, 318, 98, 210, 167, 115, 96, 155, -64, 319, 250, 220, 383, 277, 270, 131, 12, -20, 24, -100, 215, -11, 95, 347, 538, 331, 320, 382, 373, 347, 217, 305, 398, 259, 39, 66, -5, 242, 157, 212, 300, 92, -274, -317, 8, -20, -8, 304, -156, -376, 237, 548, 411, 340, 203, 570, 198, 299, 149, -106, 208, 298, 139, 135, 322, 223, 144, 0, -210, 75, -121, -207, 29, -20, 14, 26, 11, -215, 324, 350, -44, -95, -72, 417, 430, 414, 320, 156, 50, 217, 331, 197, 23, 205, 89, -87, 1, -19, -3, -4, -33, -2, 11, 13, 30, -38, -100, -98, 2, 20, -257, -336, -308, -221, -182, -82, 240, 329, 73, 118, 13, -89, -106, -125, -172, -26, 35, 14, 12, 19, 2, 9, -25, 26, -8, -30, -14, 15, 22, -24, -32, -34, -10, -8, -31, 0, 21, -19, -21, -2, -9, 27, -14, -2, -9, 16, -25, -1, 11, 7, 4, -3, -9, -77, -57, -48, -34, -11, -38, -115, -238, -152, -81, -115, -82, 14, 24, 0, -58, -57, -40, -35, -22, 16, -34, 28, -7, -36, -17, -18, -58, 31, 9, -8, 31, 312, 393, 198, -239, -166, 55, -232, -218, -156, 12, -35, -68, -82, 5, -9, 11, -17, -26, -22, -15, -27, -7, -27, -148, -346, -105, -33, -54, 251, 307, -24, -275, -397, -540, -487, 6, -12, 12, 108, 176, 38, -159, 122, 100, 49, 24, -25, 46, 56, 108, 126, -73, -20, 143, 44, -54, 315, -1, -66, -357, -765, -778, -658, -601, -241, -276, 122, 237, 419, 167, 6, -49, -101, -96, -31, 14, -54, -72, 278, 506, 265, 159, 182, 375, 116, 5, 8, -186, -221, -125, -186, -326, -341, -280, -54, 84, -102, -74, 16, -225, -349, -92, -18, 101, 28, 109, 205, 264, 117, 190, 340, 451, 7, -47, 93, 48, -18, -143, -132, -46, 2, 75, 196, 148, 4, -269, -188, -328, 61, -313, 4, 310, 89, 312, -46, -144, -158, -5, -4, 129, -80, 27, 290, 59, -203, -365, -251, -81, -51, 55, -27, -87, -90, -85, 35, 101, 139, -297, -54, 47, 179, -1, -103, -270, -305, -25, 43, 64, 75, 132, 186, -128, -197, -168, -146, -46, 87, 43, -30, -131, -106, -148, 56, 172, -211, -109, -10, 349, -1, -86, 23, -106, -53, 101, 52, 23, 72, 315, 257, -77, -91, -139, 114, 157, 64, -53, 77, 32, 90, -95, -2, -216, -185, 219, 14, 292, -60, -167, -78, -45, -67, -42, 80, 103, 3, 148, 43, -157, -335, -192, 80, 163, -48, 39, 68, -36, 95, -95, -104, 5, -117, 191, 129, -368, -93, -173, -227, 33, -110, -45, 142, 49, 71, -99, -146, -397, -330, 10, 227, 162, 23, 121, 162, 26, -26, -206, -240, 138, -470, -47, 90, 104, 78, -251, -178, -146, -89, -16, 59, -118, 114, -100, -195, -17, 150, 429, 256, 181, 261, 252, 185, 142, 154, -76, -237, 130, -384, -37, -34, 68, 47, -178, 20, 10, 28, 133, 33, -116, -55, -170, -63, 133, 351, 358, 246, 196, 249, 253, 220, 316, 153, -73, -165, -183, -617, -86, -109, 60, 28, -153, -89, 99, 34, 142, 134, 129, 16, -45, -34, 106, 355, 294, 188, 152, 312, 475, 357, 109, -26, -152, -178, -53, -451, -36, -112, 217, 187, 152, 121, -110, -197, -112, -1, 82, 197, 36, -71, 76, 279, 310, 1, 299, 306, 343, 114, 108, 51, -280, -378, -85, -8, 76, 83, 148, 126, -26, 273, -13, -180, -3, 46, -19, 93, 78, 110, 81, 227, 240, 40, 53, 113, 170, -36, -78, -186, -431, -345, -294, -181, -22, 11, 90, -31, 14, 92, -294, -385, -378, -283, -205, 32, 64, 14, -41, -73, 57, -158, -173, -14, -111, -215, -164, -319, -196, -322, 108, 210, -69, -71, 123, 8, 268, -232, -688, -557, -314, -347, -401, -384, -84, -100, -128, -152, -70, -34, -21, -160, -276, -410, -334, -442, -544, -347, 38, 263, -36, 16, -48, 118, 368, -219, -408, -153, 13, -217, -240, -287, -25, -221, -286, -219, -24, 84, -73, -156, -225, -362, -370, -560, -548, -424, 41, -64, -7, 30, -24, 17, 332, 158, 69, 266, -1, -183, -60, -39, -111, -293, -243, -77, -21, -20, 71, -92, -272, -476, -242, -288, -325, -307, -234, 5, -12, -14, 41, 181, 424, 344, 412, 309, 31, 63, 181, 158, -187, -170, -160, -354, -247, 56, -62, -201, -159, -499, -330, -344, -206, -54, 52, -284, -37, -43, 54, 349, 224, 241, 399, 293, 120, 194, 182, 179, -49, -199, -170, -201, -161, -6, -116, 39, -173, -373, -272, -222, -194, -34, 192, -157, -20, 5, -26, -191, -264, -123, 31, 300, 305, 21, -35, -46, -51, -216, -91, -78, -171, -220, -75, 116, -48, -170, -49, -244, -162, 181, 311, 105, -25, 33, -2, 216, -50, 120, 238, 177, 225, 18, -46, -61, -97, -294, -139, -188, -238, -75, -101, -34, 7, 180, -113, -134, -64, 3, 34, -123, 0, 19, -3, 49, 194, 637, 663, -76, 25, -67, -246, -447, -365, -309, -142, -173, -350, 41, -29, -32, -155, -1, -118, -166, -158, -204, -20, -77, 32, 9, -2, 26, -128, 233, 342, 465, 351, -254, -150, 9, -93, -63, -122, -208, -172, 16, -147, -153, -36, -15, 196, 100, -72, 90, 65, -16, 26, -20, -26, -19, -9, 66, 104, -24, -185, -178, -80, -193, -233, 0, -60, -385, 145, -171, 51, 221, 105, 70, 229, 224, -30, -4, -21, -1, 23, -22, -7, -2, 3, -20, 0, -7, -29, -22, 4, 23, 9, 119, 109, -8, 5, -20, -23, -24, -4, -26, -7, -3, -30, -1, -17, -26, -33, -31, 13, 16, 33, -2, 6, 113, 124, 156, 133, 236, 63, 159, 32, -183, -141, -27, 150, 273, 298, 288, 96, 103, 88, -14, 6, 8, 24, -11, -19, 19, -159, -130, 227, 142, 152, 164, 131, -76, 165, 339, 372, 537, 473, 184, 309, 541, 367, 87, 99, 120, 164, 128, 113, 0, 9, -2, 24, -254, -145, 520, 90, 238, 159, 29, -30, 65, 183, 227, 184, -3, 133, 168, 153, 117, 15, -253, 301, 207, 119, 15, 106, 28, 7, 27, -2, -265, -202, -112, 49, 124, 51, 131, 104, 174, 113, 81, 30, 69, 101, 238, 371, 188, 78, -201, -279, -384, -228, -241, -131, 71, 31, -2, 0, -168, 204, -50, -4, 118, 122, 154, 86, 162, -33, -20, -188, -51, -118, 117, 72, -225, -175, -454, -454, -469, -520, -330, -5, 208, 32, -27, 19, -330, 39, 173, 336, 277, 125, 228, 122, -58, -69, -264, -431, -178, 0, -39, -149, -342, -402, -332, -320, -187, -104, 10, 216, -206, -131, 29, -5, -135, -88, 88, 451, 86, 278, 243, -133, -111, -228, -365, -401, -190, -84, -99, -261, -295, -249, -130, -95, 12, -166, 93, 211, -38, -88, 188, 7, -3, -44, 125, 231, -11, 197, 11, -38, -50, -175, -379, -462, -262, -120, -97, -190, -308, -240, 188, 68, -120, 210, 186, 230, -230, 130, 19, -153, -48, -218, -153, 30, 55, 247, 177, 45, 50, -6, -292, -498, -331, -141, 161, -174, -207, 99, 261, 148, 160, 284, 249, 176, 197, -6, 53, -67, -51, -112, -102, -210, -116, 232, 339, 88, 80, 7, -250, -294, -351, 67, 147, 11, 21, 347, 357, 289, 31, 214, 616, 341, 300, -113, -15, 319, 45, 257, -112, -82, -90, 21, 211, 158, 177, 129, -170, -256, -153, 122, 251, 10, 15, 70, 175, 333, 37, 131, 448, 215, 28, -40, -19, 21, 75, 454, -211, -64, -83, 18, 88, 106, 295, 190, -14, -64, -67, 150, 161, -35, -89, -77, 83, 293, 204, -174, 161, 257, 284, -115, 119, -23, 88, 237, -199, 45, 27, -101, 70, 95, -1, 170, 39, 130, -51, 33, -96, -145, 63, 6, -37, 76, 104, -34, -22, 285, 466, -23, 29, 2, 3, 236, -84, 276, 90, -121, 110, 87, -53, 101, 160, 237, 77, 61, -25, -42, 15, -98, -129, -183, 38, -105, -210, -129, 92, -80, -14, 13, -63, 172, -65, -42, 47, 173, 299, 83, -100, 49, 186, 249, 198, 0, -21, -97, -106, -54, -29, -173, -93, 11, -100, -38, 48, -55, -50, 33, 87, 56, -168, 1, -127, -39, 163, 129, -88, -177, -133, -7, 58, 113, 238, 93, -97, -26, 70, 2, -102, 225, -13, 121, 37, -245, 27, -26, 264, -40, -163, -26, -92, -253, -94, -66, -200, -219, -169, 0, 128, 126, 233, 160, 180, -20, 81, 0, -20, 21, -101, -61, -244, -291, 0, -23, 133, -94, -41, 130, -183, -18, 87, -83, -134, -192, 19, 284, 93, -31, 63, 184, 124, -294, -151, -52, 14, -56, -76, -140, -169, -122, 66, 15, 24, -187, -30, -139, -109, -80, 171, -82, -71, 90, -111, 140, 49, 102, 4, 175, -3, -300, -98, 77, 118, 28, -124, 21, 79, -132, 29, 6, 80, -289, -319, -284, -130, -5, -28, -74, -6, 124, 68, 218, 118, 130, 23, 17, 31, -196, -96, 160, 83, -258, -105, 129, 128, 80, 30, 36, -151, -110, -238, -299, -68, 97, 45, -60, -28, 152, 173, 281, 227, 107, -52, 164, 6, -94, 197, 319, 104, -43, -56, 133, 268, -15, 39, 2, -142, 14, -35, -17, -72, 17, -46, 16, 0, 12, 72, 195, 147, 53, 9, 207, -50, 40, 79, 196, -31, -86, -82, 56, 323, -20, 15, -22, -24, 52, 82, -78, -219, -355, -243, -403, -500, -476, -38, 95, 90, -3, 142, 60, -131, -51, 154, 309, 260, 46, -109, 200, 255, -33, 0, 25, -111, -109, 69, -28, -630, -602, -448, -449, -298, -187, -270, -128, 278, -44, 65, 68, 27, -13, -32, 133, 214, -107, -107, 86, -1, 9, 12, -4, -90, -7, -175, -262, -329, -385, -430, -515, -286, -186, -414, -121, -19, 86, 138, 191, 204, 66, 96, 97, 118, 228, 82, -125, 7, 27, -8, 0, -22, -29, -71, -289, -437, -488, -382, -469, -576, -243, -56, -244, -611, -634, -204, 74, -51, -191, -246, -329, -483, -282, -165, -12, 1, 6, -16, 20, -33, -17, -20, 45, -70, 11, -79, -138, -417, -343, -186, -13, -163, -117, -26, 189, 88, -126, 14, 2, 7, 166, 8, 32, -28, -12, -11, -15, 4, 35, 3, -4, 9, 9, -13, -25, 3, 25, -21, -70, -101, -62, 7, 0, -2, -28, 0, 19, -32, 0, -20, -9, 26, -8, -33, 29, 6, 5, -13, 14, -88, -140, -116, -118, -72, -141, -384, 41, 251, -371, -187, -100, 8, -217, -239, -4, -71, -100, -33, 25, 4, -15, 13, -17, 40, -367, -406, -208, -32, -41, 162, 224, 234, -155, 173, 144, 377, 121, -202, -139, -24, 74, -40, -9, -139, -240, 20, -21, 35, 32, -2, -4, 9, -404, -516, -200, 46, -42, -193, -101, 290, 379, -132, -210, 143, 252, 280, 195, -227, -32, 57, -4, -31, -6, -30, -221, -261, 12, 28, 0, -44, -422, -179, -279, -44, 42, -151, 42, 146, 55, 405, 353, 93, -94, 175, 182, 139, 199, 228, 339, 380, 51, -47, -113, -332, 84, 32, 25, -203, -308, -258, -234, -79, -180, -300, -249, 61, 34, 169, -23, 32, -292, -344, -265, 136, 165, 69, 81, 145, 275, 349, 171, -246, -189, 14, -27, 73, 71, -250, -294, -144, -151, -253, -285, -266, -72, 154, 165, -51, -413, -585, -312, -20, 95, 133, 95, 297, 155, 59, 200, -277, -233, 29, 105, 30, 57, -329, -153, -26, -43, -246, -198, -158, 206, 299, 281, 64, -281, -391, 0, 359, 251, -26, 59, 241, 72, 79, -12, -232, -180, 451, -208, 109, -34, -120, -109, -214, -168, -468, -287, 25, 59, 132, 230, -11, -428, -386, 150, 201, 74, -118, 78, 111, -205, -190, -129, 90, -33, 94, 51, 201, -188, -201, -107, -403, -300, -321, -271, -170, -104, 18, 95, -72, -634, -279, 85, 251, 133, -13, -59, -224, -362, -258, -422, -44, -38, 91, 72, 179, 139, 22, -78, -515, -420, -194, -184, -126, 12, 32, 87, -170, -622, -246, 354, 328, 124, -226, -118, -241, -244, -311, -215, -57, 72, 56, 141, 32, 209, -128, -29, 12, -87, 44, -68, 6, -11, 101, 53, -231, -696, -146, 411, 279, 42, -426, -165, -357, -175, -171, -277, -139, -28, 33, 112, 144, 193, -279, 155, 118, 111, -11, -59, 34, 154, 299, 172, -635, -600, -12, 257, 191, -81, -282, -265, -139, -43, 287, -294, -159, -22, 17, 101, 95, 233, -4, 156, 115, 75, 144, 85, 58, 223, 203, -136, -653, -321, -91, 201, -7, -233, -287, -159, 18, 52, 40, -90, -257, -64, -57, 102, 19, 100, 61, 356, 116, 99, 118, 241, 202, 226, 129, -291, -432, -238, -67, 123, -174, 0, -130, 22, -40, 25, 2, -214, -204, -43, 32, 97, 299, 202, 89, 93, -136, -17, 36, 120, 184, 158, 72, -1, -61, -120, -82, 109, -1, 24, -98, 54, 71, 100, -308, -464, -295, 81, 80, 40, 282, -31, -9, -18, -120, 51, 113, 83, -53, -25, -45, -18, 24, 88, 28, 46, 76, -85, -152, 117, -59, 23, 99, -284, -265, -216, 1, 72, 341, 61, 108, -46, 60, 253, 115, 92, -64, -147, -73, 10, 52, 30, 73, 97, 187, 66, -12, 160, 57, 4, 171, 137, -49, -345, -459, 6, 172, 253, 191, 148, 117, 355, 209, 74, -276, -263, -25, -6, 58, 35, 206, 44, 166, 144, 82, 151, -67, -39, 89, 238, 58, 85, -3, -150, -81, 442, 252, 232, 130, 120, 58, 9, -146, -124, -164, -27, 105, 80, 60, 6, -65, -5, -62, 161, -77, -74, 54, 328, -141, -20, 18, 53, 49, 451, 152, -63, -35, 96, -41, -153, -167, -180, 56, 20, -21, -92, 115, 12, 40, 283, 206, 54, -152, -27, -164, -51, -169, -13, 0, 49, 77, 451, 141, -107, -275, -159, -119, -201, -185, 38, 81, 61, -51, 23, 64, -13, -77, 268, 446, 115, 229, 109, -103, -189, 296, -7, 30, -7, 43, 151, 82, 136, -41, -221, -220, -174, 53, 250, 74, 27, -37, 87, 34, -85, -11, 323, 232, 352, 99, 137, -198, -141, 158, 36, 24, 8, 42, 192, 381, 101, -122, 5, -143, -257, 117, -3, -32, -121, -45, -103, 20, -161, -64, 95, 31, 244, -182, -175, -46, 18, 35, 5, -16, 20, -17, -67, 154, -95, -140, -118, -149, -315, -144, -155, -72, -7, -146, -17, 238, -28, -202, -192, -119, -272, -396, -265, 330, 275, 117, 31, -24, 31, -218, 24, -141, -125, -89, 113, 136, -167, -12, 177, 175, 49, -247, -21, 214, 5, -98, -248, -382, -249, -442, -268, -50, 120, 121, 10, 9, -21, 32, -7, -85, -99, -235, -336, -370, -271, -166, -104, 20, -189, -178, 18, 81, -75, 22, -123, -190, -22, 199, 117, 6, 3, 17, 32, 1, 21, 30, 16, -7, 5, -9, -13, -31, -27, -428, -410, 151, -149, -247, -372, -301, -79, -74, -39, 43, 136, 126, 51, -30, -19, 17, 17, 32, 13, 30, -3, -14, -18, 22, -12, -22, -20, 13, -6, 49, 49, -39, -26, -6, 14, -15, 10, -1, 32, -27, 11, -28, -1, 12, -8, -12, 12, 27, -26, 7, -7, 85, 83, 88, 95, 94, 49, 223, 323, 72, -40, 251, 231, 184, 180, 184, 149, 54, 65, -11, -14, -24, 6, 14, -30, 58, -75, -110, 83, 88, 106, 39, -84, -202, 46, 48, -237, 29, 42, -100, -21, 113, -83, -62, 186, 270, 149, 156, 90, 31, 19, 9, 10, -228, -195, -168, 148, 54, 169, 146, 13, 183, 241, -398, 22, 125, 18, -8, -99, -71, 199, 77, 178, -73, 263, 45, -226, -215, -22, 29, 8, -238, -253, 343, 123, 143, 285, 424, 507, 330, 150, -162, -384, -456, -262, -49, -184, -220, 3, 59, 33, -35, 51, -92, -326, -398, 171, -32, 12, 