#ifndef QUANTIZED_WEIGHTS_H
#define QUANTIZED_WEIGHTS_H

#include <stdint.h>

__attribute__((section(".rodata"))) const int16_t _Conv1_weight[72] = {
  10585, 12926, -7332, 7155, 2727, 2519, 10819, 5593, -594, -14837, 635, 9051,
  124, 22535, 5023, 18224, 6900, -8128, -2753, 16988, 2129, -5577, 21038, 23669,
  1111, 19902, 5858, 7079, -2625, 2138, 15813, 4336, 12521, 13757, 21104, 14814,
  -27805, -19918, 10951, -11264, 10206, 18145, 20677, 25284, 9150, -57, -7634, -13314,
  426, -3262, -12424, 2062, -4884, -453, 17809, 10939, 19190, -126, 15249, 15115,
  7995, 3146, -6489, 1285, 9537, -6947, 28708, 13281, -10337, 32767, 18127, 4252,
};

__attribute__((section(".rodata"))) const int16_t _Conv1_bias[8] = {
  10598, -691, -2705, -3198, -512, 32767, -4550, -1618,
};

__attribute__((section(".rodata"))) const int16_t _Conv2_weight[1152] = {
  4540, -15019, -4, -4038, -11297, 8712, -5833, 2537, 5740, -4734, -13884, 16352,
  -9216, 2786, 7853, -12520, 8055, 6437, -4273, -14811, 13350, -17059, 2791, 10782,
  -13586, 10413, 6642, -8940, -9583, 5399, -19446, 1609, 5074, -8089, 5297, 2395,
  -15336, -2090, 17995, -12193, 278, 4830, -4947, 10642, 1950, 3242, 4366, -4163,
  4522, -3240, -140, 9013, -9465, -1116, 1676, -18415, 15926, -14009, 2247, 6693,
  -20093, 1544, -164, -899, -24353, 7367, -1463, -7903, 9898, -18048, 1459, 5887,
  -11123, 1896, -1101, -5740, 8118, -2112, -12345, 14175, 2502, -1887, 8154, -4510,
  -2277, 7437, -15402, -1676, -2014, 5406, 4821, 3398, -16867, 11446, 11717, -23951,
  7741, 13806, 3957, -6090, 2050, -13393, 4231, 8042, -15663, -2978, 14304, 6668,
  1164, 2910, -20890, -14, -1191, -16451, -7002, -11468, -1968, -10449, -13334, -2280,
  -18498, -20136, 3607, -15159, -24625, -9382, -3881, 9661, -4164, -2801, 9225, -14982,
  -1219, 13132, 1159, -10308, 7504, 2488, -7903, 18801, -6962, -16342, 8648, 3264,
  -3426, -3410, -4856, -12831, -4404, -1810, 880, -248, 210, -3225, -5312, 10928,
  -7481, 17478, 13833, 11096, 13158, -9477, -14383, 1724, 8463, -9588, 11282, -2023,
  4842, 4401, -11476, -16233, -2612, 9903, -4295, 9648, -1207, 11682, 3121, -12217,
  -13224, 2970, 12476, 5478, 21353, 6983, 11032, 1172, -8381, -9463, -11581, -14208,
  -5022, -24421, -14971, -20591, -20672, -6112, -154, -12518, 910, -12599, 5150, 4428,
  1196, 1078, -9284, 1427, -8130, -1298, -23061, 10693, 4057, 11485, 5476, -13599,
  -3460, -3949, -5711, 1142, 4203, 5611, -1952, 2371, 1581, 7110, -5517, 6838,
  -637, 7286, 6638, -6378, -9451, -17670, -2102, -1468, 1652, -1240, 4960, 5510,
  -5990, 1656, -9930, -5976, 613, 3969, 8598, 8570, 669, 1234, -13522, -4882,
  1391, -5532, 11576, -3744, 858, 1999, -11525, -21319, -8039, -5884, -5234, -1430,
  -7458, -9022, 4130, -2569, -5402, 1347, 2746, -9929, 4212, -2229, 7821, 3746,
  9642, 5972, -3599, -3280, -8870, -162, 10440, 147, -112, 4080, -6531, -3160,
  -8618, 67, 20, -1131, -4528, 2464, 10691, 4035, 5831, -18101, -7744, -11811,
  5433, -6373, -7619, 4633, 2088, 960, -15129, -13194, -11141, -4754, -2451, -8770,
  11890, 11151, 7024, -15420, -12863, -15548, -2864, 461, -3743, 9266, 5480, 11073,
  -4801, -1112, -10634, 5409, 838, -216, 9001, 19, -44, -916, 940, -9988,
  345, -1186, 2300, 1664, -1669, 1984, -2385, 9693, 8051, -7557, -1847, -4031,
  7889, 13917, 12180, -27894, -19312, -14541, 4584, 6042, -2913, 8658, 9270, 11883,
  4644, 6700, -2141, 7972, 9995, -8259, 8299, 3621, -8083, 4050, -2782, -11266,
  1717, 728, -14854, 6584, -12725, -9644, 3443, -3089, -7595, 10423, -408, -9768,
  14492, -14412, -687, 2396, 416, -7993, 1434, -4008, -10889, 10298, -6028, -7265,
  5745, -832, -12836, 5735, -11383, -4304, 10048, -13404, 579, -7706, -3071, -6096,
  -11218, 1158, -659, -10881, 1368, -2503, 10094, 8545, -5286, 8294, 198, 231,
  7557, 1171, -9424, 839, 6732, -1006, 9450, 6386, -15245, 5628, 7027, -19067,
  -10165, -3771, 3515, -5745, 281, -809, 657, 3794, -9464, -9560, 7419, 15525,
  8056, 21468, -9325, 7497, -8369, -7414, -6705, 8371, 5314, 14808, 11982, -11165,
  3121, -9230, -11499, -13662, 921, 4411, 2899, 6190, -5966, 73, -15642, -10056,
  -1260, 14164, 6359, 19833, 16341, -17155, 8008, -10173, -45, -14791, -5050, -7983,
  -13100, -12791, 6328, -11441, -10777, 957, -15173, 3274, 7923, 5081, 7795, -7967,
  4804, -3369, -9188, -25747, -5552, 5893, 1957, 9626, -340, 6499, -4479, -8635,
  -2968, -5282, -6283, 4931, 5275, 8253, -2849, -2744, 2794, 6377, 4513, -7992,
  -3144, 7475, 7344, -4355, -6031, -4873, 1295, 1165, -16068, 2595, 18898, 6329,
  -10596, -1885, -1001, 6708, 8289, -1122, 3746, 10548, 18935, -15730, -17497, 1728,
  4268, 8278, -279, -4137, 4339, 4224, -2978, -11111, -5942, -5416, 1083, 9256,
  -7377, -15329, -8904, 5657, 3678, -2824, -620, -14057, -18122, 7008, 9018, 1392,
  -8516, 6474, 7943, 7579, 5470, -979, -17833, 5804, 11148, -11609, -23847, -12389,
  6174, -2557, 5134, 7640, -4, -4052, -1913, -4453, -41, 3958, 7846, 19662,
  5505, 12364, -12936, -16300, -16032, -3120, 3817, 10299, 12155, -653, 4678, -26341,
  -16756, -14134, 1964, 15566, 9063, 10953, 3271, 8655, -24951, -15678, -16230, 1133,
  5871, 10102, 4653, 2246, 6084, -21498, -10339, 2316, 14644, -3982, 731, -6555,
  -4989, -10276, 8329, -470, 369, 2050, 3673, 9281, 11515, 3105, 12337, -8393,
  -6403, -12195, -16011, 11360, 5754, 2763, 5166, 3530, -7678, -15612, -15908, -8738,
  -20810, 810, 1, -14250, -1015, 2805, -12437, 5434, -444, 6764, 5167, 1591,
  -4340, -804, -4479, -2332, 2441, -5245, 3096, 9224, 299, -104, 8083, -6316,
  -2829, 16689, -4529, 446, 3988, 4999, 4781, 7135, -1888, -8325, 7524, -6008,
  13194, -176, -2253, -2942, -2723, -12622, 2315, 4468, -29578, -10193, -19871, -15055,
  -15748, -16864, -7964, -8918, -19221, -5591, -6632, 7085, 4123, -2873, 3773, 2298,
  -384, 13325, -72, -17784, 6046, -859, -5766, 48, 2696, -13920, 9817, 4722,
  -8946, -794, -7176, -5823, -4593, -5052, -3978, -212, 503, -6831, 1280, 6661,
  14647, 7585, -256, 615, 2158, 9384, 593, 1421, 3472, -1027, -2802, 6601,
  -701, -4533, 12302, -5023, 6815, 1766, 7436, -3463, 7439, -1948, 4888, 13330,
  7912, 1899, 4105, 10811, -6840, -8740, 301, 8195, 135, -8058, -24534, -19827,
  -19936, -32767, -23913, -15086, -24080, -24783, -12978, 8, 4196, 5332, 4745, 8434,
  -6075, 407, 7148, -11396, -3331, 2355, -1261, 91, 1029, -8653, -4609, -1793,
  1022, -1910, -5802, 4853, -4259, -2371, -2271, -983, 3031, 5624, 10688, -12861,
  2926, -741, -5752, -8892, 8705, 12560, 8751, -2863, -16464, 5311, 804, 3469,
  -5036, 7812, 5628, 6448, -4212, -15837, -4440, -4867, 1701, -1739, 870, 1449,
  11889, 10256, -10736, 2661, -11319, -2794, -2851, 8665, 7049, -14530, -6540, 4463,
  -13316, -7209, 1035, -5241, -18984, -13032, 1867, 3427, -7274, -556, -3710, -5437,
  -3339, 6493, 3587, 4135, 4665, -4131, -2636, 6760, 4699, -10457, -2297, 7024,
  -10031, -5451, -4145, -1339, 4985, -340, -9965, -2637, 5203, 2874, 6299, -8578,
  8595, 2127, 5040, -3371, -4514, 373, -3068, -5367, -9400, 7148, 4025, 4472,
  -5453, 179, 4460, 2476, -8610, -7036, 11279, 10394, 10827, -4800, 7516, 5334,
  6377, 3759, -7046, 7101, -159, 7347, -10721, -14289, -8800, -9086, -6863, -978,
  -9957, -19833, -14640, -13292, -21600, -22371, -11172, -3275, -7121, 3456, -2845, -1733,
  3537, 4359, 11119, -7211, -1311, -2843, 2130, 11563, 8599, -5773, -8221, 751,
  1690, 5437, -38, -8838, 1065, -208, -8971, -10033, -1477, 699, 13347, 13568,
  -14388, -6576, -4322, -6221, -4066, 2315, 11935, 15180, 4383, -9618, -2549, 3844,
  -6565, -9621, 5879, 9921, 8447, 7977, -14642, -3915, 10311, -2029, -11180, 4854,
  -2313, 3413, 8696, -17998, -11363, 2688, 9509, 1436, 8167, -7718, -15576, -14235,
  500, -10348, -11932, 4891, -2988, -5552, 10272, 6746, 2951, -7753, 7905, 8847,
  -10468, -6895, 3624, 2866, 19394, 15708, -27268, -6209, -1165, -4171, -12112, -9785,
  3497, -952, 451, -1681, 1268, 7669, 3098, -282, -4714, 1950, -11412, -12303,
  11637, 17017, 16504, 182, -4462, -1037, -6772, -13178, -13818, 3210, 7798, 10092,
  -9880, -1660, -5168, -10592, -8295, -4175, 8638, 8077, 15830, -4159, -10780, -9352,
  3539, -3884, -6971, 12644, 20201, 18556, -6954, -9183, -14934, 317, 3445, 5648,
  -5994, -4080, -5697, 384, -751, 422, 1291, 977, -12813, -4888, 152, 6925,
  6357, 5091, 7814, -4918, -3259, -5163, 3300, 8186, 9655, 6167, -16502, -9095,
  -2888, 3217, -5263, -9805, -10512, -3522, -6441, -118, -5434, 7256, -2198, -6034,
  -7269, -1538, 11566, 13526, 13040, -2751, -2553, -4677, 5222, -6430, 5276, 9349,
  8905, 5312, -9173, 771, -356, -1211, -7908, 1821, 5104, -123, -5992, -7084,
  11232, -6646, -4217, -11657, 6813, 13497, 13254, 5021, -5511, -11759, -15614, -7848,
  -16202, -8289, -18620, -13663, -19520, -18545, -5820, -3260, 3779, -3609, 2422, 7990,
  10062, 8835, 1379, -2962, 5129, -10004, -11724, -4645, 2931, 5817, 6203, -2174,
};

__attribute__((section(".rodata"))) const int16_t _Conv2_bias[16] = {
  -6255, -13509, -27247, -13596, 6905, -10509, -7820, 11064, -10129, -13104, -32767, -21349,
  -8576, -4808, 3139, -5338,
};

__attribute__((section(".rodata"))) const int16_t _Linear1_weight[25088] = {
  8091, 3100, 423, -1060, -1300, -13135, -1843, -537, 150, -3356, -8280, -9173,
  -19524, -12926, -286, 2428, 1692, -627, 2173, -7051, -522, 205, 5230, 2815,
  3680, -9648, 374, 6840, -2214, -601, -5390, -6818, 814, 9604, 6186, 1010,
  -711, -1458, 448, 2738, -1402, -819, 1524, -1839, 4629, 6520, 5607, -876,
  4205, 700, 4595, 5636, 6103, 3325, 6446, -4150, -2765, -6349, -15516, -9036,
  -759, 10224, 6449, 3437, -3480, -10067, -4500, -3685, 8406, 7198, 5349, 9517,
  2304, -5702, -1586, 2989, 5153, 3691, 6586, 2255, -3523, -28, 3021, 5192,
  551, 6067, -4024, 377, -1222, 2432, 4602, 885, 1056, 3539, 9295, 3931,
  8029, -7063, -636, 6711, 3205, 1624, 1973, 2418, 5095, 6038, 3041, 3041,
  711, -7986, -11991, -10315, 2283, 4484, 6126, 6579, 5384, -3172, -8397, -5360,
  2403, -5582, 10140, 1479, 2093, -2479, -7604, -7392, -5352, 962, -1033, -3827,
  -4459, -1236, -2603, 4770, -657, 2086, -854, -1472, 10006, 2712, 3039, -1958,
  2281, -10894, 568, -1291, 1533, 2578, 3067, 1795, -3702, -595, 2994, 7881,
  6846, 738, -1273, -10711, -1482, 4569, 11681, 6071, 3397, 2140, -5400, -2670,
  -4739, -6208, -2119, 6420, 3055, 2979, -2309, -11057, -1949, -20, -247, 4156,
  267, -4359, -1979, 1285, 520, -205, 4234, -2057, -5798, 1978, -2129, -3574,
  -1518, -2620, -416, -1671, 2185, 1638, -377, 3875, 1340, 3319, 449, -4125,
  -657, 2014, 2040, 3256, -1561, -408, -926, -1651, -1268, -3889, 416, -4150,
  -705, 373, -9885, -11002, 3594, 5855, -1753, -649, -6734, -2814, 1892, 349,
  -4437, -18007, 141, 4943, 5642, 6781, 4546, 4958, -12728, 3428, 120, -113,
  -8416, -3585, 8852, 4424, 918, 1851, 931, -450, 2123, -211, -2356, -1543,
  70, -4855, -16216, -8374, 3024, -1125, 1137, -2993, -751, 3836, -5420, -451,
  336, 4277, -1289, 17527, 7193, -9510, -175, 2905, 5859, 2083, 5608, -12618,
  969, -386, 5607, 2148, 609, -14254, -7162, 3479, 317, 2950, -2281, -1637,
  -2532, 130, 2085, 1818, 4958, -673, -613, 4172, 7778, -4171, -4060, -6883,
  -3665, 1795, 3329, 8705, 1582, -7595, -8997, -5178, 4976, 5842, 10106, 9675,
  9077, -4225, -13227, 1862, 2786, -2409, 598, 3710, 4136, 1237, -8050, -8829,
  -13339, 2522, 2872, -574, -458, -1704, -1691, -1552, 958, 2431, 1898, 1820,
  -3408, 269, 238, 2870, -4214, -1958, -3655, 5256, 2503, 5009, 11364, 12890,
  68, 993, -1597, 882, -3138, 3843, 7271, 7112, -8052, -3180, -6875, -1290,
  -232, -9544, -3194, -7190, 1892, 263, 2881, 2669, 2891, -4362, 3072, 3459,
  2773, 5629, 1573, -879, -4852, -4301, -922, 2215, -1048, -2527, -5440, -4504,
  2715, 7066, 5753, -329, -2868, 1636, -895, 664, 1162, 1262, -8157, -3039,
  3995, 6116, 3015, -1743, 37, 4469, -4581, 3556, -5647, -5673, 3942, 3993,
  3588, -125, 2619, -2464, -4219, 5874, -9247, -5085, 4983, 10636, 2807, 3208,
  -9384, -10270, -2040, 1063, -580, 1950, 727, 367, 2946, 3091, 420, 2857,
  -2048, -157, -5564, -681, -1356, -2134, -3257, 402, 672, -374, 8559, 4595,
  -2408, -3108, -1282, -632, 1074, 537, -3286, -3797, -4615, 271, -791, 1475,
  1065, -4039, -2292, -4224, -4688, 1392, 4494, -263, -1485, 6746, 2520, 2466,
  3539, 4285, -794, -3426, -2928, 4065, -4586, 1190, -2854, -2754, -1170, -631,
  3315, -4041, -1905, 2403, -611, 5019, 8999, 6489, 2890, -2695, -113, 3271,
  1699, 2621, 2254, -2877, -2698, 535, -322, -4180, 3635, 2400, 3084, -4833,
  -2518, -2802, 1625, 9260, 2405, -2772, -3398, -3037, 729, -3013, 9536, 6221,
  2946, 1281, 617, -381, -4527, 892, -507, -2889, -2263, -5598, -8067, -7385,
  -2390, 798, 2834, -2561, 5049, 1407, 1719, 3249, -873, -847, -1674, 4485,
  -2981, -1224, 74, 1735, -3258, -4762, 295, 1653, 9256, 2321, -2302, 4386,
  -6048, 281, 187, 3644, 10451, 11199, 1370, -3971, -2298, -1530, -3170, 603,
  3888, -1599, 7543, -4697, 5487, 1001, 3015, -4827, 2678, -644, 7757, -1125,
  4300, -1390, -258, 2472, 3716, 7152, 976, -2314, -2193, -1790, 4767, -978,
  2985, 4345, 2048, 2920, -2299, 3186, 778, -4123, -2355, -1858, 4808, 815,
  646, 681, -1102, -3099, -1147, 1145, -2654, 2496, -8662, -2729, -4926, -63,
  1698, 815, 4411, -4225, 2762, 6129, 2393, -1593, -6451, -4588, -4308, 217,
  1144, -439, 308, 2392, -2472, -545, 7925, 11333, 7610, 1634, 1109, 42,
  -3071, 3193, 4755, -4133, -6840, -11665, -3677, -309, 2973, -5667, -4730, -354,
  4202, -3653, -16043, -3264, 753, 1394, -3742, -2953, -2465, -13961, -3280, 2536,
  -439, 4625, -1780, -5332, 1139, -1839, 3849, 7515, 6419, -300, -11710, -10844,
  -107, 851, 3449, 1560, -8122, -4069, 2896, -155, 524, -2284, -414, -604,
  1399, 3943, 2209, 7284, 4102, 1104, -669, -2076, -415, -4060, 6561, 3424,
  5480, 1264, -9973, -4446, -2721, -1213, 8729, 4963, 5783, -603, -6358, 913,
  -7073, -6618, 4293, 3051, -5998, -7279, 2016, -1586, 8962, -410, -1968, -12473,
  -2750, -6763, 3714, 2908, -231, -5850, -4092, -4801, 4730, 14116, 7854, -1879,
  1118, 1521, -3149, -527, 4842, 5655, 3329, -1556, 4613, -2530, -2485, 697,
  7831, 5148, -1594, -11888, -8156, 3235, 969, 5331, 11233, 10806, 5578, 93,
  -1714, -6553, -14943, 6176, 1435, -1284, -3240, -2432, -6271, -1627, -2708, 1457,
  -1753, -4085, -3268, -2594, 501, -487, 2916, -4038, -1736, -513, 9504, 778,
  1292, 5605, -4415, 1096, 15900, 5468, 1973, 4864, -453, -5226, -385, 2093,
  -616, -3398, 2681, 9755, -226, -8223, -9725, -3982, -4223, 5791, 2300, -2263,
  15654, -7727, -1356, 8070, 9264, -10677, -8347, 21228, -3336, -3453, 5180, 2633,
  -4688, -6430, 3400, -972, -2634, -2812, -89, 4069, 6264, 5161, -6155, 292,
  -7943, -10784, 7998, 7231, 2552, 3532, 1491, 12926, 7172, 11005, 10709, 1945,
  396, 4542, 8227, 8379, 420, 3156, -3565, 3464, -13113, -17118, -4265, 443,
  3827, -5097, 9274, -1782, -18126, 3318, -1472, -5391, -601, 8678, -1647, -9629,
  7351, -575, -157, 443, 5297, -3273, -2628, -8284, -170, 2594, 7288, 1416,
  -12001, -15999, -4699, -1060, -11148, 5891, 3711, 16552, 6749, 2196, 7230, 8362,
  7326, 10195, -5406, 3012, -2094, -761, -2892, -10441, -2333, 1581, -2659, 2076,
  4673, 7679, 10435, -5468, -820, 8054, 8831, -5628, -8393, 13430, 676, -4912,
  -39, -2190, 1357, -3456, 644, 9729, -4389, -306, 2103, -2399, -2685, 225,
  -7838, -5449, -1350, 8962, 13880, 12497, 3383, -1746, 4606, 6683, 13246, 6109,
  5679, 2598, 9331, 13395, -1956, -670, 4157, -4079, -6062, 6781, 10135, -1644,
  -1460, 2326, -2319, -7626, 2249, 5172, -4028, 4460, -586, -6387, -1854, -637,
  1299, 5818, 3018, -5133, -2337, -1175, 6748, 413, 4685, 2966, 5891, 4168,
  -1942, -4981, 5302, 953, 803, 8759, -1634, -4260, 2728, -2208, -1488, 801,
  3097, 5170, 1902, -5918, -2246, -3422, -3230, -2863, -5241, -3675, 59, 7233,
  10679, 146, 10075, 5343, 638, 7061, 12034, 3875, 9630, 15844, 8709, 11300,
  5228, 9086, 8016, 4796, 6818, 4149, -2182, 3729, 9260, 8429, 7106, 6507,
  1720, -5609, -1309, -1100, 9340, 19369, -318, -4602, -724, 116, 7619, 19457,
  11783, 857, 3068, 445, 2275, 17132, 3196, 17581, 6752, 2964, 3130, -630,
  11746, -5921, 6656, 3940, -1098, 904, 1244, 8523, -14361, -365, -3719, -2850,
  607, 1961, -8046, 6429, -10680, -862, 113, 3567, -2211, 1763, -6641, -8179,
  -2132, 3105, 1044, 164, -7944, -5035, -786, 3297, 8784, -947, 3138, 8330,
  14934, 11652, 6328, -2287, -5473, 9755, 5742, -5298, 5212, -2038, -663, -772,
  4310, 841, 2420, 1222, -1123, 6068, 3713, 7093, 2423, 751, 1237, -1454,
  -5264, 10442, -2383, -4735, -6484, -1028, -3937, -406, 3084, 10186, -2031, -2683,
  -1034, 1337, 4435, 2507, 70, 2949, 3293, 808, 9560, 2614, -37, 7394,
  18879, 5898, 7651, 13305, 6811, 2163, 7836, 3698, 6435, -909, -3650, -6619,
  -6512, -1580, 561, 295, -4330, -7248, -6618, -4183, 1104, -1450, -3256, 3827,
  6, 583, 4314, 4242, 1047, -6262, 7532, 1780, -2419, 7802, 2262, 6233,
  4244, 2984, 4794, 8142, 33, 4371, -60, 1618, -2907, 1021, 3254, 19,
  1979, -3059, -3485, -211, 7639, 10462, 10131, 7283, 17263, -1601, -2319, 3783,
  2340, 1230, 886, 16118, 8013, 4133, 6907, 7455, 891, 12566, 12460, 1274,
  -1107, 1043, -2118, -1561, -2428, -1214, 2099, 1262, -556, -4811, 4528, 13345,
  1948, 6590, 7011, 7472, 4683, -2245, -2959, 2024, 4433, -1361, 4824, 8859,
  -53, 2716, 6275, 16140, 1470, 13447, 4757, -642, 2902, -4172, 69, 2764,
  6041, 9251, 332, 5925, -5930, -3016, -226, 784, 1070, -2274, -3929, -6758,
  -4530, 3941, -5833, -6673, 3754, 5318, -4376, 5666, 6131, -9428, -8638, 3601,
  9503, 306, 5106, -602, -4917, -2057, 3097, 6107, -1503, 1963, 1319, -364,
  -5477, 950, 3765, -1423, 596, 2296, 2087, 4348, 1964, 4807, -2257, 2436,
  4838, 5793, 5255, 634, -4866, -2922, 4172, -2013, -4737, -3070, -2621, -9955,
  1002, 6660, 713, -4150, -1807, -924, 1288, -1591, 4291, 7095, -5392, -2356,
  2766, -2567, 2362, 6400, 5489, 323, 8956, 1825, 1577, -2087, 2068, 378,
  -949, -111, 691, 12754, -4923, -2718, 6706, 5942, 3456, 1341, -3077, -3407,
  5231, -92, -3547, -2355, -4157, -4272, -4608, 190, 2531, 654, -5219, -3601,
  3305, -9273, -6893, 986, 5727, 2978, 4394, 7706, -2774, -9803, 6261, 4456,
  -55, 742, 5053, -6101, -1001, -4742, 868, 2996, 1989, -1156, -12183, -10272,
  -2083, 1070, 6179, 2678, 7413, 1521, 1680, -1642, 5187, 3615, 2817, 4887,
  -1935, 3005, -622, -2613, -367, -8292, -6169, -4630, -341, -3567, -1368, -2858,
  -12142, 2550, -4769, 969, 14301, 7627, 4531, 4401, 7488, 3129, -1435, 6594,
  -520, 521, -3905, 6254, 2607, 4768, 312, 1707, -40, 5488, 1417, 10396,
  1168, -1876, -1994, -5200, 1874, 7597, 12171, -2201, 10429, 1423, 1352, -35,
  6290, 5222, 8227, 6522, 68, -9785, -7957, -6057, -522, 335, -921, -10512,
  -9813, -9418, -7020, -446, 2366, -3953, -5996, 2722, -2054, -3631, 1788, -4330,
  9601, 1923, 9059, 9918, 3050, 5660, 1950, 3464, 12194, 7381, 399, 1269,
  1070, 3834, -2612, -615, -569, -562, 629, 11427, 1273, 2987, 2241, -1103,
  -2743, 4921, -1230, -2294, -2509, -1266, -4946, -7413, -1331, 5602, 6478, 196,
  937, -8781, -2465, 9832, 15605, 4697, 10175, 3692, 6117, 7963, 7252, 3689,
  -7154, 2407, -3041, 5774, -3819, 3109, 1922, 3741, 4482, -1300, 5316, -3536,
  -617, 8199, 19180, 17136, 3652, -5141, -5896, 1668, 6185, 3460, -849, 7712,
  9907, 7224, 8294, -3082, -1624, -1434, -1853, -4044, -11375, -4268, -898, 1817,
  7176, 4555, 6715, 2953, 2923, -1573, 4468, 1390, -3954, -913, -6723, 5895,
  2514, -970, 5075, 4409, -3518, 5363, 10745, 1954, 2605, 5130, -2405, -529,
  -388, -3440, -2103, 4328, 1735, 3783, 1446, 2026, -147, 1020, 67, 101,
  1332, 461, 586, -948, -716, -1284, -1185, 516, 229, 52, -1514, 237,
  -1900, -1648, -310, -585, -490, 1406, 348, -612, -626, 452, -1067, -67,
  -957, 283, 571, -1242, -124, 1625, 1614, -874, 968, -417, 210, 2042,
  384, 1732, -1925, -800, 511, -81, -766, 682, 1312, 37, 498, -152,
  1055, -1504, -112, 304, 1270, -477, 301, -112, -1070, -737, 1138, -1947,
  761, -1775, -753, -193, -878, 172, 1075, -1378, 164, -1459, -1068, -1810,
  624, 1042, -1730, -1031, -1831, -1215, -446, -174, -1970, -1500, 424, -980,
  -1532, 780, -114, 1127, -236, 1351, -313, 998, 1436, -1576, -118, -1547,
  -104, 988, -1907, 434, 178, -1440, 35, -1969, -685, 184, -1295, -170,
  -911, 1272, 1267, 1400, 1410, -1274, -1158, 1074, -635, 1252, 963, 644,
  331, 210, 1138, -615, -14, -678, -1293, -191, -1073, -1034, -211, -1685,
  893, -755, -1143, -158, 355, -355, 1225, 1274, 286, 1131, 502, 1052,
  -688, 1181, -1947, 45, 386, -340, -1872, -914, 99, 1048, 402, -369,
  -738, -1628, -1119, -1798, -107, 1, 632, 842, -1412, -408, 272, -2038,
  -744, -84, 184, -1446, 1316, -148, -615, 1135, -827, 239, 837, -1342,
  -1277, -2041, 1296, -1854, -493, 440, -456, 846, -570, -280, -1643, -424,
  -725, 545, -771, 1107, -212, -1609, 671, -482, -452, 1682, -1276, -748,
  -91, -1084, -57, 1527, -1694, -729, -212, -1646, 128, -1672, -263, 523,
  -1128, -493, -705, -1208, -158, -1669, -425, 1715, 1759, -921, 794, 1340,
  -498, 1358, -1395, -204, 1681, 822, 1568, -1444, 642, 483, 668, 271,
  -741, 892, 1323, 1572, -1442, -1056, 13, -866, -713, -1385, -836, -1386,
  -911, 530, 904, 1326, -1751, -1670, -59, -2028, 1290, 628, -755, -1846,
  -118, -387, -1625, -1094, -1823, -35, 1572, -925, -1352, 1456, -432, -1808,
  -839, 1105, 103, 1007, -1081, -1063, -679, -886, -1745, -1107, -488, -1297,
  -95, 1205, 848, -1191, -2039, -470, 1350, -1889, 926, 716, -530, -1211,
  -1701, 575, 1112, -759, -1220, 178, -588, -1130, 88, -1690, -923, 740,
  66, -935, -1888, 311, -1127, 49, -1145, 1351, 545, -1033, 473, -1015,
  -1329, -1281, -1701, 753, -1063, 1426, 1264, -169, 685, 430, -959, 170,
  -1336, 1277, 907, 1190, 552, -136, 905, -494, -1746, 658, 778, 806,
  791, 645, -1491, -382, 196, 1165, -1626, -803, 876, -344, -1964, -275,
  851, -441, 664, -687, -11, 843, 624, 808, 1340, -996, 510, 619,
  70, -376, -49, -1182, 259, -1261, -1329, -97, -1188, 900, 596, -1453,
  -224, -1033, 577, -1324, 410, 586, -1120, -344, -758, -1009, -1615, -1395,
  262, -1885, -1843, 482, 1302, -478, 571, -682, 1445, 1314, -199, 177,
  -865, 935, 1238, -2006, -1380, -449, 393, 676, 1371, -2013, 798, -1345,
  -42, -1094, -1526, 802, -952, 1183, -445, -1658, 1367, 312, 1290, 563,
  581, 1330, -1209, 484, -238, 834, -1872, -382, -381, -1193, -691, 407,
  -477, 1237, -1064, 457, -1406, -926, 725, 86, -679, -281, 1155, -984,
  931, -1911, -399, -1823, 1430, 864, 382, -1815, 311, 1023, 1341, -469,
  848, 661, -1422, 928, -700, 523, 65, -1152, 914, -1633, -527, 268,
  546, -242, -1888, 1098, 347, -1826, -2029, -944, 411, -1133, -374, -1643,
  -1041, -1237, 712, 1351, -702, -1037, 262, -1999, -685, -1518, -1894, 163,
  -1885, -47, -1004, -267, -700, 153, 604, 678, -48, -1490, -947, -403,
  290, -485, 173, 4, -1200, 57, -309, 252, -1902, 916, -118, 433,
  1744, -475, -344, -96, -1932, 95, 780, 609, -199, -575, -1351, -1907,
  842, -1720, 5, -1118, -74, -873, 1180, 1001, 634, 552, 1202, -791,
  -412, -866, -556, -988, -1306, -732, 1273, 228, 810, -899, -241, -1597,
  1109, -760, 514, 679, -709, -873, -1617, 191, 1055, -374, 592, 1142,
  -922, -1941, -583, 1452, -491, -173, -558, 1402, 597, 528, -723, -366,
  -122, 770, -1126, 306, 935, 583, 575, -2017, -545, 1350, 582, -1784,
  -1876, 476, -2030, 47, -638, -702, -348, -2043, 802, -1179, -107, -316,
  -1528, -4, -737, -934, -664, 758, -587, 48, -1532, -263, 343, 1261,
  -1006, 141, -1269, 1370, -323, -205, -304, -618, -1708, 1119, 1276, -1183,
  -400, 1682, 302, -310, 566, 1352, -58, 1238, 532, 1569, -30, 27,
  -112, -1305, -342, 932, -553, -26, 941, -498, -1703, 223, -382, -649,
  -1061, 714, 1101, -156, 812, -1238, -1612, 620, -288, 1355, 417, 255,
  376, 1142, 559, -993, -404, 498, -1559, 459, -1746, 1613, 638, 1100,
  -1872, 1144, 967, -753, -1030, -453, 1415, -842, -393, -1637, 834, 151,
  -1355, -1285, 481, -1687, -859, -813, 1189, 1152, -228, -1312, 1438, -286,
  -1222, -890, -1063, -1329, -1343, 483, 137, -158, -161, 1080, 285, -962,
  1071, -1040, -1355, 173, -188, 19, -169, 1217, -1144, 238, -139, -614,
  -1403, -905, -1023, -1111, 325, 285, -212, -1421, 20, -1917, -1601, 596,
  -1710, 497, -1974, -1034, -1022, -1465, 1226, -956, -60, -820, -970, 904,
  -1439, -589, 289, -1432, -574, -1558, 28, 1341, -1614, 763, -1713, -1182,
  -1817, 139, 95, -1868, 981, -435, -645, -935, 935, 1207, -1540, 1165,
  -1405, -1489, -131, -1996, -1151, -1495, 738, 803, 245, -316, 719, -1390,
  -920, 1102, -476, 647, -1099, 336, -832, 341, 1441, 52, -10, 632,
  -1906, -68, -1080, 423, -1843, -755, -1063, 1374, -205, -827, -26, -486,
  -891, -1055, -954, -736, -1311, -1520, -1880, -1247, 116, 1739, -1279, -998,
  1072, 876, -1775, 571, 411, -692, -648, 324, -197, -72, -1987, -1571,
  -1429, -360, 176, -1922, -823, 187, -1570, -1154, -1051, -2015, -1743, 1384,
  -1140, 318, -716, -1993, 386, -1596, 557, 638, -1441, 115, 1471, -812,
  -1528, -1402, -1163, -836, 1351, 26, -1049, -769, 282, -903, 998, -1097,
  1103, 622, 883, -1222, -1223, 1451, 135, -1936, -1042, -979, -694, 799,
  258, 271, -1462, -1598, 277, 955, -1626, 21, -555, 1322, -42, 777,
  1098, 354, 431, -965, -447, -1237, -685, -1674, 779, 592, 8, 1359,
  1304, 1390, -630, 1322, -152, -1041, -196, 801, -1927, 1732, -891, -758,
  -1064, 501, 602, 1393, -776, -707, -1988, 537, -1858, -1949, -1466, -29,
  -1756, 311, -969, 83, 1327, -1878, 217, -891, 677, 471, 1276, 1489,
  -1326, 1615, 1023, -444, -1816, -297, -1020, 1122, -513, -39, -213, 316,
  863, -622, -597, -1346, -841, -380, 727, -77, 1395, -1777, -381, -1565,
  -1021, -1390, -1656, 1086, -1737, -1201, -1175, 478, 1457, -546, -323, -1576,
  806, -1491, 947, -113, -1417, -264, -12, -1441, 1302, 1270, 230, 537,
  1484, 1700, 322, -664, 1457, -1256, 442, -1591, 1601, -781, -237, 1267,
  -1742, -626, -1486, -1660, 323, -5, 435, 317, -582, 224, -752, -597,
  -355, 474, -184, 1411, 383, 603, 75, -382, 1159, 921, -1840, -1323,
  73, 185, -600, 309, -706, -1702, -1052, -807, 1256, 829, 970, 310,
  -582, -1195, -1117, 1212, -1634, -428, 1434, 969, 1206, -1509, -954, -804,
  -578, 1387, 522, 180, 159, 1685, -1195, 245, -524, 1258, -1213, -1647,
  473, 228, -677, -1281, -554, 220, 746, -1185, 1167, 1385, 752, -1804,
  412, 1125, -1609, 47, -1694, 955, -1140, -1348, 1082, -1668, -1363, 167,
  -1097, -1983, -977, -1486, 1297, 693, -1962, -49, 36, 411, 929, -2007,
  113, 748, -1384, -1815, 432, -326, 1465, 742, 606, -1874, -1897, -1106,
  -1422, -1896, -1105, -1352, -93, 1297, -1063, -988, -1025, -248, 663, 1039,
  1081, -495, -806, 748, -1187, -1407, 785, -1746, -835, 723, -1217, -915,
  1164, -1640, 1051, 1094, 60, -1302, 906, 1005, 316, 1096, -168, -1405,
  -1062, -219, -1824, -582, 1128, 1045, 1150, -1244, 102, -569, -746, 309,
  96, -1101, -958, 274, -1756, -1359, -620, -404, 41, -1860, 124, 1456,
  -1075, -780, 710, 600, -163, -1226, -248, 388, -1360, -111, 180, -1900,
  491, 923, -1334, -474, 1293, -1011, 949, -506, -602, 96, -1668, -1821,
  -1074, -1743, 501, -930, -406, -1549, -1396, 1497, 1024, 979, -739, 428,
  -1306, 500, -519, 1382, 771, 404, 1482, 603, 812, -861, -661, -1044,
  1412, -1703, 122, -932, -311, -777, -564, 1425, -780, -1350, -2008, -254,
  -246, -906, 700, -417, 662, -1211, 1074, -950, 1011, -812, -1045, -1355,
  -726, 460, -412, 765, -434, -426, 305, -815, -1744, 931, -879, 1324,
  -1918, -1765, -1564, -1946, 823, -218, -1021, -585, 84, 1078, -808, -531,
  825, -796, -98, 146, 51, 616, -243, -1699, 1297, -16, 85, -1920,
  -1021, 678, -643, -1992, -80, -1288, -1223, -1814, -880, 594, 1265, 1408,
  722, 320, -634, -784, -1163, -117, 1286, -1097, 230, 228, 1198, -1811,
  -477, -238, -882, -934, -241, 980, -1748, 294, 884, 511, -58, 1205,
  -1018, -1123, -1030, -365, -526, -1938, 669, 285, 468, 935, -1190, -1686,
  -597, 469, -437, 495, -940, -1557, 936, -150, -1496, -1204, 16, 710,
  982, -1283, 792, -1946, -2015, -464, 211, -761, 927, 954, 161, -1918,
  -957, 882, -398, 117, -30, 852, -1565, 1415, 425, 32, -1746, 280,
  -852, 441, 732, -711, 1277, -636, 274, -341, 277, 123, 1070, 1046,
  1174, -1646, 1125, 148, -1425, 1240, -1351, -1567, -845, 1445, -137, -824,
  -198, -1125, 772, -177, 730, 568, -214, 311, 466, 608, -866, -697,
  888, -678, -1682, -1463, 1090, -687, -188, 1461, -1410, -370, -1323, -144,
  -903, -217, 1146, -865, -1926, 714, -961, -453, -986, 1032, 480, 228,
  -216, -795, -841, -928, -682, -1378, 752, 419, 1267, -1759, 1019, -1620,
  -916, -1466, -1592, -769, -1403, -300, 408, -1795, -1418, 814, 65, 870,
  -1708, -371, -593, 464, 1160, 1112, 1743, 55, -1067, 493, -5, 376,
  -472, 486, -1958, -505, -1233, 1472, 548, 734, 1351, -1376, -1163, -1153,
  967, 1161, -1756, -1008, 680, -158, -86, -1134, -536, -618, 1457, 675,
  -295, -1083, -959, -601, 512, -135, -1840, -1781, -1114, -628, -1227, -281,
  1389, -1051, 743, 832, 164, -1848, -1158, -1023, 1187, 87, -1816, 112,
  -644, -805, -578, 1381, 1408, -1809, 404, -1012, -1352, 1335, 1413, -1829,
  -777, 1278, -1100, -1508, 617, 129, -1181, -905, -241, 1211, -1081, -188,
  -1704, 1403, -12, -1058, -453, -1453, 772, -1544, 1481, -1457, -122, 649,
  -1141, -321, 1198, -1172, 710, -1715, -1957, -446, 602, 269, 1051, -1986,
  -1480, -944, 47, 1446, 279, 2784, 2753, -1031, -1706, -2021, -1323, 677,
  -1685, -544, -601, -60, -460, -1635, 404, -635, -763, -2495, -2317, 1066,
  -987, 1686, -2154, 267, -2850, -2717, 2534, 1709, 1844, -74, 841, -2599,
  1439, -322, -776, -1112, -1423, -1551, -2296, -650, 803, -654, -2206, -1002,
  -1707, -2209, 1401, 1512, 1003, 830, -1281, -2474, -758, -1246, -2009, -1191,
  -2319, -541, -766, 0, -1470, 196, 658, -2372, 1099, -1030, -434, -2048,
  -2379, -435, 429, 835, 455, -2243, 191, -2508, 193, 628, -103, -1070,
  -202, -1073, -2202, -1041, -579, -2415, -1129, -1804, 85, -1760, -976, -1324,
  257, 634, -1966, -876, 107, 488, 116, -2235, -424, -1646, 952, -2231,
  -1333, -1140, 385, -202, -1130, -563, -152, -503, 1852, -2597, -1828, -991,
  -1360, 239, -346, -458, -776, -1649, -963, 684, 2911, 1374, 2726, -1655,
  -1514, -1051, 870, -397, 37, -299, -1232, -2393, 412, 2071, -350, -168,
  -2698, 191, -2050, -2377, -1288, 1699, 1089, 207, 505, 1273, 1718, 2384,
  637, -1313, -1245, 1477, 1406, -196, -17, -1189, -2524, -80, 1804, -2010,
  355, 140, -1511, 133, -45, -446, 191, -2092, -513, -2256, -1124, 2000,
  -147, -2160, -2030, -1200, 778, -189, 317, -1159, -2547, -1478, -1390, 251,
  1102, -2127, 20, 426, 24, 95, 1149, 1860, -728, -2507, 446, -240,
  726, -1541, -1521, -326, 97, -956, 718, -2184, -2455, 266, 297, -2639,
  -2522, -1023, -1378, -2074, -1427, -1198, 390, -269, -620, 625, 698, -1030,
  358, -1604, -509, -1365, 308, -396, 263, -2169, -1577, -290, 56, 331,
  506, -2604, -597, -1250, 2049, -1855, -2623, -1265, 575, -1224, -1832, -1112,
  580, -218, 723, -498, -962, -1979, -2175, -2079, 992, 341, -127, -372,
  345, -2645, 896, -1296, 63, -421, -1397, -530, -2286, 324, -385, -1432,
  -764, -907, 364, 1039, 355, 574, -405, -2144, -1218, -249, -228, -1716,
  -1388, -1280, -635, -1233, -473, -1178, -1823, -2101, -2278, -2501, 508, -15,
  -436, 277, -223, -1330, -1312, -349, 488, -2678, -226, 566, -1122, -965,
  -61, -1627, -1082, -504, -659, -2135, -1584, 962, -1377, 895, -112, -936,
  47, 29, 2511, -194, -1286, -1449, -2531, -110, -1949, 240, -1122, -2673,
  -2472, -1014, 1203, 63, -827, -325, -809, -1589, 3, 1731, 1164, 104,
  -516, -391, 1333, 1368, 554, 27, -875, 2659, -1875, -1458, -600, 1752,
  1487, -107, -1673, 220, -672, 135, -313, -1853, -538, -2072, -30, -2081,
  -91, -1109, -1797, -347, -724, -708, 164, 848, -2472, -1818, -385, -928,
  745, -1742, -1036, -620, 2034, -2386, -2339, -816, -1180, 979, 229, 1915,
  200, -46, -2612, 541, 205, -95, 120, 800, 384, 1278, 3119, 1089,
  152, -1662, -41, 1864, -2039, -1512, -287, -364, -244, -1205, -443, -495,
  -968, -1436, -531, -1917, -1190, -420, -1376, -2134, -2278, -581, -649, -954,
  -2439, 767, -581, 94, 746, 355, -1538, -83, -2494, -1967, 1172, 1589,
  -472, -2321, 1095, 1295, 130, 187, -1212, -1337, -1083, 975, -1111, -820,
  -156, -2394, -84, 1198, -283, 67, -1758, -1595, -407, -1659, 1600, -2228,
  -294, -2598, -2206, 757, -286, 526, -2368, 333, -1073, -1933, -687, 1359,
  -2255, -1738, -1030, -1016, 720, 826, 118, 100, -243, 778, 893, 1436,
  224, 1093, -654, 1314, -2145, 774, -1465, 1083, -1734, 2360, -1113, -690,
  -1975, -200, -2543, 220, 2371, -1461, -346, -1706, -963, -1635, -2220, 2555,
  -324, -1520, -1186, -1323, -537, 434, 131, -397, -776, -2576, -1043, -941,
  2722, 585, 52, 366, -1737, -2369, -1532, 764, -725, -1963, 708, 231,
  -1794, -536, 1922, -1995, 1664, -1834, -2235, -2617, -1818, 330, -318, -1504,
  -2394, 304, 803, 444, 526, -74, -2606, -2505, -2554, 792, 482, -1878,
  2819, 181, -1275, -2416, -446, -2251, -1576, 1327, -2339, -2186, -842, -462,
  791, 1330, 288, -557, -2383, -212, 538, -1360, -89, 1218, -1011, -329,
  -846, -1756, 2794, 1861, -430, 1064, 464, -1933, 886, 225, 56, 2495,
  -2705, -559, -2487, -492, -505, 590, 2043, -2321, -2468, -1749, -1076, -1477,
  -1746, -658, -540, -1848, -2180, -56, 187, -2801, 609, -2530, 253, -1582,
  -16, -1810, 2673, 431, -237, -503, -782, -65, -580, 427, 276, -571,
  -2084, -548, -1263, 2608, 884, -2190, 1437, -1580, -727, -401, -748, -137,
  -49, -1120, -1809, -2461, 729, 1003, -2174, -166, -934, -1334, -1051, -1953,
  -923, -948, 2360, -49, -2061, -2734, -491, 126, 460, 2580, -2053, -1857,
  -1845, -730, -2848, -1443, -2587, -2359, -1318, -1712, -1737, -906, -600, -689,
  -2652, -653, -564, 544, 1338, -71, 112, -790, 729, -1438, 688, -145,
  -1479, -1480, -1404, 450, -244, -2591, -1330, -1925, -564, -181, 498, -1376,
  378, -964, 553, -2434, -2077, -294, 34, -1099, -571, -275, -1008, -2423,
  -1276, -2408, -1938, -1046, -2508, -993, 705, -1486, -2067, -345, 2363, 2169,
  -681, -1240, -1396, -1358, 58, -67, -1851, -2060, 716, 183, -890, -515,
  -1782, -2405, -2065, -1342, 584, -1657, -1105, -234, -2324, 684, -1270, 110,
  -381, -1616, -1096, -1600, 2695, -95, -1474, -1959, -2306, -533, 333, 294,
  -1208, -1809, -70, 783, -1873, -813, -573, -295, -2162, -1771, 1528, 492,
  1897, -777, -688, -847, 715, -291, 116, 327, -1408, -408, -1492, -1602,
  -989, -3020, -406, 350, -914, -732, -696, -1311, -1413, -1590, -1612, 840,
  1438, 1255, -1897, -850, 1445, -776, 544, -1576, 784, -43, 471, -600,
  288, 1552, -676, -1253, 527, -1328, 1001, 561, -469, 1118, -1996, 1966,
  1306, -1689, 595, 399, -1412, -1765, -1206, 677, 1028, -1531, -1047, 912,
  -1056, 1336, -1893, -1855, -979, 1420, -1009, 204, -1839, -197, 665, -352,
  -70, -1255, -813, 239, -1250, -941, -1758, -1482, 1220, 993, -819, 136,
  933, 1294, -2015, 37, 1410, -316, -1210, -863, 864, -1529, -1693, 1412,
  -732, -1935, -838, -1668, -1584, -1585, 648, -80, 145, 949, -1698, -875,
  608, 228, -915, -200, -503, -604, -1337, 1203, -220, -1147, 1054, -807,
  607, 161, -176, -539, -1052, -757, 1097, -684, 1039, 975, -816, -609,
  -200, 1128, 50, -745, 399, 329, -1169, 377, -1680, 1317, -835, -786,
  -25, -390, -1594, 664, -1367, -178, -410, 1116, -1971, 949, -703, -585,
  -1525, -1917, 21, -1476, 471, -959, 486, 1130, -1667, 1367, -199, -199,
  -713, -189, 12, -1575, 638, -1527, 93, -1255, 48, 768, -19, 1231,
  895, 1853, -126, 1048, -65, -468, -924, 986, -1024, -263, -1494, -812,
  1023, 395, 1309, -1092, -1470, 558, -1565, -2056, 602, 446, 1256, -1497,
  -966, -840, -1525, 1083, -384, 15, -1140, -1328, -2503, -1181, -791, -384,
  -2394, -1348, -2755, -1117, -1803, -2037, -1968, -1992, -817, -2383, 391, 571,
  -1271, -1432, -1421, 560, 411, -340, -999, 80, -1702, 348, -800, 592,
  -2640, -1198, -150, -2295, -1212, -581, -2392, -758, 1746, -74, -1991, 480,
  792, 207, -890, -1352, -2322, 682, 777, -1495, -1414, -1650, -414, 307,
  -1637, -475, -1776, -1590, -2634, -1224, 1269, -332, -1957, -1077, -1328, -659,
  150, 1530, -185, -529, -1484, -711, 266, -433, -1099, 167, -578, -1675,
  -2419, -507, -1365, -190, -1394, 806, -508, 871, -735, -1620, -611, 580,
  -1139, 1378, -250, -1416, 1441, -385, -295, -145, 17, -1839, 610, 1239,
  -968, -1583, 922, 292, -1453, -1731, -1444, -578, 1234, 957, 296, 162,
  -1355, -1894, -1026, -1588, 711, -352, 1129, -2006, 140, -1265, 1247, 1040,
  -851, -1663, -2926, -1269, -1627, 590, 267, -764, -1235, -734, 1143, 474,
  -1347, 127, 916, 1235, -1558, 1105, -1464, 1439, -33, -1689, -1951, 1636,
  309, -1623, -494, -567, 1231, -246, 732, -740, -765, -173, -1632, 830,
  455, -640, -125, -116, 469, -1426, -1767, 232, 981, -1242, 1176, -1006,
  -1749, -2043, -1166, -368, -267, -1349, 525, -222, -1747, -907, -2198, -586,
  -1053, 750, 1786, -1155, -345, -1604, 152, 1216, -1968, -4, -1709, -1912,
  1233, 774, 779, 627, -694, -2096, -52, 6, -2344, 1205, -86, -520,
  -2020, -338, 1367, 1637, -341, 888, 136, 1225, -1077, -1363, -673, -1159,
  -596, 575, -509, -1320, -1681, -121, 1208, -67, 962, -315, -1304, 1044,
  -593, 694, -1068, 571, 1300, -341, -1765, -922, -1711, -108, 764, -582,
  -654, -1798, 425, 597, 976, -1090, -2001, -1005, -694, 408, -717, 1182,
  -1896, -622, -1267, -382, -2023, 1372, -671, -151, -903, 70, -28, 168,
  -2040, 207, -11, 1029, -1906, -295, 409, -841, 892, -470, -578, -529,
  1101, 1379, -866, -268, -1787, 960, 881, -384, -1159, -154, 1476, 1689,
  -1328, -823, 458, 351, -198, 1291, -1425, 61, 1229, 221, -174, 1051,
  -1028, 907, -674, -1241, 1939, 356, 568, 374, 1349, 1130, -1319, 631,
  -417, 735, 975, -51, 1948, 945, -934, -696, 307, -1987, 104, -875,
  838, -625, -1197, 587, 787, 1260, 1209, 402, -138, 29, -1992, 648,
  289, -266, -1822, -63, 789, -1632, -1907, 1343, -213, -908, -1934, -1996,
  -797, 992, 774, 302, -509, 618, 226, 1058, -8, 8, 282, -805,
  500, -1222, 669, -820, 1063, -645, -1420, -956, 670, 1258, -1455, -36,
  447, 1350, -1230, -3076, -1742, 1268, 959, 891, 1140, -1987, 1340, -1606,
  -521, -708, -300, -1889, 161, 883, -1949, 0, -1525, -2046, 482, -1381,
  499, 13, 253, 858, -1783, -861, -699, -1241, -1186, 1140, -618, -1743,
  -836, 477, -604, -1550, -368, 1664, -1344, 1065, -183, -1583, 460, -36,
  -232, -297, -1564, -423, 1145, -1607, -1044, 91, -1755, -1081, -355, 1164,
  1239, -1086, -1002, -653, -799, 1126, -1209, 825, -398, -1815, -736, 191,
  1745, -508, -569, -35, -2412, -1893, 31, 814, -1129, -146, -803, -1490,
  669, -1016, -1078, 37, 1340, -1415, 1076, -346, -1298, 255, 1138, -1203,
  -1337, -1648, 1282, -1363, 164, -1421, -1450, 1501, 287, 333, -1141, 798,
  -1134, 1001, -742, -493, -451, -1399, 1003, -988, -2048, -251, -324, 982,
  -349, -728, -780, 397, 885, -1168, -1109, -976, -1869, 654, 143, -1282,
  119, 1199, -1662, 1129, 242, 302, -1150, 981, -605, -1263, 826, -1951,
  512, -389, -89, 494, -145, -405, -1910, -325, 483, -360, -2013, 429,
  -660, -1532, -1009, -61, -538, 749, -257, 1200, 329, -333, -2060, 452,
  -1475, 135, -868, -709, 289, 215, 1425, -370, 592, -1653, -454, 685,
  -1087, -1926, -1813, -897, -974, -854, -1665, -326, 1205, -1018, 921, -849,
  -573, -232, -247, -411, 906, 2, -1771, 450, -666, -450, -1144, -799,
  -2961, 3170, -1665, -8853, -8639, -18147, -509, -413, 354, -5228, -15766, -26054,
  -20381, -1532, 1364, -1805, -4704, -996, 5417, 12975, 17919, 29, -3008, 3220,
  -898, 1244, 12686, 20827, -1398, 914, 2863, -8284, 82, 1677, 8576, -184,
  539, 1081, 6298, 1860, -5266, 858, 1086, -474, 7477, 8480, 9620, -4652,
  966, 554, 1476, 7380, 954, 1520, 792, -3731, -1551, -2156, -5581, 928,
  2274, 8974, -3900, 8406, -5725, -19813, -5838, 5582, 13924, -1140, 4714, -3639,
  -6048, 1878, 837, 740, -2599, 6006, 430, 2956, -1866, -1433, 1296, 833,
  1780, 5607, -1739, -2467, -462, -1863, 850, -942, 2288, -4610, 5257, 5152,
  3319, -8182, 1341, -3317, 2176, -309, -3157, 665, 732, 10499, 2580, 2765,
  -5750, -13054, -10730, -9128, 6196, -1711, -2837, 1957, 15590, 6821, -18721, 1462,
  -593, 7045, 5998, 1011, 4452, 6543, -5620, -5111, 515, 378, 3104, -3005,
  741, 1776, -1026, 1726, 3629, 1613, -296, 3283, 4876, 3941, 6827, -1219,
  370, -11020, -1790, -1124, -4283, -10120, -7281, -3453, -9256, -185, 9058, 12391,
  -828, -11040, -6732, -16294, 690, 15967, 18308, 10922, -58, 1575, 3219, -1749,
  -150, 5097, 334, 2848, 3300, 7106, -2702, -12598, -1423, 4070, 2699, -304,
  3302, 749, -1935, 159, 2818, -943, -1854, 181, -3737, -1852, 1911, -477,
  -2117, -2145, -1001, -3261, -1563, -3207, 2102, 4023, 2390, 4949, -111, 190,
  -826, 3067, 3879, 2604, -1093, 384, 3061, 3392, 9759, -2799, -6565, -8241,
  -10107, -3307, 6708, 8553, -746, -4035, 2312, -377, -5298, 1443, 657, -133,
  7, 976, -256, -898, 1275, 3518, 451, 1339, -1898, 1578, -3108, -245,
  -2477, -4386, -782, 2705, -2118, -1547, -5318, -3505, 5334, -2674, -3913, 1239,
  -216, -14972, -26469, -2733, 7734, 2162, 7842, -3428, -10806, -18709, -6356, 9162,
  8744, 6267, -2815, 5068, 231, -10359, 758, 6702, 3997, 3173, 3263, -6835,
  -5692, -1996, 4854, 2942, -383, -14328, -8678, 268, 79, 1992, 1546, -1221,
  -3448, -5603, 1627, 2513, 1684, -319, -718, -4775, -8851, -1940, -6795, -13167,
  -2551, 4683, 1468, 2977, -10170, -9889, -15304, -2432, 11298, 202, 2539, 3831,
  15706, 7578, -8699, 9294, 3901, 3537, 3400, 7182, 5942, 9182, -2702, -6893,
  -1644, 1398, 2860, -2437, -897, 3963, 916, -3589, 4953, 1622, 2055, -6076,
  -1488, 5087, 1007, 2681, -2446, -5366, -5016, 93, 4237, 8393, 20573, 5112,
  -6419, -1459, 1165, 7632, 11517, 8984, 1978, -3069, -18207, 2053, 2542, 9098,
  6936, -10664, -12161, -8999, 1263, -3760, 2737, 2102, -952, -8336, 2683, -1736,
  744, -139, 6704, 4200, 5490, 70, 546, 2181, -1713, 765, -1300, -1472,
  4201, 6535, 4179, -693, -1601, 4121, -1723, 33, -363, -647, -4866, -584,
  -612, -3207, -1116, -99, 20353, 4758, -10366, -8304, -10520, -7090, 12258, 20894,
  7440, -1549, -4333, -2127, 1137, 16554, 3083, 1494, 2281, 11384, 5311, 2069,
  -11770, -5945, -1830, 3216, 3389, 736, 1390, 1105, 585, 782, 2012, 836,
  3909, 3262, -2391, 2247, 1304, 946, -1970, -1916, -2034, -466, -3182, 1689,
  -11166, -6041, -3676, -455, 4074, -4320, -6399, -4069, 1766, 6308, -6078, 1943,
  -8073, -7329, 3615, 6588, 6691, -3928, 9077, -2653, -3854, 4443, -1000, 4143,
  -7012, 13050, 1810, -4820, -2311, 740, 1024, -4137, 5450, 3476, 2442, 288,
  3770, -2797, -3999, 6712, 1091, 5924, 10437, 4726, 2774, 137, 34, 1550,
  950, 3258, 566, -2953, -3770, 6526, -800, 1, 10687, 9695, 2959, -4382,
  1972, -2903, -2216, 6865, 6340, 2078, -4790, 1161, -3120, -3802, 8805, 903,
  -4143, -1013, 6087, -514, 23, 1468, -1365, 1905, -2371, -1423, -4194, -4523,
  -1991, -2122, 810, -475, 3868, 3642, 4092, 5723, -969, -656, -37, -843,
  -2213, 1125, 375, 4596, -4040, -6000, 5030, 3041, 9757, 7054, 527, 8214,
  -5827, 272, -7193, -774, 8166, 10390, 23, -1037, -4002, -2944, -1164, 1416,
  -961, 199, 664, 42, -1356, -2822, 415, -5133, 751, -2131, 2260, -386,
  2048, -2508, -418, -500, 1448, -2199, -394, -3787, -853, 757, 770, -1898,
  -656, 6572, 711, 1411, 3187, -1667, -2650, 1751, 2391, 4253, 7191, -3436,
  120, -6509, -1108, -1930, 3194, 6389, -651, -697, -1222, 3700, -5432, -1824,
  3480, 1099, 1393, -9319, 3354, 483, -193, 4267, 1268, 3076, 441, 5709,
  684, -315, -594, 1377, -4714, -5156, 747, 9759, 5020, 1444, -1448, -470,
  -4282, 176, 2040, -5659, 5593, -5985, -6209, 225, 1509, -847, 4436, 11161,
  12308, -4066, -21235, 1661, 3161, 7925, 7644, 2313, -9783, -22175, -1906, -1613,
  404, 943, 17, -5121, 7380, -2059, -5881, 870, 6269, 1473, -5464, -7626,
  3441, -2075, -426, -374, -736, -308, 1335, 203, 1955, 4013, 2611, 628,
  78, -1826, -1706, 5671, 7317, 2486, 1999, -2257, 1877, -1720, 6406, 4924,
  -1033, -5388, -5289, -5008, 485, 9788, 9350, -842, -5295, -2983, -1038, 6368,
  8620, 3593, -850, 821, 1981, -201, -1634, -813, 4243, 1823, -242, -2908,
  2125, -3836, -321, 3894, 2910, -4812, -1743, -3672, 5235, 13785, 1015, -5980,
  204, 2066, -4270, 665, 974, 4599, 5376, -5337, 4024, -7205, -568, 2724,
  2871, 4568, -2577, -9479, -4561, 4875, 1193, -93, 7772, 11509, 9640, -8118,
  3886, -8070, -1003, 700, -3415, -3694, -6723, 4589, -1715, -2848, 200, 4832,
  -426, -1285, 5628, -3452, -1953, -11, -101, -896, -1896, 7169, 7876, 1178,
  1123, 6720, -4032, 699, 396, -1088, 459, -1076, -275, -836, 384, 1495,
  771, -844, 365, 785, -801, 308, 461, 1222, 242, 1208, 1083, -2004,
  1577, -1474, 72, 291, -1766, 403, -1356, 1290, -274, -583, -1586, -124,
  -823, 624, -1053, 737, 1017, 1360, -1148, -1502, -307, -794, -1068, -1079,
  -1530, 334, 1233, 343, 491, -443, 1268, 847, 881, -890, 1073, -1651,
  -1136, 598, -1619, -2010, 830, 1111, -442, -206, 386, -1940, 1351, -278,
  325, -844, -1683, 497, 488, -640, -1968, 447, 744, -939, 796, -1255,
  -606, 888, -964, -1526, -1012, -42, -583, -1783, -1844, -1085, -1162, -1955,
  1083, -623, -961, -804, -715, -408, -1156, 749, -469, 838, -135, 78,
  610, 1298, 295, -1441, 1310, -1184, -244, -1477, 894, 908, -909, 1464,
  380, -137, -57, 797, -354, -232, -1003, -1704, -402, 1405, -1340, -1833,
  -1277, -350, -1409, -1636, -739, -780, -756, 1240, -1767, -1648, 1451, 1336,
  1305, 1144, 359, 239, -236, -401, -313, -235, -196, -1812, -1397, 1012,
  -1323, -1074, 1370, 1037, -1232, 379, -377, -776, 1042, 243, -1325, 621,
  84, 808, 1371, -1769, -1701, -1623, 1064, -1796, -2002, -326, -314, -1640,
  1253, 855, -1603, 321, 1189, -814, -664, -1054, -37, -398, 882, -1385,
  1330, -889, -166, -12, -212, -1606, -99, -656, -785, 1149, -1667, -1239,
  -1566, 1249, 641, 1577, 1140, 591, -1510, 716, -1167, -1057, -279, -36,
  1605, 996, 383, 692, 944, -1323, -957, 511, 1716, 611, 807, -1626,
  1419, -411, -515, 1702, -673, 422, 468, -130, 168, 160, 1760, 1285,
  980, -1517, 21, 384, 1402, 1224, 493, 458, -423, 145, -196, 1616,
  -1409, -796, 98, 1066, 1105, -44, -982, -1466, 554, -730, 610, 996,
  -1107, 766, -560, -968, -691, -511, -1160, -193, -30, -1700, -1688, -1152,
  832, -1312, 1229, -1560, -1635, -743, -257, 716, 197, -1658, 213, -1415,
  597, -1056, 12, 956, -1581, -1676, 299, 1357, 538, -815, 725, -1215,
  552, -274, -1272, -1990, 42, 1147, -652, -810, 1067, -72, -1573, 1140,
  1063, -555, -1319, 1430, -450, -349, 412, 107, 373, 1197, -599, 667,
  1269, -1972, 1232, -647, -1174, -1449, -1604, 642, -431, -784, 1245, -889,
  647, 1284, -1474, 1192, -1035, -940, 1287, -149, 850, 1449, -380, -77,
  444, 149, -1748, -796, 545, 917, 609, 1389, -793, -918, -1132, -1751,
  558, -141, -251, -84, -112, -115, -1584, -671, -1329, -491, 961, -1113,
  -1431, -1931, 272, -294, -1948, -126, -1288, -1461, -1096, -1843, 444, -387,
  623, -19, -1129, -1212, -179, -1130, 1159, -632, 1116, -326, -1699, -1177,
  -1249, 573, -1059, 389, -1534, 154, 197, 782, -121, -486, 182, -1393,
  -1006, -1713, -1959, 1230, -1477, -1264, -1738, -338, -1745, -613, 1083, 28,
  -1433, 592, 21, 169, 622, -888, 517, -753, 716, -47, 677, -455,
  -31, -1941, -863, 355, -1997, -143, 419, -422, 1008, 244, 115, 1216,
  278, -892, 801, -625, -431, -1102, -522, 371, -1468, -1151, -852, -1858,
  -360, -379, -1, -1349, -2031, -938, 101, 77, -1070, -1130, -464, -949,
  -1989, 80, 966, -27, -1798, -1945, 218, -234, -1169, -1830, -2044, 1247,
  -2004, 174, 852, 158, -1889, -1537, 305, 1232, -593, -101, 562, 29,
  720, 1314, -1745, -779, -726, 184, -1881, -1750, -83, -26, -1384, -1712,
  1424, 163, -170, -417, -1114, -1169, 364, -475, -1819, 206, -627, -1107,
  -325, -1159, -1518, -1365, -1891, -1815, -336, 1276, 324, 98, -1912, 977,
  1187, -398, -1944, 1065, -1016, -511, -1364, -805, -103, 341, 937, 761,
  -1917, 1309, -1181, -239, 1345, -1505, 1024, -1342, -708, -590, -1113, -971,
  462, -1998, 932, -1937, -1983, -299, 268, -1450, 1180, 321, -1229, -587,
  -1755, 852, -310, 338, -1344, -859, -1009, 17, -1372, 1107, 723, -1012,
  -826, 187, -1294, -141, -1642, 1249, -757, -476, -521, -1776, -1451, -1246,
  -1978, 955, 867, -650, 473, 810, -1995, 487, -1396, 915, -1612, -1209,
  -590, -1433, 618, -1019, -751, 811, 997, 1141, -505, -1408, 717, -588,
  -1018, -883, 512, 369, -1997, -1829, 216, 490, 766, -358, 490, 604,
  210, 1460, 547, 984, 971, -754, 1218, 295, -1070, -1541, -1402, 419,
  -1021, -687, 519, 55, -1932, 1163, 602, 1658, 1426, -1495, -823, 3,
  953, -1133, -946, -1748, -27, 362, 1590, 475, 1532, 1338, 87, -1808,
  512, -1229, -1129, -182, -1159, 241, 995, -1999, 868, 976, -956, 916,
  415, 510, -1322, -1117, 738, 1456, -1840, -1711, 4, 799, 1606, 1177,
  -1708, 520, 909, -1068, 1720, -74, -618, 680, -1717, 129, 638, 1073,
  139, 441, -1724, -660, 958, 553, -1739, 1346, 409, -1933, 1460, 554,
  -791, -757, 693, 685, -1774, -1732, -1708, 1381, -884, 1291, -718, 1414,
  -1019, -920, 51, -308, -270, -872, -1833, -966, 1277, 477, 359, -1300,
  1173, 1411, 1170, 1426, -1549, -1190, 689, 92, 1408, 489, -1713, 1187,
  -1081, -862, 66, 310, 75, -1113, -660, 40, 1069, -1802, 1016, 857,
  -1336, 174, 793, -664, 680, 676, -1701, -159, -2010, -750, 507, -881,
  -1650, -566, 1168, -1693, -592, 301, 1019, 125, -43, 566, -618, -1005,
  1230, -825, -974, 70, -423, -1548, -1002, -649, 4998, 1507, 4321, 1355,
  390, -2983, 13207, 694, 3615, -949, -2091, -1240, -7156, 3864, 5268, 5269,
  -2524, -7059, -11203, -15807, -5499, -1717, -3667, -3973, -4624, -10282, -8572, -7819,
  -4255, -5414, -8279, -3194, -2546, 5572, 3097, -1597, 2624, -3163, 5978, 5582,
  8751, -981, -332, -1363, 847, 6705, 3498, 14517, 4093, 178, 642, 4742,
  1004, 1073, -1315, 3313, -1360, -5464, -4627, -8923, -3345, 78, 10425, -6518,
  4913, 6701, 6226, -6335, -9554, 7192, -3191, 4737, 8828, 1320, 1417, 1748,
  1499, -875, -775, -4938, -3908, 2982, 3002, 5907, -2418, 2910, -1710, 1707,
  -1248, 4906, 8094, -906, 5258, 8968, 9658, 3183, 8536, 5300, 1999, -6409,
  2616, 7465, 3233, -2342, -1012, -6536, 2690, 2169, 2641, -1620, 3882, 9932,
  -1619, 4879, -3230, -2978, -3702, -5004, 905, -1553, -5385, -13011, -3853, -4501,
  -78, -2883, -6978, -6821, -2481, -4731, -6216, -543, 5615, -5753, 925, 6418,
  7345, 5211, 5012, -4939, 6799, 1249, 1738, 7727, 7281, -251, -1770, 1225,
  1233, -5987, 1525, 4152, 11627, 126, -990, 54, 8752, 2690, 6895, 6498,
  -5408, -6857, -3080, -5013, -391, 8334, -735, 1157, 3932, -3177, -5196, 4734,
  5955, -1878, -3947, 2156, -4538, -3484, -2984, 640, -5077, -1862, -2015, 4420,
  -1751, 1903, 5185, -965, 2975, 3054, -4880, 490, 1098, -5920, 8606, 4382,
  3084, 7592, 8186, 2536, 840, -1451, -2008, -40, 5660, 2930, -1592, 861,
  3694, 3366, -520, -5033, -11436, -7912, -5181, -2186, 4658, -3333, -5061, -2638,
  2293, 1182, 2171, 1803, -1067, 11141, 15234, 7506, 1178, -4550, 4207, 8784,
  12459, 19372, 8131, -10423, -8655, 176, 3664, 193, -2817, -6508, 6177, 2978,
  -565, 3538, -2868, -14039, -7072, 4556, 3237, 1086, 2036, -8312, -7052, -15483,
  -3509, -2785, -5855, -125, 3395, 16, -9313, -2194, -806, -3073, 103, -5604,
  -13772, -8378, 9576, -1066, -934, 2797, -13698, -25916, -1750, 5385, 3022, -1060,
  1283, -8397, -6717, 8013, 4022, 298, 2867, 2444, 4398, 913, 7619, 2109,
  -803, 4059, 265, 3108, -899, 3576, 12227, 7708, 477, 1810, 4413, 7632,
  -2966, -299, 4491, 3300, -5053, 6081, 1037, -4740, 1725, -7102, 3192, -1153,
  -6529, -11289, 1970, -1074, -2941, -10853, -3447, -5552, -4459, 1877, -5733, -1749,
  2167, -9331, -1498, 4365, 5015, 4133, 6960, 6548, 2581, -114, 1557, 1587,
  -590, 10526, 2226, -78, -5169, -1985, 3460, -2429, 1036, 1239, -2796, -3052,
  -1744, 107, 4973, 4596, 8962, -822, -4671, 2645, 5151, 391, 5030, 5592,
  1956, 13120, 13892, 11263, 2846, 4860, 4169, 1545, 2149, 6642, 4680, -2271,
  -5501, -12483, -4690, 5149, 947, -2436, -5072, -5470, 3269, -1483, 943, 1915,
  -2856, -3963, 2314, 7546, -513, 4027, 5481, -3975, -7382, -5841, -3574, 1589,
  -10787, 3722, -925, 7591, 12191, 2269, -3561, -9395, -10448, -9229, 5164, 252,
  56, -4516, -8042, -9098, 5719, 9242, 1037, 2608, 1694, 6027, 5034, 6716,
  -5306, -7752, -8584, -10956, 3893, 4546, 1797, -614, -2134, 3209, -2277, -568,
  1527, 534, -3153, -2803, 6741, 53, -1090, -2707, 7263, 2551, 374, 370,
  -1512, 3100, 2977, -513, -1124, -9162, 2842, 992, 2803, -1847, -4662, -7334,
  -9964, 6275, -1357, -5059, 620, 13524, 324, -8437, 1361, -7283, -4375, -5912,
  -1262, 3927, -820, 3696, -9536, -4331, -3804, -3134, 6016, 3335, 8884, 259,
  -1073, 4004, -1479, 7007, 7007, 2546, 1768, -258, -2489, 3690, 8319, -2097,
  1352, -7218, -1215, -3661, 394, -965, -4642, 1795, 1566, 2438, 4093, 8037,
  -396, -548, 1259, -3231, 418, -3260, 14190, 7103, 2090, -1152, -7783, -4109,
  -8804, -5227, -431, -3918, -2822, 1422, -3600, -5125, -7202, 154, -2620, 96,
  382, -4934, -1473, 431, 7689, 3188, 1960, -325, 6886, 5079, -3340, 2336,
  -3698, 1692, -281, 3851, 314, -5022, -1446, -3213, -383, 3149, 5081, 8494,
  1141, -3220, 1587, 1220, -7002, 9009, 1751, -1950, 591, 3677, 53, -1709,
  -323, -7242, -292, 3219, 4063, -3531, 5865, 4703, 3820, -2303, 3919, 2729,
  3284, 10585, 1347, 758, 2297, -4081, 1873, 8710, 2535, -4075, 789, 7318,
  8327, 6791, -393, -5438, 328, -3772, 3275, 6830, -1577, 7617, 3887, 1511,
  -2027, 3874, -1108, 3760, 8167, -3821, 10211, 9751, 8626, 2184, -3187, -6330,
  -4380, 180, -3531, -7782, -9190, -3041, 5465, -4237, 2847, 7609, 4485, 1993,
  -3317, 7268, 10120, 4890, 4813, 5772, 4856, 7161, 3002, -4964, 687, 818,
  -4191, -8011, -1195, 1214, 4764, 961, 2536, -3481, -3595, 2050, 16451, -411,
  -728, 4918, -850, -291, 8493, 17380, -1718, 8165, 14099, 15896, 380, 1634,
  16841, -968, 957, 8079, 9308, 2270, -1373, -16224, -6075, -335, -303, -2384,
  -3567, -4719, 2781, 1936, -3764, -2004, -1153, -1179, 1523, 12182, 385, 246,
  2817, 5666, 5638, 9629, -2621, -3855, 3199, 5472, 7335, 5309, 1965, 1093,
  4750, -6025, 3942, 12066, 13159, 8589, -1336, -4905, -10532, -4037, 6735, -306,
  -7808, -7649, 2455, 8492, 6799, -11541, -9140, -9099, 1200, -4656, 14806, 12097,
  7419, 3639, -4908, 1612, 2037, 11165, 7522, 4730, 7857, -297, -1933, 1808,
  -2115, 3996, 4828, -2239, -1752, 2856, -7737, 1495, 5812, 3734, 2438, -2318,
  7650, 2926, 1110, -1538, -1104, 6350, -1395, -1183, -10081, -9220, -9330, 6016,
  -354, -4356, 1341, -10690, -2149, -1749, -2194, 158, 2429, 3164, -587, 1439,
  3234, 1366, 7340, 4673, 2752, -2923, 7164, 3065, 4631, 8410, 4386, -574,
  2217, -8245, -4529, -826, -6324, -3637, -1048, 3411, -1151, 2050, 2430, 1374,
  5622, 4053, -6368, -5135, 883, 3379, -1846, -3642, -4614, -3196, -492, 7832,
  -1430, 281, -9366, 7690, -2871, -8275, -9550, -4154, 4991, 3684, 8151, -4962,
  -1612, -7004, 13095, 14575, 9257, -202, -4686, 748, 4363, 10940, 18272, 23129,
  3261, 270, -4680, -4004, 1770, 183, 4575, -1814, -1338, -1439, 7185, 7862,
  1201, 1881, 5013, -349, -4599, -1689, -6623, 2729, -326, -4209, 1136, 2722,
  4607, -5841, -746, 1269, -10507, 3158, -2946, 1987, -6173, 2876, 5382, -831,
  851, -4573, -2242, 3475, 3656, -2242, 8895, 680, 4855, 4277, 13361, -8760,
  -8872, 8408, 3448, -2598, -3678, -2964, 1154, 3114, 1876, 1132, -6750, -5195,
  -6159, 3191, 4491, 3681, -8190, -7379, -318, -570, -2055, 419, 10206, -5099,
  -5722, 938, -3613, -6456, -8949, 12225, 6634, -10261, -7692, -2392, -1641, -6170,
  13426, 927, -5290, 9276, 7333, -1292, 878, 4458, 8983, 4514, 8187, 8421,
  22115, 19005, 1186, -1307, -133, -13910, -6774, -2330, 1568, -569, 8507, -7063,
  1384, -136, 3682, -97, 1223, -126, 3590, 3567, 5149, 2700, 2428, 1322,
  -3388, -1417, -3258, -403, -2423, -577, -5109, 4862, 1897, 5644, 2567, 169,
  -1780, -1542, 841, 9773, 4567, -2193, 656, -222, 7336, -1168, -4969, -690,
  -2627, -3167, -1122, 7480, -1436, -1828, -1083, -2187, -161, 158, -189, -5192,
  -1733, -1604, -4086, -3692, -1285, -894, -4349, -3865, -3260, -5436, 2317, 875,
  -6374, 1702, 5431, -2707, 6415, 770, 1002, 3460, -3245, 11273, 22393, 13316,
  -1158, 900, 6927, 6008, 26407, 24578, 9535, 3407, 8859, -3825, -1647, -3103,
  91, 3610, -4993, -5256, -4743, -1550, -2238, 45, -10145, -167, -1437, 577,
  -1117, -298, 9119, 11875, 4551, -1571, -280, 506, 2003, 940, 6246, 3004,
  -1002, -4958, -1002, 2911, -5169, -6543, 972, 80, -8985, -3286, -12090, -22665,
  -9207, 1230, 1999, -4179, -2884, -11149, -3940, 9947, 475, 1491, 2597, -2143,
  -31, -7466, 9052, 2711, -1624, 3824, -87, 1422, -10971, -1095, 6064, 3187,
  2403, 2125, -3289, -4064, 765, 669, 4065, 1306, 3400, -4069, -2299, 4065,
  -6715, -2593, 1684, -6252, -5234, -1624, -2329, -9386, -8582, -7011, 2231, -11832,
  -9776, -6189, -6945, -564, 8043, 2276, 3028, 8660, 399, -3667, -3598, 7760,
  -2660, -2559, 8582, 562, 5146, 14305, 6185, -3420, -5335, -9565, -6212, -6770,
  -4449, -448, 7181, 7801, 9527, 2016, -2816, -7917, -741, -4230, -1139, 1961,
  -5816, 1505, -3447, 9398, -1835, -1445, 2835, 2706, 1800, -3687, 4917, 9006,
  9102, 11154, 4881, 5197, -4793, -9865, -893, 2866, 1443, -1412, -1901, 1009,
  2116, 11814, 137, -1934, -37, -2250, 88, 6215, -1006, -6040, -4696, -12510,
  -5296, -8173, -8221, -854, -11573, 4948, 3978, 5241, 949, -3510, 1549, 8228,
  6985, 4291, -463, 3430, 3524, -7408, 6913, 4559, -329, 1084, -3232, -3053,
  -2942, 2620, -1539, 6303, 7734, -2200, -11999, 4903, 10110, 8313, -1960, -2896,
  1309, 1857, -8671, -8183, -962, 979, -866, -105, 8483, -213, -6924, -7500,
  1791, -1448, -4253, 923, 75, -1298, 2524, 6145, 2222, 4926, 1775, 2752,
  -3762, 2524, 1513, -1977, -630, -1384, -10333, -2968, -1604, -307, 6866, 3341,
  -4494, -2318, -2855, -2045, -2696, 7855, 472, 869, 7354, -2947, -3101, 5287,
  9359, 7482, 8435, 483, -8204, 4623, -5040, 2665, 6621, 4811, 1704, -2865,
  -4136, -2514, 2258, 239, -930, -1837, 2710, 3184, 1847, 3274, 1044, 413,
  -6183, -3347, 2954, -171, -1412, -7828, 1334, -897, -3581, 6771, 2365, 9598,
  -2254, -2932, 3803, -1441, -2248, -1235, 9552, -591, -2669, 1633, -7808, -3681,
  -728, 2292, 1663, -775, 874, 528, 1216, -9314, -5089, -1262, 229, 4327,
  -709, 714, -988, 2791, -1385, 1516, -1140, -2438, -1910, -2312, -1547, -4335,
  -1254, -4855, -73, 2282, -3600, -2213, -8363, 2918, 338, -3049, -2088, 1574,
  -2339, 2712, -10289, -868, -6045, -5341, 1691, -4017, 4166, -6339, 9037, -5121,
  -667, -7794, -670, 2569, 3824, 8433, 1535, -509, 6397, 1047, -1098, 1035,
  995, -14068, -8440, -985, 1720, 3858, -5380, 3152, 181, 5433, -1890, -350,
  -631, 885, -3926, -4806, -2423, -4443, 3149, -4657, 857, -200, 3223, 5892,
  5036, 8648, -7024, -2057, 273, 7028, 6979, 3157, 5881, 7625, -1640, -626,
  -4246, -469, -484, -1460, 2497, 8269, 11944, 4660, 1770, 139, -2437, 2448,
  3927, -1914, -7216, 1387, -12636, -4930, 538, 135, 4978, 290, 8991, 7592,
  2821, -8346, 5653, -3948, 764, 2277, -1072, 2041, -520, 10639, -6334, 358,
  5060, 1139, 2335, 3589, 10296, 3989, 6608, 5784, 8892, 202, -5577, -12226,
  -666, 556, 465, -5641, -2745, 4539, 2913, 2811, -11975, -1938, -1929, 163,
  500, 8393, -6255, -2441, -5811, 2949, -17, 68, 2742, 4425, -1081, 756,
  -2243, -556, -1313, 3074, -7109, -4245, 762, 1977, -628, -5408, -6883, -599,
  1473, 5265, 7801, 4623, -513, -656, 6522, 11899, 16525, -205, 1420, -1043,
  6237, -5541, 5394, 6178, -1953, -3960, 60, 6507, 5307, 18591, 8232, 3097,
  11190, 709, -2147, 2206, -3445, -1290, -4660, 2489, 1785, 2765, -1770, -5446,
  -2192, -4778, -1319, 3306, 5149, -4646, -3245, 1953, 3912, 492, -609, 6711,
  2872, -4224, -3137, -9226, -1036, -3121, 4092, 450, -8721, -1279, 975, 429,
  -2088, 4020, -1671, -1360, 10127, 1561, 3885, -528, 5012, 7442, 13072, 3924,
  -1105, 6926, 4944, 1109, 325, -223, -738, -1543, -447, 1282, 572, -477,
  -1057, 1111, 321, -1749, 747, 1217, 512, -267, -2058, 459, -1172, -926,
  -983, 1080, 1258, -312, -1089, -1135, 1050, -1266, -1305, -1190, 136, 1516,
  349, 1269, 436, -915, -1569, -1252, -673, -95, 19, 483, 330, 615,
  619, 427, 1090, -26, 717, -705, -1400, 924, 1228, -304, -1105, -1385,
  -769, 1095, -1970, 727, -1695, 814, 404, -1163, -2007, -657, -1213, -772,
  -1535, -1134, 870, 1436, 322, -222, 1087, 1085, 1042, -301, -765, 1224,
  -2075, -782, 1000, -451, 161, -1041, 304, -1597, -1155, -57, -853, 1356,
  466, -694, 849, 642, 764, 791, -1909, 1149, -1548, 506, -1172, -2033,
  -1555, 862, -402, -287, -373, 669, 1737, -627, -1661, 1128, 1378, 585,
  -1629, 2047, 1905, -236, -2198, -1317, -473, 218, 174, -52, -1343, 274,
  -1642, -1608, -737, 1099, -547, -352, 1400, -128, -555, -242, -335, -1016,
  618, 1199, 787, 1, 1125, -1654, 1288, 763, 493, -414, -588, 1050,
  -310, 1495, -606, 1074, 1311, -626, 1224, -1258, 59, -943, 794, 45,
  -1008, 521, 190, -1282, -102, -1613, -1235, -1339, -1459, 938, -965, 733,
  1120, 794, 1053, 1283, -673, -2132, -1201, -26, -1421, -1921, -2060, -1622,
  515, -187, -1325, -2005, 625, -1763, -522, -1021, -1713, -1219, 1069, -509,
  -1730, -1980, 907, 422, 379, 1125, 1840, 1212, -821, -312, -854, 1217,
  65, 1023, -1358, -164, -446, -1145, -331, -192, 1314, 1596, -1206, 1414,
  678, 566, 1590, -1138, 1288, -1208, -1058, 717, 1678, 1744, 667, -754,
  -2044, -1682, -1847, 807, 308, 139, -900, 1101, -1337, -476, -1979, 1582,
  -1132, -801, -2184, -1704, -899, -1531, 599, 510, -823, -1268, 124, -463,
  -373, -660, -1946, 233, -36, -149, 1314, -1732, 818, 250, -1476, -289,
  -1547, 1161, -1160, -1304, -1697, 960, -1093, -777, 900, 1311, 329, -496,
  393, -1031, -1025, -1503, 528, -428, -811, -711, -1991, 99, 1177, -1178,
  -924, -893, 1304, -1862, -79, -1180, -1847, -228, -1731, -2106, -1820, 851,
  -305, 1430, -404, -1939, -353, -710, -1561, 985, 577, -439, 1257, 1526,
  -2079, -1767, -770, 111, -586, -364, -1218, -2088, 1313, -1470, -1070, -1667,
  838, -2116, -637, 450, -457, -1453, 73, 849, -930, 493, -1437, -1255,
  -1733, -359, -109, 638, 410, -876, -534, -99, -1880, 961, 177, 302,
  407, 609, -947, -847, -1139, -143, 1196, -333, -278, -735, -1313, -1545,
  -2120, -417, -235, -629, -267, -1211, -882, -1330, 765, -922, 475, -1540,
  -1698, -1082, -178, -241, -494, 1346, 1237, -1023, -815, -855, 763, -1240,
  1323, 782, -1138, 196, -54, -1817, -181, 1241, -313, 948, 657, 1006,
  434, -1113, 824, 468, -248, -250, -1508, 463, 1562, -1692, 620, 267,
  -1187, 1296, 833, -814, 773, -795, -1201, -943, -619, -403, -1539, -1434,
  -25, 465, 812, 1229, -342, -1978, 1137, -582, -1453, 653, -569, -1076,
  -1767, -1244, -98, 1302, -652, -664, 472, 426, -807, -588, -452, -728,
  -1212, -77, 232, 395, 790, -588, 1352, -1175, 581, 1373, 1169, 393,
  1179, 139, -236, 1145, -1090, 236, -999, -1008, -1717, 758, -379, -1893,
  -1487, -1782, -899, 1345, 735, -1555, -83, -666, -790, -1042, -845, -1889,
  1018, -348, -250, 35, 185, 496, -2113, 1463, 1883, -962, 90, -412,
  -2114, -310, 853, 1221, 316, -568, 164, -1486, 576, 1751, 138, 1492,
  1235, -2120, -1005, -1186, -1768, -949, -1272, 678, -1581, 478, 739, -761,
  644, 1015, -937, 1289, -321, -1836, -554, 1074, -1567, -944, -1566, 253,
  803, 1299, -1318, -978, 1125, -628, 791, -1270, -1601, 176, 1416, 160,
  1267, 1224, -1896, -1438, 337, 724, 1249, 1202, -840, 579, -1182, 1738,
  1047, -454, 1369, -171, 1184, 822, 662, 1184, -1276, 1047, -2051, -1229,
  829, -1815, -1741, 970, -691, -407, -859, -2031, -674, -1927, -478, 890,
  -1524, 896, -918, -1275, -1898, -1357, 1277, 807, 155, -37, -599, -928,
  -749, -1776, -501, 892, -1453, 1041, -1236, 659, 449, -568, 203, -1357,
  202, 899, 599, 659, -74, 946, 472, -131, 92, 788, -116, 1086,
  -1827, -449, -271, -1007, 1096, 292, 697, -739, 228, -983, 1153, -979,
  804, -704, -581, -810, -1657, 1053, 410, 460, 169, -1539, 138, 1525,
  910, -356, -1303, -998, -1350, -463, 600, -1262, -2245, -2109, 25, -931,
  1141, -320, 1156, -1557, 728, 1216, -425, -1590, -1745, 184, 836, -1309,
  1220, 1422, 1190, -1172, -713, -563, 698, 142, -1225, -43, -1255, -117,
  270, -820, -1841, -850, 512, -830, 1454, 346, 478, 709, 1233, -185,
  -608, -1923, -1104, -442, -176, -821, -774, -1612, 897, -1484, -984, -1876,
  814, -325, 1276, -130, 17, -1767, -919, -727, -325, -947, -1170, 826,
  38, 605, 1169, 898, 1110, -841, -675, -182, 961, -1448, 867, 166,
  1135, 842, 626, 96, 1338, -101, 83, 17, 333, -1762, 905, 839,
  212, 820, -738, 1047, -1061, 1375, -813, -20, -1694, -1461, -516, 1115,
  1293, -1223, 411, -1983, -312, -618, 830, 303, 1562, 118, 1326, 466,
  664, -1881, -398, -1111, 61, 805, -530, -1912, -1556, 639, -971, -437,
  629, 683, 342, 1613, -1317, 42, -1789, -773, 3430, 10531, 6052, 8036,
  10455, 7827, 8750, -2469, 1250, 5142, 11232, 7154, -2135, -1252, -124, 5382,
  10817, -5878, -5868, -2036, -3547, 470, 8464, 2280, -9038, 350, -10722, -5624,
  5978, 4565, 2803, -4167, -5306, -879, -7714, 1379, 5773, 18, -8044, -5300,
  6638, -3551, -350, 1043, -5103, -10718, -16195, -1055, 533, 4378, -3956, 6762,
  8572, 3049, -4242, 7652, -384, -13182, -6992, -89, 1242, 1455, 2435, -4432,
  -212, 13712, 10981, -2548, -2571, 4947, 2298, 7118, 11417, 3532, 1926, 895,
  5279, 751, -962, 3275, 1635, 5139, 2664, -5247, -1625, 2507, 3711, -3303,
  5789, 4691, -10403, 1340, -4603, -7742, -6166, 4306, -7381, -1093, -722, 11702,
  7280, 2545, -2046, -1332, 227, -457, 763, 7629, 7530, 1293, -2738, 7374,
  2092, 4495, 5377, 3018, 1198, -3296, 3628, -2708, 9255, -3387, 1793, 7847,
  4214, -6126, 3967, 5034, 6039, 2155, 5191, -5041, -9190, 4911, -663, -7705,
  1819, 7429, 7957, 1922, -4644, -6338, -9224, -3115, -5750, -7727, 309, 1377,
  3810, 13108, 5562, 2592, 2155, -887, -11753, 171, 4613, 3133, -217, 3386,
  3474, -546, -3911, -7931, -2721, -24, -2153, 2697, -4558, -9257, -1556, 4745,
  -299, 3669, 2750, 4128, -7017, -5915, 2087, 1285, -572, 1614, 4573, -1986,
  602, 6500, 5745, 2553, 4508, 2032, -649, 3216, 5952, 6491, 6340, -1165,
  5606, 5375, 3614, 4281, 2497, 2978, 2877, 1685, -1655, -1611, -1316, -1032,
  -1237, 3486, 4531, 2868, -7471, -11032, -5579, -4536, 3013, 11262, -1102, -10695,
  7711, 12840, -7297, 302, 8367, -7108, -14246, -3784, -2476, -7364, 3546, 1946,
  -10380, -10233, -980, 1746, 4795, 6278, 5832, 3686, -5600, 4653, 7359, 3594,
  5595, 3800, 7676, 6438, 7106, 5129, 3966, 109, 4916, 9234, 8610, -4450,
  -2438, 204, -1884, 6216, 14609, 11161, 1122, -8448, -2742, 1090, 1902, -2597,
  -18518, -4061, 420, -1433, 2757, 1129, -13640, -7419, -2185, 5480, -1710, 2597,
  1397, 3429, -12191, -5453, 3052, 4709, 5478, 3948, -152, -9337, -2104, 1388,
  2310, 5002, 824, 5545, 10449, -2166, 40, -5255, 1027, 1623, 9529, 9875,
  7378, 4566, 365, 1861, 8379, 3319, 6316, 304, 7312, 1446, 3973, -5418,
  -3226, -3038, 3977, 8359, 3536, -1641, -985, 7622, 2415, 6408, 7214, -9825,
  -1065, -1420, -3527, -767, 3098, 10221, 10216, 1542, -3786, -2996, -2535, -552,
  -2029, 2579, 2540, 2717, 4352, 10409, 10819, 1033, 4401, -1990, 4515, -11360,
  -12031, -4023, 3352, 15074, 9593, -378, -6516, -1056, -2623, 6807, 9088, -72,
  -2013, 3811, 5214, 7958, 4946, 8725, 5516, 3673, 288, 1153, 4214, 3502,
  -4005, 2975, -2375, 6125, 10042, 1799, 5603, 5564, 1975, -6137, -1694, 2219,
  4116, 4576, 8561, 10996, 3878, 893, -1514, -4390, 7994, 12165, 10170, 6487,
  -44, -6089, -7444, 2530, 1028, 7434, -1951, -9478, -11687, -2003, 9224, -1768,
  -2591, -5988, -12051, -16264, 2842, 1337, 3719, 4357, -1088, -5031, -1819, 914,
  -3015, -8251, 638, 1575, -1224, 2676, 6486, 2169, -641, 3204, -3844, 1433,
  3650, 3824, 3454, 5066, 8790, 611, 7760, 9429, 113, 5205, 8607, 1825,
  -2281, -87, 6692, 4302, 2737, 1719, 5935, 6142, 543, -308, -7635, -4179,
  -2850, 4707, -1828, 3183, 5907, 3909, 280, -2550, 10366, -744, 6759, 9771,
  291, 577, -1692, 988, 357, 5977, 1432, -5479, -4585, 8493, -2640, -1106,
  -2505, -1431, 1224, -1411, 695, -778, -1451, 188, 1590, 610, -71, 5646,
  4026, 2347, -1135, -234, -8143, -1986, 1323, 6526, -3804, 4234, 2338, -4978,
  -6716, 1230, 4064, -261, 6857, 951, 2519, -1895, 5648, 3899, -1691, 5213,
  3102, 995, -2407, -3108, 2055, 4768, 6367, 2258, -3095, -2876, 2627, 5868,
  -3805, -4497, -3802, 5336, 2383, 2549, 4253, -2217, 1211, 2636, 942, -1123,
  3355, 5826, -4341, 1200, -279, 3604, 5304, 953, 5564, 3687, 11202, 9745,
  4070, 7060, 9830, -1995, 7428, 17725, 6414, 6719, 834, 1441, 12826, 5427,
  6771, 803, 7895, 747, 5130, 434, -5879, 1123, 9078, 7668, 4405, 2590,
  7742, 8205, -5832, -9528, -187, 4076, 3723, 13773, 924, 9810, 4568, 4723,
  -445, 2037, 5896, 4046, -3867, -4455, -1006, 1315, 5195, 9677, -427, -4282,
  -4571, -2162, -3578, 1488, 4493, 1616, 10689, 8177, 9916, 2124, 1628, 9723,
  5583, -880, -1054, 69, -3725, -1668, -7309, -6605, 1619, 6144, 4476, 6955,
  2509, -2106, 5658, 3324, 3820, 4470, 7651, -1653, 874, 726, 7742, 1295,
  10199, 2788, 2760, -1226, -158, -6260, -2135, -3791, -3160, 16524, 2252, -760,
  -3095, -2180, -9365, 1261, 15777, 12661, 980, 4414, 3765, 10683, 105, 1761,
  415, 6113, 8453, 1296, 3896, 4350, 7392, 879, 3432, 9165, 4585, 7019,
  4383, 7640, -108, -1089, 4275, -34, 3599, 1391, 7078, 4319, 3481, 878,
  2649, 3249, 1865, 2324, 191, 5399, -5763, 1631, 3484, -850, 2088, 4533,
  -539, -10344, -2149, 5607, 5756, 8746, 1138, 353, -13424, -3265, 14662, 4445,
  695, -3211, 5802, -13431, -3522, 2613, 2902, -145, 1116, -5270, -3743, 1332,
  4273, 5022, 3998, 270, -477, -3717, 6017, 10737, 4020, -7143, 3459, -1574,
  7347, 2864, 2972, -3589, 2866, 2973, 10810, -881, 3357, 2578, 5178, -1111,
  8139, -5020, 2033, 7108, -3012, -138, 3469, 3106, -1136, 6978, -1003, 7241,
  5602, 6240, -305, 3168, 8875, 1753, -1345, 3557, -1316, -3434, 176, -2539,
  -2098, 3866, -3774, 5993, -2258, -8447, -3814, -2707, 266, -2407, 1099, -1668,
  762, -550, -175, 968, 1025, -1346, 918, -1719, 1197, 1370, -959, -1462,
  -968, 336, -829, 187, -562, -802, 247, -330, -584, 241, 707, -2018,
  -1695, -939, 807, 75, 1552, -352, -704, 54, -1194, -409, -998, -2132,
  -897, -1055, -82, -219, 1224, -532, -368, -455, 524, -1882, 827, -1308,
  574, 283, 71, 224, 949, 932, 642, -1650, 100, -962, 90, 602,
  -1420, -1661, -758, -472, 544, -1957, 249, -835, 558, -893, 578, -1110,
  -48, -111, 417, 894, -228, -541, -581, -1949, -1759, 320, 1216, 548,
  -316, 290, -438, 440, 574, -1323, -2056, -1879, 568, 1034, -1522, -1505,
  -305, -1411, -1321, 1655, -1389, -1748, -525, 310, 2018, 1282, -89, -1296,
  16, 327, -1362, -939, -501, 1386, 1067, -1592, 1887, 102, 545, 601,
  -1450, 1026, -1698, -459, 1687, 1297, 654, 1215, -1324, 334, -950, -491,
  833, -462, -910, -1991, -1507, -1864, 776, -2015, -251, 773, -1446, -911,
  -332, 779, 932, -258, -765, 1608, -775, 867, -923, 1152, 529, 986,
  -2128, -2019, -536, -1480, -1971, -986, 1191, -1518, -12, -1506, 1095, -1388,
  -1703, 919, 618, -1856, 242, -828, 1207, -229, -1105, 665, -381, 851,
  -598, 35, 1037, 1264, -1877, -684, -1525, 1049, 569, 1338, -123, 1214,
  -758, -1256, 430, -1357, -1761, 751, -163, 397, 253, 1034, -655, 1488,
  -1512, -489, -762, -865, -1128, -677, -176, -1079, 177, -997, -31, -1290,
  -1979, 154, -519, 369, 1656, -1456, -444, -1100, 962, 513, 872, -1250,
  354, 205, -2069, 475, -961, -341, 1242, -893, 1251, -1156, 1414, -561,
  400, -942, -1568, -755, 719, -842, 426, -773, 88, -1675, 1643, 181,
  63, 1420, -580, 1587, -751, 992, -1584, -231, -958, -977, 915, 1269,
  44, -250, 1364, 87, 1187, -1324, 782, 530, -108, -521, -308, -1460,
  -1283, 1205, 1341, -1527, -1113, -1448, -1314, 416, 252, 304, -1589, 1350,
  -1983, 783, -595, 738, -1196, -877, -1430, -1935, -585, -594, -1005, -1023,
  819, -1325, -1838, 902, 561, -1709, -1582, 1269, -304, 994, -236, -192,
  -1640, 1287, -1564, -1498, -1116, -530, -693, 159, 640, 716, -255, -1116,
  828, -1055, 1107, -410, -145, -1371, 695, 954, 217, -533, -1699, -1513,
  -87, -590, 1433, 1104, 954, -1046, 76, 1017, 146, -1833, -1242, -1763,
  -1396, 57, -219, 949, 410, 1183, 505, -1343, 345, 142, 475, -251,
  -834, -822, -1494, -1107, -628, -660, -1614, -136, 1648, -1169, -1128, -665,
  281, 247, 239, -1612, 98, -1119, 136, -280, 808, -460, 594, -1165,
  947, 329, -648, -189, 859, 218, -898, -1580, -79, 193, -1220, -642,
  87, 350, -782, 808, -1412, -872, 558, 838, -1832, -274, -1563, 834,
  -377, -1979, 58, -338, -541, 355, 755, 457, -98, -1328, -9, -347,
  -323, 440, -140, 745, -1240, -563, 1409, -2014, -418, 171, -1568, 385,
  -1400, 1439, -1067, 1304, -271, 921, 463, -182, -1286, -1478, -448, 178,
  989, -859, 1405, -225, 403, -747, -871, -1465, -406, 1429, -389, -1628,
  -248, -349, -617, -731, -631, -1181, 1324, 542, -1323, 1187, -920, -49,
  -849, 198, 1057, 105, 355, -1503, -871, 861, -1105, -270, -742, 272,
  -212, -1930, -1747, 836, 325, -48, -1332, -710, -2014, -1715, -513, 935,
  -23, 6, -1039, 1021, -1281, -1883, 607, -166, 697, 279, -369, 99,
  194, -1056, 7, -1502, -790, -1053, 1020, -450, 1224, -1362, 639, -5,
  68, 718, 988, -278, 216, 1351, 848, -1846, -208, 927, 191, -1076,
  -1709, -400, 521, -291, 1246, -931, 287, -594, -261, 1766, 813, -933,
  -414, 1063, 1207, -122, -1529, 1011, 1320, -905, -1118, 982, -1468, -2033,
  535, -1972, -477, 87, -474, -1121, 586, 17, -1192, 243, 1247, 637,
  930, 1262, -941, -1177, -728, -103, -322, -1100, -486, 790, 425, -1526,
  -660, 630, 1177, -159, 575, 127, 1339, -1821, 1056, 1189, -1080, -1810,
  -1192, -1238, -1287, 1101, 1605, 637, 1005, 60, -537, -1424, 706, -2020,
  -1101, -1058, 622, -796, 566, 1175, -1873, -1414, -937, 504, -438, -1461,
  -517, -2027, -1804, 1429, -468, -951, -1944, -117, -1399, 579, -837, -848,
  942, -1069, -1412, 1105, 174, 1684, 1337, 1380, 593, -735, -451, 148,
  -594, 1697, 1756, -1025, 898, 1596, 1373, -404, -600, 1509, -1004, -1963,
  -1488, 706, 1358, -1138, 485, -1160, -1522, -1199, -707, 607, -1386, -1071,
  -1717, 1132, -288, -1330, -567, 1884, 926, -1535, -1416, 68, -1246, -983,
  -12, -1185, -464, 631, 891, 1424, -777, -1820, -1263, -1957, -1699, -773,
  1436, -551, -148, -1542, -346, -1798, 1016, 80, 244, -567, 219, -205,
  111, -424, -298, 701, 34, -577, 270, -1113, -1287, 950, -1598, -335,
  1020, -1002, -1144, -771, -1372, -820, 1413, 148, 1028, 1118, -2010, 1337,
  663, -468, 434, -336, -1317, -997, 1129, -1561, -1090, 201, 1349, -1338,
  1245, 68, 1104, -374, 215, -118, 1264, -298, -128, -1310, -1541, 1226,
  925, -1858, 332, 283, 238, -1112, 873, -1241, -1982, -864, -102, -1894,
  -1567, -1406, -138, -638, 712, -1138, 300, -1375, -1496, 901, 746, 909,
  226, 311, -645, 735, -38, 445, -1598, -21, -965, -1950, 195, 753,
  1084, -662, 1239, -559, -529, -555, 7925, 2283, -1884, -4485, 2354, 2167,
  1909, -1097, 2358, 4730, 6063, 2265, -433, -148, -3829, 6708, -5952, 5457,
  7660, 1648, -4016, 4743, 8457, 4038, 7134, 6919, 3620, 109, 6588, 10174,
  2869, -4143, 117, -6, -252, 941, -3582, -2645, -535, 7276, 1195, 761,
  -2926, -12094, -7378, -298, 3280, 1277, 1252, 3699, -1153, 2367, -1089, -4885,
  4478, 5736, 11690, 5032, 927, -6480, -4472, 1719, 3516, 196, -2152, 659,
  -1053, -262, 1848, -1922, -5560, 6922, 1966, 589, -424, -495, 2305, 931,
  7895, 2681, -4731, 3097, 1765, 820, 5425, -2660, -2408, -5345, 2590, 2106,
  -3816, -6126, -5825, -4277, 2206, 9355, 711, -1613, 3759, 5107, 4785, 374,
  -917, -1832, -1370, -796, -143, 4280, 5825, 2177, -2341, -995, -3364, -2482,
  -13542, -2994, 11512, 953, -4544, 3884, -3279, -6098, -975, 1491, 4808, -649,
  -4145, 459, 5170, 6702, 5338, 2958, -2255, -1960, -802, 1518, -515, 1063,
  -4344, 992, -6137, 689, -1183, 8070, 1370, 1747, 1820, 1028, 404, -4017,
  3227, -1380, 2461, -7402, -2741, 7039, 5153, 765, 515, -2794, -1328, 2928,
  3852, -1525, 726, -2463, 536, 2748, 2022, -2251, -9944, -2993, 4603, 8153,
  215, 2785, -785, -4207, -608, 1926, 3469, 1296, 1288, 1233, 1119, -663,
  745, 1475, 5030, 3310, -19, 4831, -5434, 3163, 5392, -1648, 172, -845,
  193, 389, 809, 4230, 639, 671, 4616, 4169, 1064, 1031, -3003, 978,
  7972, 14644, 13211, 5180, 4130, 2259, 10554, 9005, 2409, -3221, 731, -451,
  2128, 2912, 2668, -2907, 3265, 13979, 803, -2178, -1778, -998, 2117, 5957,
  4561, -2079, -842, 2376, 11599, 19883, 2977, 834, -114, 1883, 1644, 2060,
  546, 1214, 3972, 870, 1696, 5962, -3185, 5555, -3338, -1307, 988, 1337,
  1720, -3399, 3211, -1726, -905, 3672, 644, 992, 2697, 12472, 633, -2068,
  -957, 2139, 4715, 14252, 6926, 3136, -2752, -953, 3058, 12922, 8483, -6317,
  -1421, -4337, -4017, 3237, 74, 2030, -2644, 1576, -742, -1429, 3323, -1910,
  2832, 9919, 6109, 8222, 980, 1909, -5938, -2295, -640, -830, 786, 2160,
  -10603, 4237, -6499, -5670, -15659, 2351, 5277, 2422, 2975, -1611, 1502, -6207,
  -2747, 6143, 3923, -1737, -1245, 4816, 552, 7412, 3092, 2952, 1609, -821,
  -4410, -5433, -4153, 3928, 6995, -1193, 2202, -4414, 1872, -985, 1289, 988,
  15166, 4535, -1534, -1657, 3792, 3523, -927, 500, 2107, 1994, 2860, -2697,
  -3776, 675, 5533, 4172, 6806, 11677, 8778, 4827, -4509, -4267, -7168, -8930,
  -546, -1951, -327, 176, -200, -2931, -4904, -1200, 6023, 7787, 179, -408,
  6988, 4779, 86, 1804, 1678, -7280, 1374, 2549, 3507, -2370, -3341, -7912,
  850, 3581, 7330, 13559, -338, 2051, 1847, 4808, -1464, 922, 15337, 80,
  3013, -3735, -6422, 2874, 8590, 8766, 1552, 4319, 4866, 4006, 14053, 9838,
  -3580, -12770, -280, 961, 5101, 157, 4393, 1406, -526, 5210, 3903, 1229,
  -1637, 665, 4078, 3778, -377, -2918, 6771, 2406, 1076, 2650, 3596, -787,
  -6110, 590, -5371, 7737, 5348, 8511, -1688, 668, 2045, 3463, 6090, -1197,
  -149, -3020, 1783, -3082, 6309, 7139, 5873, -453, 1806, 1167, 2123, -59,
  -1405, -1816, -1007, -1477, 1212, 1576, -1295, 1352, 3635, -4629, 539, 40,
  4453, -535, 2378, 682, -5533, -4963, 851, 661, 4005, -1063, -691, -5711,
  -1154, 3114, -1509, 2024, 5572, 6489, 2441, 646, 1270, 74, 5877, 8929,
  4758, 792, 4101, -478, -52, -1351, 1655, 621, 4068, 5053, 4132, -1898,
  -5612, 2264, -11866, -5102, -4944, 3661, -5208, -2139, 651, -3502, -6071, 5102,
  3033, 3426, 6230, 7564, 3466, -547, 3174, 385, 1152, 6837, -1479, 76,
  1518, -259, 1082, 557, 1351, 4483, 4092, -887, -2467, 2677, -1811, 911,
  -2206, 651, 2338, 2234, -2120, -6771, -5486, -6776, -5695, -3244, -1298, 6218,
  2400, -5955, 307, -1893, 548, -1291, 1422, 833, -3819, 1515, 4070, 4916,
  105, 3620, -2424, -142, -920, 2031, 120, -3435, -2881, -9277, -1177, 879,
  1962, 802, -2872, -5546, -1755, 3067, 8787, 6987, 4528, -5315, -63, 2428,
  2118, 4715, 1839, 3228, 984, -7862, -985, 4085, 6417, -529, 8056, 1814,
  3638, -836, -6172, -3220, -9776, -3591, 377, 4548, 1042, 1077, 3541, 1991,
  3064, 608, 2862, 5271, 2518, 5425, 3093, 64, 2220, 7937, -10354, -6540,
  -3070, -2769, 1547, 2207, 4681, 5228, 10610, 6892, 14507, 298, 1925, 236,
  -2921, 6299, -1782, -85, 1910, -3910, 4306, 1280, -971, 611, 6145, 7798,
  7520, 903, -2363, -3698, -2325, -7340, 2835, 8279, -2138, 596, -4245, -4603,
  -6953, 2570, 3839, 11796, -1211, 1876, 3429, 3537, 4591, 1345, 1879, 690,
  2909, 7191, 2821, 1340, -6701, -1512, 3971, 4344, 5940, 4192, 1587, -1892,
  484, 723, -509, -2298, -1879, 1348, 3949, 2026, 6840, 4873, -1084, -1689,
  -4593, -1008, 4953, -1318, 8041, 5104, -6260, -4409, -2781, 7848, 3387, 4211,
  -5621, -2041, -5581, 6552, 297, 9891, -629, -1768, 35, 6053, 5966, 103,
  -7449, -11849, -1893, 9958, 2306, 4533, 234, -445, -2659, -602, 4428, 6198,
  -1044, -1423, 1921, 1274, -4147, -1224, -1091, 7967, 650, -928, 792, -3404,
  -1367, -7297, -2582, 3087, 1204, 3941, 5564, -6328, -3334, 377, -787, 4455,
  -2366, 1610, 1183, -1151, 2712, 14224, 3063, 2531, 1098, 2045, 4269, 3091,
  1585, 1513, -2732, -51, 4643, -2286, 4215, 708, -1761, 839, -595, -483,
  99, 387, -77, -1832, 467, -310, -2555, -1148, -675, -1853, -968, -2016,
  -2064, 619, -367, -277, -2308, 1375, -277, -365, -862, 2532, -708, -82,
  597, -47, -1329, -280, -792, -733, -585, 276, -640, -199, 1055, 88,
  -1490, 44, -290, -2173, 2463, 1294, 719, 864, 467, -2028, 768, 820,
  -2075, -2532, -254, -1155, -2083, 1252, 840, -2124, -2513, 1513, -1144, -463,
  -2072, -1720, 19, 887, -1920, 948, -1524, 1234, 434, -2286, 689, -1343,
  -91, 302, 824, 17, -1282, 622, 1615, -885, -1754, -1097, -856, 407,
  1052, -1366, -249, -997, -577, -949, 1213, -1156, -1227, -2080, 293, -1696,
  443, -2445, 515, 1250, -128, 283, 1149, 462, -87, -117, 2414, 131,
  1300, -613, -2290, 182, -125, -1578, 439, -757, -612, -2151, -872, 515,
  -340, 1583, -375, -1401, -1628, -2179, 1289, 1233, 259, 2242, 1306, 238,
  -421, 1021, 235, -1970, -1346, -1102, 728, 987, -2342, -2081, -500, -1241,
  -199, -574, 26, -1942, 761, 374, -705, 941, -737, 19, -1934, -1049,
  -228, 276, 20, -1571, -989, -2120, -1785, -1921, 452, 1013, -1910, -1037,
  -1125, 1600, -291, 1941, -1989, -1895, -1573, -856, -135, 2016, 1476, -740,
  1914, -738, -2265, -1932, 150, -1584, -583, -1557, -1793, 939, -2587, -1724,
  493, 583, -861, -1714, 584, 621, -1921, -22, -157, 1031, -2065, -1565,
  -1385, -1690, -2046, -2356, -1798, 224, -2097, -247, -639, -684, -507, -1232,
  -1195, 821, -271, -407, 825, -21, 174, -809, -598, -1208, 1050, -601,
  -475, -692, -1717, -60, -1450, -1231, -1018, -1981, -1493, -2688, 2001, 1,
  375, 685, -1251, -167, 817, -89, -1072, 757, -1475, -1897, 279, 403,
  -183, -875, -1486, -232, -2077, -304, -205, -485, -1231, 795, -2015, 901,
  -971, -447, -1250, -1969, -2035, -1567, -94, -186, 1049, -272, -590, -1056,
  660, -600, -1725, -2217, -1044, -1223, -1927, -2282, -1419, -711, -892, -440,
  -2036, -1028, -2087, -379, -1729, -1175, 399, -1533, -361, -201, 612, 722,
  -1595, 624, 1755, 479, 312, 1517, 190, -2427, -937, -857, 854, 448,
  75, -2046, -2234, 1140, 2091, 1961, 1632, -1177, 153, -2292, -1137, -31,
  -1779, 215, 1770, 1090, -2140, -539, -1101, 633, -2208, 681, -196, 765,
  -1275, -2530, 1094, -1957, -401, 307, -350, -1935, 460, -304, -151, -96,
  -1401, -1638, -184, -2148, 1180, -688, -1144, -169, 856, -690, -1750, -975,
  719, -836, -881, -1111, -1529, 582, -2057, -1177, 256, -337, -2320, -254,
  -473, 2594, -1704, -416, -272, -1227, 748, -402, -449, -1257, -194, -1919,
  -1715, 317, -1760, 40, -1322, 1174, -2254, -114, 1120, -116, -1231, 1134,
  -487, -968, -1927, -793, -1236, -2095, 114, 1917, 973, 172, -1181, 1010,
  -1182, 453, 233, -1175, 714, -283, -1803, -757, 142, 1155, -1061, -297,
  -1014, 2391, 2267, -632, 1721, -582, -2649, -191, -2187, -1855, -123, -1352,
  -707, -1079, 201, -558, -385, -1498, -989, -1305, -2349, -816, 1941, -94,
  80, 619, -132, 338, -491, 2276, -914, 226, -477, -1575, 55, -830,
  -1086, -2055, 613, -721, 715, -1049, -489, -398, -1655, 1960, -2308, -1441,
  675, 785, 242, 1368, 1777, 1328, -1426, -2359, -248, -861, -1650, -422,
  1036, -1332, -1648, 116, -1297, -1681, -155, 1071, -740, -567, -217, 2496,
  -1619, -399, 1169, -938, -834, -771, -564, 988, 918, 632, 1052, -2457,
  -2143, -802, -518, -412, -1050, 1036, 965, -1808, -509, -828, 1014, -2221,
  -1085, 562, -294, 1632, 1549, 819, 152, -1068, 380, -1934, -128, -443,
  723, -738, 1385, -930, 1075, 684, -272, 314, 618, -1689, -1659, -466,
  2087, 796, -321, -459, -745, 460, -2612, -1122, 834, -455, -1706, -1025,
  -1194, 781, -1349, -1096, -660, 723, -1470, -695, -1825, 519, 505, 255,
  -599, 130, -2407, -2474, -506, -165, 917, 2104, 502, -2434, 615, -441,
  1733, -402, 991, -2188, 684, 659, 695, -474, 1101, 2181, -1983, -901,
  357, 849, -882, -2186, -1386, -1326, -2016, 858, 1226, 969, -2064, -1263,
  296, -1932, -1934, -1345, -1851, -938, -1863, -973, -466, -783, -765, -645,
  392, -1094, -2018, 590, -1246, 2669, -422, -915, 720, -1342, 551, -1522,
  -128, -2136, -1408, 995, 285, 1141, -770, -2443, 142, 1154, 1625, -950,
  -2457, 1542, -437, -1546, 1488, 140, -2300, 90, -1250, 381, 532, -1463,
  764, -1333, -1589, -581, 1088, 1262, -548, 408, -1168, 922, -1500, -2074,
  1219, 180, -1012, -2158, -596, -1699, 300, 1490, 2065, -963, 1684, -1635,
  -1649, -102, 309, -393, -2246, 994, -2188, -557, -1310, -478, -2092, 687,
  -1377, -2350, -932, 8, -2284, -329, -353, 968, -1720, -2738, -1827, -559,
  -329, -1327, -2102, -748, -204, -1432, 945, -111, -1558, -1029, -203, 586,
  2816, 1788, 132, 1459, 1757, 633, -1373, 2037, 41, -1061, -702, -1117,
  -2280, -389, 74, -269, -1580, 75, -99, 381, 718, -672, -1394, 1179,
  2128, -735, -1214, -2110, 82, -962, 507, 1993, -1322, 332, -1366, 333,
  -120, 439, -773, 1002, -602, -1783, 630, 785, 1444, -519, -1075, -1644,
  -1368, 2810, -225, 1934, 876, 877, -1765, -98, -612, 818, 831, 2188,
  -1277, -116, -1131, -2045, -553, -1494, -1435, -45, 1149, 180, -2142, -1637,
  1580, 632, -634, -1219, -1543, -1349, -859, -347, 401, -2043, -406, -1574,
  -203, 762, -1502, -359, 669, 300, -367, 1113, 190, -1940, -2110, -1057,
  -385, -570, 305, 908, -556, -1701, -987, -260, -770, -743, 1413, 567,
  -928, -1011, -1351, -780, -1129, -1530, -1493, -269, -1596, -1302, -2360, 1539,
  390, 334, 1145, -2298, 402, 57, 1134, -1311, -1183, -920, -948, -612,
  -1110, -2049, 43, -467, -700, -2466, -1240, -2327, -134, 970, 589, -241,
  -2087, 490, -162, -2172, -1373, -702, 1189, -322, -139, -1753, -890, 1166,
  28, -251, 1460, -1846, -714, -1507, 1519, 391, -1207, 1140, -1609, -2488,
  -801, -695, 4, -1368, 176, 144, -708, -384, 1559, -836, 625, -502,
  -1599, -59, 947, -761, -2096, 150, -1932, -1390, -764, 1730, -1721, -1159,
  527, -1228, 291, -61, 340, -1907, -1392, 874, -1347, -2033, -632, -1133,
  495, 1136, 1709, 435, 275, -71, -243, -314, -1389, -34, -1801, 817,
  -2222, -122, 1428, 513, 1172, -227, 806, -976, 1354, -1006, -196, 353,
  -2460, -469, -1525, 835, -640, -1304, 986, 333, 740, -1860, -2256, -229,
  360, -1707, -2643, 116, -1030, -599, -444, -364, 542, 695, -2356, 116,
  -745, -1562, 906, 1641, -279, -895, -422, -1685, -139, -709, -162, -513,
  -145, -1584, -1344, 237, 993, 880, 458, -2415, -154, -80, -893, -1331,
  -1975, -1669, -2463, -2550, -938, -2143, 955, -2308, -1956, -168, -89, -794,
  -1582, -490, -1382, -977, 68, -825, -1825, -757, 1169, 1224, -60, -749,
  -600, -1074, 1002, -1310, -654, -841, -1236, 1681, -1346, -2025, -1316, -610,
  360, -379, 1106, -1263, -1665, -277, -348, -1525, -501, 570, -1222, -506,
  991, -1044, -1740, -1260, 262, -939, 1104, 1432, -969, -873, -566, -574,
  -2247, 858, -330, -1478, 766, -168, -2116, -1773, 584, -957, 511, 1132,
  -1206, -1105, 330, -1104, 288, -490, 334, -1084, -293, -273, -1098, 975,
  838, -1115, -725, -2374, -2127, 88, -757, 1646, 1150, 762, 1087, 373,
  1276, 383, -257, -2300, -1706, 83, -224, 948, -1688, -781, -1345, -1342,
  666, 331, 381, 697, -231, -677, 275, -1815, 1163, -1900, -533, -765,
  -1906, -1798, 265, -1490, 12, -668, -1669, -822, 407, -2481, 356, 226,
  -501, -989, -423, -1898, -2236, -1115, 734, 937, 126, -1627, -282, -820,
  -253, -270, -797, 632, 1469, 552, 1501, -812, 1255, -1069, -2211, 1509,
  -1308, -1098, 649, -1393, -939, 675, -114, -1533, -166, 516, 60, -1493,
  322, -768, -2319, -1910, -460, 336, 444, 606, -92, -1844, -337, 822,
  -1417, 885, 1673, -1809, -1330, 835, -972, -1125, -1735, 27, -907, -1236,
  1575, -305, -345, -989, -751, -960, 913, 1564, -39, -689, -190, -1086,
  795, 391, -2198, -727, -395, -110, 56, -280, -2682, -1731, -2316, -388,
  617, -1733, 220, -606, 451, -2569, 435, 1604, -484, -1110, -950, -1479,
  -1752, -461, 1456, -243, -1915, -295, 43, 491, -669, 936, -110, -660,
  513, 519, -1128, 1342, 309, -930, -1114, -1011, -1552, 171, 1552, 1575,
  695, -2574, 551, -2140, -1841, -1018, 864, -827, -344, -1212, -733, 356,
  1275, 1478, 829, -1767, 325, -573, -2362, 290, 602, -1688, -1466, -901,
  824, 573, -1734, -1217, 1227, 404, -1552, 533, -1020, 213, 1374, 1194,
  -1458, 1304, 1245, 214, -654, -1511, 191, -1691, -1510, -1790, 1078, 408,
  858, 161, 141, -1669, -847, 363, 381, -1630, -118, -2031, -2554, -606,
  -2106, -451, -630, -2286, -2283, -1598, 207, -1462, 939, 1363, 1750, -1377,
  -287, -1187, -358, 181, 1401, 1188, -1134, -544, -1749, -852, -1445, 442,
  -856, -2142, 761, 42, 518, 1574, -5, -592, -1958, -2536, 248, -2093,
  -872, 373, 366, 317, -1847, 371, -2501, 1487, 1457, -438, -1922, 581,
  434, -249, 53, -1529, 1034, -1344, 174, -2571, -2514, -1194, 15, -203,
  557, 957, -1034, -2404, -1403, 721, -891, -1393, 28, -765, -1719, -911,
  642, -925, -1145, 135, -469, 498, -918, 1100, -1572, -2220, -158, -2275,
  391, 699, 288, -2117, -1231, -2490, -1256, 913, -1384, 1156, -381, -2623,
  -1041, 106, -2419, -870, 306, -923, -2160, -861, -1261, -1511, 301, -810,
  -195, 1411, -1421, -2396, -1131, -246, 658, 575, -1707, 676, -1312, 156,
  -204, 516, 1462, 1310, 1598, 503, 1583, 926, 420, -2288, -1167, -2123,
  305, -1139, -1006, -915, -636, 995, -426, -1513, -1157, -1039, 1205, -1199,
  -536, -756, -2284, 806, 577, 366, -2119, 141, -1475, -1218, -1165, 359,
  1186, -77, -1840, -141, -1096, -1837, -1438, 452, -958, -1959, -491, 789,
  88, -303, -1096, -450, 801, -1442, 730, 1090, -1192, -1113, -2401, -1873,
  -1223, -1434, 725, -1089, -1348, -1877, -353, 214, -1108, -1219, -1015, -456,
  -1644, -1064, 108, -1874, -1169, 1221, 1120, 701, -446, -1732, -66, -998,
  -1141, 555, 192, 150, 859, -1499, -1867, 1434, -1592, -1693, -1160, -1372,
  -837, 709, -1710, -856, -1826, -1506, -1667, -551, 872, -249, -1690, -2456,
  -911, -859, -1700, 830, -1154, -184, 494, 829, -304, -514, -1218, 1300,
  91, -1489, -2063, -1535, -1732, -2277, -1718, -1670, -2137, -1614, -2547, -600,
  -1826, 1448, 1733, -652, -1630, 33, -1482, 957, 509, -290, 555, -256,
  -1863, -1449, -1704, 1518, 804, 48, -847, 284, 421, -1675, 626, -1930,
  -1756, 756, 890, -1001, -1588, -1486, -1695, 842, 958, 214, -607, -1230,
  -350, -559, 640, -435, 157, -72, 1781, 393, -381, -2692, -20, 323,
  1480, 633, 456, -392, -2189, -1858, -2205, -1499, 871, 1019, -267, -1429,
  -1406, 187, 395, -1930, 1041, -1212, 972, -2122, 621, 308, -616, -1808,
  169, 422, -718, -2006, -1437, -2226, 385, -519, -854, 306, 536, -2332,
  -1971, -1963, 247, -1533, -310, -543, -1917, -318, -253, -1718, -1392, -85,
  -351, 506, -697, -1381, 824, 592, -2781, 138, -307, 104, -2104, -1505,
  -2227, -310, -2208, 406, -708, 568, 733, 234, 327, 814, -1890, 1113,
  -2139, -258, -2227, -256, 569, -1420, 363, -2363, -1901, -1991, 1036, -2010,
  396, -586, -1134, -1208, -1805, -1433, -3067, -1194, -2365, -2215, 518, -1570,
  723, -1854, 201, -2094, -996, -992, -2226, -2192, -437, -2821, -1221, 942,
  1535, -2494, -40, -310, -2099, 923, 1364, -2075, -498, -1251, -1474, -836,
  -53, -1778, 1244, 287, -1142, -1377, -765, 601, -870, -1094, -2546, -1532,
  -2617, -1308, -1131, -2499, -1645, 683, 423, -2808, -1838, -611, -1420, -1903,
  -1479, -1517, -277, 340, -2115, -3048, -522, 450, -1569, -1905, -204, -1845,
  -1950, 1561, -1193, -2275, -183, -1955, 484, -1480, -2534, -1287, -1642, -1272,
  -142, -363, -2171, -758, 941, -485, -1528, -547, -302, -2792, 112, 909,
  1185, 894, -485, 217, 729, 671, -1667, 344, 1407, -2779, -424, -1146,
  422, 453, -1797, -971, -1735, -1480, -1737, -163, 409, -248, -2722, -297,
  -1110, 27, -2076, 622, 1081, 151, -411, 833, 651, 1236, -1209, -343,
  -625, 269, -1203, 584, 1778, -106, -161, -223, -321, -599, -2340, 463,
  1055, 949, -162, -1058, -1888, 186, 1308, 875, 1673, 1600, -937, -63,
  -1580, 1607, -867, 2399, 20, 299, -1622, -87, 766, -156, -1090, -1594,
  -406, -1846, -1407, 778, 361, -1190, 960, -2095, -1968, -2480, -901, 732,
  -1596, 472, 391, 358, 893, -58, -1496, -1306, -1597, -631, -2431, -1310,
  -1657, -1831, -213, 370, -2373, -1142, -1665, -1553, 169, -333, -646, 531,
  -1951, -2032, -142, -102, 350, 440, -1066, -1206, -546, -849, -1776, 22,
  -611, -2539, 87, 1406, 1515, -1537, -542, -1341, -601, 1191, -538, -1814,
  -1108, -1520, 758, 283, -1585, -1572, -159, -270, -2190, -1242, 81, -2619,
  -1895, -1800, 80, -1730, 220, 98, -1802, -2138, -854, -1306, 686, -2843,
  -2342, -412, -1234, -351, -328, -1507, -3069, -2045, -3090, -1324, -2167, -435,
  386, -1804, -1222, -1564, -2287, -506, -1785, -1274, 26, -1645, -2763, -2005,
  291, -2346, 899, -1334, 235, -640, -845, -134, -991, 407, -915, -2034,
  -1603, -2907, -698, 435, 520, 428, -2094, -1742, -1930, 722, -456, -2788,
  -1464, 344, 30, -1860, 91, -1714, -1329, -236, -2174, -421, -2591, -1806,
  -1205, 259, 566, -1768, -264, -532, 678, -2616, 453, 504, -597, -1241,
  -1753, 1098, 837, -1285, -1616, -1925, 1263, -1281, 82, -1953, 412, 504,
  -1060, -1529, -1565, 868, -663, -2041, -1153, -59, -828, -1268, 777, -893,
  -1114, -2441, -1732, 388, -684, 1235, -759, -2245, -2722, 403, 216, -454,
  1062, 272, -1191, -2371, -1873, 209, -1215, 1499, -1064, -1979, 256, -2130,
  -88, -863, -2013, 757, -302, -310, 1045, -962, -1528, 386, -2367, -20,
  -2721, 1048, -1112, -631, -1402, -2257, -1428, 130, -559, -918, -2429, -2373,
  935, -926, -1971, -1256, -637, -205, 82, -447, -2002, -2887, 42, -777,
  -1337, 1203, -322, -928, -380, -976, -486, -1918, 883, -2859, -1734, -1947,
  258, -2308, 948, -122, 196, 219, -304, 213, -1019, 794, 697, -371,
  264, -2279, 12, -1204, -1352, -1208, 185, -2198, -2756, -1439, -233, -1384,
  -1947, -2087, -2000, -869, -1956, -13, -912, 1052, -626, -1585, -198, -1487,
  -2633, -297, -1439, -2062, -2308, 185, -1197, 364, -1766, -1433, 999, -2525,
  -1008, -1879, 562, -54, -1137, -1456, -329, -2051, 1339, -1060, -2538, 1028,
  -1880, 260, -1641, -1935, -2330, -187, -1754, -2022, -2287, 291, -2022, 687,
  -1498, -1963, -264, -2686, -427, -3026, -1087, -1099, -1524, -1608, -17, -1825,
  -1924, 258, -2029, 125, -2993, 194, 625, -139, -2749, -1212, -1589, -826,
  479, -1594, -438, -580, 529, -951, -833, -471, -78, -1730, -2017, 1255,
  -1523, -1761, -538, 2412, 1646, -933, -1866, -349, -1635, -553, 158, 231,
  -2430, -59, -2093, -93, 464, -178, -1134, 382, -2113, -438, -193, -663,
  -1177, -807, -2743, -581, -646, -2079, -757, 22, -795, -1369, -2316, -1313,
  -2556, -2462, -34, -2985, -1616, -1347, -1600, 90, -1800, -967, 1052, -1996,
  742, -1808, -1016, -50, -944, -1362, 515, -1164, 1107, -1204, -128, -194,
  -1905, 814, -485, 675, -29, -1056, -384, -293, 525, 667, 368, -1494,
  -787, -164, -772, -1299, -933, 206, -2104, -805, -2437, 45, -697, -798,
  -1656, -114, 90, -648, 91, -419, -39, -1685, 493, -1138, -1731, -401,
  -1129, 1122, 231, -123, -688, 333, -317, -258, -1801, -1913, -1458, -1421,
  -1547, -1512, -2268, 350, -148, -541, 722, -156, -1112, -1049, -1860, 95,
  -2213, -2436, -1514, 223, -1642, -1520, 536, -1120, 156, -2123, -2673, -1985,
  59, 221, 276, -529, -2355, -346, 1151, -408, -2459, 2572, -1941, -3510,
  -2953, -1051, -877, 297, 936, -554, -1667, -948, 173, -2112, 1330, -146,
  793, -569, -2151, -765, -259, -486, -366, 7, -57, -1973, 1115, -991,
  495, 406, -1070, -2326, -591, 1896, -1533, -1722, -3086, -873, -16, -3331,
  1222, -554, 1547, -2221, -1448, 265, -1859, 1914, 273, -2025, 677, 486,
  -822, -1566, -2811, -262, 837, -303, -365, 940, -3194, -3334, -2568, -2993,
  1672, 56, 432, -864, -209, -538, -719, -1406, -105, 156, -80, -251,
  28, -252, 151, 1046, -874, -3056, -1751, 425, 682, 624, -1668, -3638,
  -2437, -444, 1356, 48, 420, -680, -2780, 325, -50, -1596, 848, -2822,
  1996, 911, -3199, -1818, -751, -175, 2917, -315, -298, -3914, 994, -97,
  337, -850, 864, -1408, -2503, 553, -1257, 888, -2557, -1253, -709, -2675,
  -1149, 1537, 595, -3031, -2832, -2314, -948, -519, 1087, -874, -1870, -81,
  -329, -1233, 1679, -2158, 617, -2236, -1152, 644, -2068, -247, 347, 1023,
  -1617, -1984, -2228, -640, -4592, 109, -2001, 282, 629, -409, -2418, -198,
  -1677, 1908, 184, 279, -3143, -2620, -2410, -1945, 653, -1123, 261, -79,
  -3109, 224, 2370, 596, 157, -1342, -1848, -2918, -1708, 1412, -589, 62,
  -1484, -3071, -1549, -316, -873, -1309, -2776, -93, -2892, 631, 175, -389,
  581, 1704, 1297, 1490, -1781, -2322, -1562, -556, 2037, 1285, -1944, 1350,
  -632, -1344, -409, -1276, 1435, -1013, 781, -310, 1873, 307, 391, 915,
  -1470, -2652, -33, 1212, -1175, 1623, 2061, 1088, 159, -1344, -1027, 255,
  -554, -476, 919, -619, -1149, -1539, 353, -1105, 2193, -1105, -1353, -1907,
  130, 488, -2805, -1839, -1200, -48, -3370, -935, -2210, -1957, -845, 422,
  453, -444, 214, -751, 292, 289, 577, -2033, -1077, -1930, -418, 431,
  256, -355, -1206, -213, 285, -1732, -2437, -1490, -129, -2, -2332, -17,
  -160, 173, -1631, -1280, -2859, 79, -1045, -205, 1509, -1171, -873, -672,
  -1456, -600, -1985, 131, -407, -1071, -1101, -4002, 479, -2010, 537, 1769,
  -2572, -1864, -2343, -1300, 2716, 2598, 161, -2064, -838, -1087, -458, -629,
  -1943, 261, -268, -2770, -2871, 1078, 128, -1706, -110, -2416, -533, 1309,
  -876, -1662, -1018, -1553, -928, -2382, 2909, 1004, 676, -2257, -4439, -1233,
  -3242, 624, -353, 241, -1392, -1865, -1127, 960, -73, 476, 727, 902,
  -324, 242, -1134, -796, 775, 1578, 1163, 513, 183, -3686, -219, -3000,
  -818, -2136, -325, 1607, 193, -1625, -2477, 1168, 213, -701, -167, -480,
  -1309, 1467, -1872, -1338, 4, 411, 1081, 848, 148, 188, -1220, -2997,
  -1309, -1674, -255, 850, 134, 583, -1245, 1098, 39, -1228, -1805, -2253,
  444, 771, -293, 1724, -2222, -1055, 1740, 1109, 1639, -1154, -2566, -1660,
  -3495, 597, 754, 1032, -1030, -1949, -2109, 1097, 679, 2517, 788, 1701,
  -1033, -2587, 896, -2037, 1995, 979, -174, -276, -419, 212, 650, 743,
  -2140, -947, 32, 1951, 1358, 1057, -666, 164, 951, -2753, -383, -288,
  712, 1706, -1993, -322, -1294, -1300, -815, -417, -1342, -651, -3079, -2183,
  -1414, -2051, -564, -2826, -526, -90, 223, -958, 103, -1350, -246, -983,
  -1581, -2321, 902, -598, -2575, -366, -2072, -3116, 525, 1774, -1258, -2092,
  -2256, -587, -670, -2371, -932, -1030, 887, 203, 1178, -3145, -1580, -971,
  -581, 1674, 680, -277, -2203, -293, -2549, -1316, -503, -1569, -215, -348,
  -1868, -1269, -3493, 179, -2587, -3134, -2916, -2592, -2447, -1516, -297, -596,
  -1344, -1201, -2509, -655, -527, 159, -588, -1095, -320, -2018, -416, 1402,
  -1726, -145, -2323, 407, 655, 1801, 408, -1790, 1657, -1367, -3538, -2872,
  -2799, -1774, 682, -1735, -1178, 387, -2682, -3040, 791, -1339, -1776, 364,
  -1315, -780, -143, -2976, 1397, -1393, -2387, 296, -894, -2570, 1137, 121,
  141, -908, 380, -2562, -106, 36, 1957, -2501, -1476, -1543, -155, -1032,
  1095, 102, 1717, -3124, -2149, -87, -1237, -32, -1588, -448, -503, -1675,
  -3953, -2062, -784, 1649, 2316, -2261, -150, -2104, -551, -495, 1286, 999,
  376, 401, -740, -480, -2105, 1778, -1873, -2374, -205, -352, -2695, 1750,
  -603, 238, -1431, -1940, -18, 1018, -491, -2029, -1754, -513, -769, 1072,
  593, -541, 1067, -1203, -2667, -1095, 439, -481, -1333, 1389, 1935, -2446,
  -3302, 453, 513, 1468, 1640, -449, -1439, -1435, -1459, -167, 353, 3330,
  -1055, -349, -1641, -2374, -730, -1128, 1175, -2143, 679, 879, 791, -607,
  -96, 446, -940, -908, -287, -851, -1664, 25, -1181, 624, -1397, -535,
  1372, -393, 1039, 477, -324, 65, -1353, -2235, -454, -767, -1850, 711,
  152, -1187, -2486, -405, -2014, 1644, 741, -949, -2236, -1874, -323, -3140,
  814, -1930, -939, 436, -938, 904, -217, 516, -1315, -1664, -2414, -2362,
  -1347, 912, 366, 1396, 712, -1921, -436, -454, -253, -250, -36, 333,
  -1960, 1246, -903, -2056, -387, 1235, 1219, 1431, -1571, -2078, -121, 144,
  -1183, -901, -675, -3627, -1108, 1336, 350, 977, 119, -2413, -2441, -125,
  -677, -56, -581, 777, -1132, -837, -2006, 893, -974, -140, -341, -138,
  -689, 785, 1929, -951, -268, -548, -1674, -1822, 1447, -157, -1464, -2387,
  -3205, -1922, -547, 61, 172, 1342, -3375, 502, -35, -212, -2387, -1551,
  -5089, -10601, -3986, 1393, -2061, -4429, 2562, 2182, -610, 1970, -1097, 6907,
  11319, 14914, 2793, -6980, -6031, -4133, 6051, 9915, -7587, -1642, -3991, 611,
  -646, -587, -6871, -15697, -2585, -7754, 1021, -1430, -124, -1272, 4085, 3253,
  408, 2468, 10511, 15332, 15937, 2431, -1970, 2316, 2175, 9776, 8077, 8972,
  -781, 780, -1116, -3822, -3678, -3367, -491, -4080, 2311, 12351, 12361, 11382,
  4231, 3529, -362, 7146, 1370, -1939, 721, 5428, -480, 601, -260, -3649,
  2093, 8146, 4504, -4448, 3653, 2246, -5672, -3417, -245, -3318, 385, 4142,
  3377, -4706, 1100, 3241, 2668, 6363, -1937, -768, 4389, 6774, -2478, 196,
  -8195, 3574, 2680, -10789, -3160, -941, 799, -6097, -3628, 2004, -2785, -3598,
  -5040, 5163, 8679, 8383, -3300, -3068, -1488, -6144, 6803, 14541, -5409, 3067,
  -433, 5920, -6644, 2430, -3291, 8648, 1657, 1609, 1260, -3467, -7747, -3995,
  -3192, 62, 6731, 8202, 1810, 933, 4918, -9608, 6095, 2029, 6281, 13647,
  13117, 18267, 413, -1740, -2715, -7766, -350, 7503, 4915, -1140, 6140, 634,
  -5533, -10666, -1151, 9689, -5262, 484, -3804, 3204, -3839, 1733, 10839, 4763,
  10833, 13020, 4323, -163, 11264, 1302, -1959, 1311, 4741, -4182, 3512, 1486,
  563, -510, 730, 2235, -2400, -2050, -821, -350, -396, -3077, 2452, 6506,
  2264, -1517, -1350, -5725, 257, 332, 684, 672, 2241, 270, -322, 921,
  -410, 5154, -2216, -730, 3786, -184, 6280, -705, -3063, -2297, -10701, 3370,
  -6048, -472, 7095, 3552, -8297, -9324, 11615, 11971, 5005, 19264, 9690, 5390,
  -1112, -1233, -5647, 5205, 6770, 757, -10230, -16981, -6338, -8314, -2616, -2795,
  928, -12985, -11129, -2485, 2444, 300, -7181, 3373, -2758, 4057, 2702, -549,
  -591, -8020, 10572, 12706, 5082, 8680, 4320, -894, -5979, -3130, 8289, 9621,
  4443, -4220, 1169, -12247, 9390, -651, -992, -697, -2411, 143, 4606, 3418,
  -4632, -2099, 909, 4109, -810, -5149, -3218, 3505, 4262, -724, 3361, -922,
  31, 1978, 4892, 2556, -2363, 1424, 2673, -6258, -7034, 4292, 5255, 3145,
  -1963, -1372, -4793, -8630, -6631, 5458, 8010, 5895, 1717, -11494, -1511, -4390,
